"","ame.cox","ame.po","ame.kmdr.clog","ame.kmdr.logit","ame.dr.ig.clog","ame.mdr.ig.logit","me.cox.x = 0.5","me.po.x = 0.5","me.kmdr.clog.x = 0.5","me.kmdr.logit.x = 0.5","me.dr.ig.clog.x = 0.5","me.dr.ig.logit.x = 0.5","cdf.cox.x = 0.5","cdf.po.x = 0.5","cdf.kmdr.clog.x = 0.5","cdf.kmdr.logit.x = 0.5","cdf.dr.ig.clog.x = 0.5","cdf.dr.ig.logit.x = 0.5","n","cens.level"
"t = 0.648920970271713","0.034150638792981","-0.0023611454272099","-0.00616619109520586","-0.00563001920159399","0.00479137021315984","0.00517728441251167","0.0332346096590186","-0.00172509953646031","-0.00231134114944886","-0.00313954691968959","0.00472655920067665","0.0042379330443324","0.00281511230395704","0.0014360187778559","-0.000638466568295473","-0.000407540127838273","0.0652277406211897","0.0654870096138738","400","30%"
"t = 0.662355355152468","0.0363307077723029","-0.00212807617779009","-0.00575365917435027","-0.0051696989330111","0.00671108621553382","0.00712306272224353","0.0354662210815154","-0.00150230729759769","-0.00189819054996157","-0.00280519846642665","0.00652987017048965","0.00603045339081424","0.00259005813363344","0.00111172083245831","-0.000966171770214007","-0.000705333121337812","0.0699765301792811","0.0702621491354041","400","30%"
"t = 0.675789740033223","0.038420923825006","-0.00214154231197819","-0.00672509983703705","-0.00608694741558562","0.0065725193388215","0.00701281558035862","0.0376258389178045","-0.00153217406704581","-0.00277948823627964","-0.00379734122896424","0.00638983699335148","0.00582347834067224","0.00248679184938658","0.00100102172210918","-0.0011381517298702","-0.00084061781784701","0.0746951934458721","0.0750183533842717","400","30%"
"t = 0.689224124913979","0.040465605849106","-0.00211011606434638","-0.00694796788214907","-0.00624193855059818","0.00709806754028914","0.00758389221443798","0.0397566054229402","-0.00151869991383191","-0.00305727470551821","-0.00414798559458921","0.00686955524811748","0.00627741300908446","0.00255307036785056","0.000956125195530686","-0.00118655417446404","-0.000851288425314071","0.0795565928293361","0.0799178239045348","400","30%"
"t = 0.702658509794734","0.0425046021457008","-0.00205715819625157","-0.00688345226832056","-0.00613696748395487","0.0084527085460779","0.00895941614647646","0.0418989908440403","-0.0014871974956572","-0.00299513557712262","-0.00419906095219058","0.00820089621479158","0.00756734780403505","0.00256533985323204","0.000881857473306941","-0.00119602065571568","-0.00082069809942445","0.0841348250163724","0.0845330397253069","400","30%"
"t = 0.716092894675489","0.0444245815465744","-0.00219191439607146","-0.00685364339973564","-0.00605883659774465","0.0102547262065463","0.0108025866148852","0.043937718819933","-0.00165930349973513","-0.00300833832942997","-0.00432782491267191","0.00996412409334349","0.00931232698292163","0.00272622573726489","0.00102371774739793","-0.00101534539760811","-0.000596592263994946","0.088704688812195","0.0891406233773723","400","30%"
"t = 0.729527279556244","0.0462301340135752","-0.00231801571550255","-0.00670506723306919","-0.00582387851973982","0.0120685953640536","0.0126621920840503","0.0458774446922836","-0.00183392685995417","-0.00295266901778668","-0.00433416126111495","0.0117283285564233","0.0111042092002663","0.00291370958753312","0.00112746780235771","-0.00088933712606468","-0.000422406895713175","0.0929061569258703","0.093377265885305","400","30%"
"t = 0.742961664436999","0.0480726561030684","-0.00234705058764303","-0.00614751771683689","-0.00521704772024233","0.0138522961282806","0.0144627801513869","0.0478698503796351","-0.00191596354066394","-0.00253753073144512","-0.00398701513441703","0.013523169402107","0.012892533060467","0.00300261648217173","0.00117867978819631","-0.000710358412807015","-0.000196131561939387","0.0969180860982832","0.0974239109392297","400","30%"
"t = 0.756396049317755","0.0498614091415154","-0.00240716359394051","-0.00548930505345384","-0.00450739825360318","0.0160736724599683","0.0166972885492281","0.0498233492599839","-0.00203094059375088","-0.00199470542189749","-0.00351668141420478","0.0157761325347343","0.0151202432678044","0.0031832339647003","0.0013427408420686","-0.00044567782562328","0.000118519442822135","0.100961346928155","0.101505995742967","400","30%"
"t = 0.76983043419851","0.0515392759359444","-0.00245587683591529","-0.0056254666244649","-0.00459479254319731","0.0177251359757416","0.018355683513758","0.0516786967403095","-0.00214721982569649","-0.00219106798853285","-0.00380879044967788","0.017487935935456","0.0167998765749184","0.00328910171164892","0.00144788078262614","-0.000344277604738537","0.000277243506671215","0.104484910721459","0.10507375634998","400","30%"
"t = 0.783264819079265","0.0531072320990831","-0.00248443945249644","-0.00591276336398873","-0.0048505483375124","0.0197418763558403","0.0203538826640694","0.0534361832599167","-0.0022498540884651","-0.00248347038456279","-0.00424336011916915","0.0195666670988328","0.0188070351023706","0.0033779793118946","0.00149760371184233","-0.000266845042506807","0.000416379875930555","0.107894399560552","0.108530177527532","400","30%"
"t = 0.79669920396002","0.0546864319793281","-0.00245121228516877","-0.00570682197043804","-0.00457980175169186","0.022104578906086","0.0227398462959433","0.0552166613279314","-0.00229236342077432","-0.00229676927091282","-0.00414731887607799","0.0220173127473044","0.0212540879969917","0.00329231220656661","0.00148349102186453","-0.000320546182651918","0.000426765879625659","0.111199220929826","0.111881347115196","400","30%"
"t = 0.810133588840775","0.0561295573367138","-0.00239860762088614","-0.00518256080271285","-0.00402738962223749","0.0236228792025076","0.0242813979341486","0.0568707082245657","-0.0023201071463854","-0.00183506329848806","-0.00377845355277451","0.0236312322689379","0.0228600570876848","0.00331569478679437","0.00150105352218458","-0.000245984602301195","0.000563897583728387","0.114386754156164","0.115121355441161","400","30%"
"t = 0.823567973721531","0.0574634371346507","-0.00235319888740693","-0.00511310694994474","-0.00391849102999891","0.0253989790238777","0.0260620270751003","0.058421670410025","-0.00236033360360499","-0.0018233985596692","-0.00384659067167189","0.0255230782466377","0.0247161678938847","0.00328248803704862","0.00148672229879643","-0.000230698472970019","0.000646577637391968","0.11719112139836","0.117980300309618","400","30%"
"t = 0.837002358602286","0.0587617667785625","-0.00219782133058071","-0.00541697577952348","-0.00419066836132174","0.0264498428298076","0.0271118456686331","0.0599426412742348","-0.0022857722805199","-0.00213678236849504","-0.00430014416458446","0.0266978787958047","0.025830973891834","0.00306281622044699","0.00133131602171057","-0.000409151142969239","0.000544820891152694","0.119586042127077","0.120437939528661","400","30%"
"t = 0.850436743483041","0.0598008543981431","-0.00219989376583727","-0.00506973627590535","-0.00384134462386308","0.028319157674652","0.0289518383904178","0.0612067307826051","-0.00237873946686016","-0.00186544058420506","-0.00414335768191281","0.0286862059416627","0.0277702062394342","0.00309160588855268","0.00143445429468907","-0.000272239469139283","0.000754119812941422","0.122085504677359","0.122993469838929","400","30%"
"t = 0.863871128363796","0.0606791035988261","-0.00221121668178075","-0.00490978484369391","-0.00359073885834698","0.029919410223108","0.0305930643452214","0.0623072087142351","-0.00249741436363229","-0.00177740613630579","-0.00407995535518049","0.0304161016161881","0.0295169591575757","0.00309520806219691","0.00154877552550152","-0.000108591421884472","0.000997173537731474","0.124504574998175","0.125472610459713","400","30%"
"t = 0.877305513244552","0.0615103276856874","-0.00210274065693747","-0.00472253762895805","-0.00336796302196071","0.0316161345656508","0.0322959121934394","0.0633603702412264","-0.00248671899628057","-0.00165840056022439","-0.00405040040117616","0.0322428283587153","0.0313526089792645","0.00291101160048923","0.00143357468745825","-0.000263057827026004","0.000924402773277754","0.126680575590136","0.127706967367991","400","30%"
"t = 0.890739898125307","0.062224918047621","-0.00195121958333047","-0.00394632894815509","-0.00262454641044146","0.0344745324237446","0.0351155978414815","0.0642936777632594","-0.00242295675799369","-0.000958016284913758","-0.00345995367421894","0.0352426230854738","0.0343427138958786","0.00272798611470102","0.00133902010531162","-0.000344222534765766","0.000918182259537798","0.128571446852476","0.129646200993637","400","30%"
"t = 0.904174283006062","0.0627329043712366","-0.00186769574173177","-0.00380294081057084","-0.00239828630898137","0.0367015454394589","0.0374018536543423","0.0650103946822098","-0.00243714096032015","-0.000878229548465551","-0.00338597339502201","0.0376117439666609","0.0368037341525556","0.00250672775678604","0.00123043282862235","-0.000455118936118752","0.000892013004548262","0.130216230840042","0.131345060754912","400","30%"
"t = 0.917608667886817","0.063059347727761","-0.00181627530119087","-0.00462906255298094","-0.0031610660927817","0.037827415151883","0.0385389525138589","0.0655330892807661","-0.00248924256766824","-0.00180827007901207","-0.00438184672587837","0.0388611553098881","0.0380775104792442","0.0023442302888133","0.00120533170546433","-0.000559299267059455","0.000886868628703402","0.131715230271461","0.13290908300215","400","30%"
"t = 0.931043052767572","0.0632000744450844","-0.00175016619422432","-0.00420382538945015","-0.00270820597607369","0.0402389000079916","0.0409252003171645","0.0658578029917897","-0.00251295602450179","-0.00148022800900863","-0.00407551906095955","0.0414108863481869","0.0406436265675248","0.00230115961188909","0.00125947022792675","-0.00042241677429335","0.00110675344153527","0.133062594052434","0.134308947296407","400","30%"
"t = 0.944477437648327","0.0631854115225714","-0.00170289412078413","-0.00384152829589658","-0.00237647234518229","0.0425699253957722","0.0432330825242069","0.0660114409410194","-0.00255779386662882","-0.00121415197807536","-0.00389566705901289","0.043886807119622","0.0431495546582019","0.00215368293875236","0.0012806071228255","-0.000413476506859944","0.00119743167885863","0.134172369706683","0.135465282966661","400","30%"
"t = 0.957911822529083","0.0630341454300851","-0.00164662398836111","-0.0033226410079414","-0.00189857062202314","0.0447589946523669","0.0453946469035855","0.0660144671224095","-0.00258418135483165","-0.000800039240453573","-0.00352178001706258","0.046221262418747","0.0455128442182149","0.00212210115754279","0.00139812770884505","-0.000333543165536512","0.0013586732098868","0.135082455616683","0.136426371659066","400","30%"
"t = 0.971346207409838","0.0626526805851846","-0.00162939793488954","-0.00271402753823019","-0.0012979110753341","0.046843487185262","0.0474931538415744","0.0657597106336277","-0.00266216378021756","-0.000317549976927182","-0.00302955632213222","0.0484361464432663","0.0478075814317826","0.0020757961679912","0.00153869698506771","-0.00012704918421547","0.00164834157240715","0.136018907009909","0.13741144528662","400","30%"
"t = 0.984780592290593","0.0621360573993006","-0.0015788886986534","-0.00284295976525182","-0.00142912695924594","0.0481795981346999","0.0488264641759723","0.0653510937741545","-0.00269441360979644","-0.000576414515352007","-0.00327233690039674","0.0498906612426246","0.0493296241840613","0.00199043805394896","0.00157915277847845","-0.000128613427012331","0.00173348496505641","0.136497849443016","0.137943236539267","400","30%"
"t = 0.998214977171348","0.0614370594817219","-0.00156580720208583","-0.00231412645858953","-0.000956831454366578","0.0498279041612346","0.0504289651266554","0.0647364249382475","-0.00276506593115196","-0.00017626047342815","-0.00283654837428457","0.0516687317316719","0.0511593349557259","0.00205555068619261","0.00184976702207835","0.000133998619432669","0.0020686983222698","0.13726565875074","0.138754425989618","400","30%"
"t = 1.0116493620521","0.0606228280172108","-0.00151939141098401","-0.00193485699224995","-0.000565414867822352","0.052028612659276","0.0525959938456867","0.0639868945014555","-0.00278676962084042","5.88222932261587e-05","-0.00255465670049739","0.0539553934876187","0.0534899949411101","0.00205384247894589","0.00199550568523326","0.000305433610814273","0.00232600435336556","0.137749881562051","0.139287169877911","400","30%"
"t = 1.02508374693286","0.0596753886303153","-0.00143995152719604","-0.00115612287729856","0.00016241089469374","0.0546974995696801","0.0552258392225088","0.0630726006403352","-0.00277185966520911","0.0006907723347381","-0.00192108261861012","0.0567021414407537","0.0562951416515986","0.00189993719060347","0.00202588342306241","0.000342081191785417","0.00243930861416177","0.13810345756511","0.139680639681203","400","30%"
"t = 1.03851813181361","0.0586146494866316","-0.00138392775602115","-0.00150951543601625","-0.00022298553912553","0.055880922314806","0.0563446397267558","0.0620237880303705","-0.00277646602580525","0.000140748449870046","-0.00244981485998192","0.0579474321504665","0.0575736746776234","0.0017914196727064","0.00214389320926829","0.000431231529809067","0.00261815422433426","0.138191975905006","0.139817540509375","400","30%"
"t = 1.05195251669437","0.0573884918493156","-0.00130675559121853","-0.00182621640494776","-0.000570673874357655","0.0570531934318528","0.0574607644746585","0.060783576939484","-0.00274843596262673","-0.000381176511091294","-0.00294142523120333","0.05915056432296","0.0588199607567491","0.00181704435783397","0.00229316309312934","0.000564299562675339","0.00284398228250128","0.138219773814532","0.139896589341715","400","30%"
"t = 1.06538690157512","0.0560952599789615","-0.00120755964518546","-0.0022089158862679","-0.0010026074307576","0.0582483255930723","0.0585896571893883","0.059452362142821","-0.00269152586256061","-0.000972234050061381","-0.00348618432667256","0.0603534265931333","0.0600700679727555","0.00158047351998709","0.00224879722092552","0.000547224166167632","0.00291422395583406","0.138124892119059","0.139855194837889","400","30%"
"t = 1.07882128645588","0.0547139962407223","-0.00110591468357354","-0.000932442372467365","0.000155623130638946","0.0609233579224885","0.0611486164047723","0.0580088090383776","-0.00262866893844765","0.000159287854070255","-0.00231656030588652","0.0630982942500254","0.062820318935938","0.00113622701753055","0.00196608685727558","0.000154365075026086","0.00257374507391282","0.137390962123212","0.13913776377815","400","30%"
"t = 1.09225567133663","0.0531806974593548","-0.00104736259813458","-0.00192312743261008","-0.000896007292022821","0.0615406045621431","0.0617061536555434","0.0563889649503052","-0.00259851100392296","-0.00109660594201436","-0.00353033008926602","0.0636701839808393","0.0634551857581846","0.0010491918593839","0.00205238447538241","0.000269135203487424","0.00277944609051094","0.136986402853848","0.138787858632132","400","30%"
"t = 1.10569005621739","0.0515181554822392","-0.000988687666007111","-0.00212388542407295","-0.00116901214447968","0.0626139717601223","0.0627327766412468","0.0546105465526941","-0.0025615723366316","-0.00152350388727241","-0.00386007137624357","0.064733539510633","0.0646137262038026","0.000980525212668012","0.00215931815753348","0.0003776844176715","0.00295825107279349","0.13650783484882","0.138342228651855","400","30%"
"t = 1.11912444109815","0.0496955116619475","-0.000938050228778222","-0.00205020162091668","-0.00119175854761991","0.0637757942955839","0.0637911287897354","0.0526433935843222","-0.0025257569503206","-0.00165574640558809","-0.00387328052552478","0.0659012238405069","0.0658246628002436","0.00115960304588991","0.00249839554432252","0.000776847912006394","0.00341689612871703","0.136127739748605","0.13798605888935","400","30%"
"t = 1.1325588259789","0.0478047156858501","-0.000875647790509206","-0.00147773826390528","-0.000638169718968707","0.065443297108039","0.0654068662476527","0.0505873471598151","-0.00246983865314173","-0.00131551755356395","-0.00334888122200983","0.0675374308567241","0.0675510611638939","0.00137335584365476","0.00288319265666294","0.00118843760174895","0.00387920245559793","0.135637224333099","0.137513661622337","400","30%"
"t = 1.14599321085966","0.0459668105511986","-0.000810650547994838","-0.000989892125181261","-0.000189072804696493","0.0663732553480299","0.0663078115842158","0.0485794294145799","-0.00240060900795936","-0.00107533761311721","-0.00294439594091378","0.0683989155638209","0.068541431171837","0.000819067908012811","0.00255238391768085","0.000802289111185029","0.00354530052330251","0.134518498967081","0.136420899690653","400","30%"
"t = 1.15942759574041","0.0439432656384896","-0.000760402103801323","-0.00068260139290561","8.54177613179119e-05","0.0678270630955142","0.0677190030545191","0.046355292199259","-0.0023434823173124","-0.00101585312696767","-0.00268961562383312","0.0698094544490889","0.0700613270881339","0.000930843347126885","0.00277698568405466","0.00105899109863196","0.00385591593536015","0.133885352489632","0.135801258408444","400","30%"
"t = 1.17286198062117","0.0418638390779615","-0.000688010875711856","-0.00163134769549013","-0.00092598936342265","0.0674960200876646","0.0673495799937633","0.0440553963072875","-0.00225378520128926","-0.00221971206691683","-0.00370979395124017","0.0693879383352746","0.0697748452975527","0.000996175194633881","0.00294662005587495","0.00127657290656454","0.00413523669406913","0.133074418985978","0.135022255318659","400","30%"
"t = 1.18629636550192","0.0397386211489582","-0.000623443560815633","-0.00259753313800622","-0.00202950340685447","0.0672603286280118","0.0670065360567961","0.0416971269529008","-0.00216789701695408","-0.00348143139660884","-0.00488594475033607","0.0690397105139766","0.0694800660502416","0.00104194493266221","0.00310240319579759","0.00144530892527399","0.0043689471233826","0.132092142160792","0.134071229289197","400","30%"
"t = 1.19973075038268","0.037630785522728","-0.00062988437378413","-0.00223904159703073","-0.00180282822918989","0.0686269374417525","0.0683126585420757","0.0393520039048577","-0.00215738918571141","-0.00331553280256486","-0.00461797115518739","0.0703532188314418","0.0708669236301901","0.000454703220462452","0.00266747149621311","0.00102057139374578","0.00397131070813648","0.130687302905156","0.132659789655798","400","30%"
"t = 1.21316513526343","0.0354524512425267","-0.000597467732131755","-0.00122190552757257","-0.000788199003609944","0.0703361254476334","0.0700459745567949","0.0369169843573977","-0.00209555543939283","-0.00253014872919965","-0.00355616781557532","0.0719842680798092","0.0726734027255048","0.000227206794487431","0.00258327634561695","0.000994228011285901","0.00396643738027003","0.129282719212603","0.131243761541572","400","30%"
"t = 1.22659952014419","0.0332353131902484","-0.000569922136721576","-0.00119458385245879","-0.000726336146663364","0.0706097147580361","0.0703401278078674","0.0344355153281393","-0.00203154499081573","-0.00272007292013223","-0.00345814665141112","0.0721618291065417","0.0730056538190893","9.34838348153065e-05","0.0025099872088404","0.000975616467365441","0.0039745830149685","0.127992627249184","0.129953439725564","400","30%"
"t = 1.24003390502494","0.0310170312254632","-0.000548817665197997","-0.00092476781535458","-0.000614870480160749","0.0708190336553882","0.0704391451315019","0.0319485055048055","-0.00197343382918449","-0.00269370307600816","-0.00336459540269726","0.0722245835607124","0.0731068298460659","-8.66391851381132e-05","0.0024356494035541","0.000924142643380455","0.00395927355107666","0.126504978677619","0.128479260123956","400","30%"
"t = 1.2534682899057","0.0287545516209198","-0.000444010916637383","-0.000810215270765943","-0.000669587721102609","0.0716318372773628","0.0711747968856002","0.0294008994430957","-0.00182289814630412","-0.00287039579344401","-0.00343012718556581","0.0729200852956797","0.0738928543630938","0.000136697446185785","0.00275835894648977","0.0013358356263531","0.0044118725047912","0.125352039046855","0.127325586954763","400","30%"
"t = 1.26690267478645","0.0264943668101118","-0.00038890315932393","-0.000951301036581096","-0.000906913408431936","0.0716308756798869","0.0711095477503587","0.0268596133851755","-0.00172153358347763","-0.00326938809750807","-0.00364598330231441","0.072788375892202","0.0738551662054392","0.000117346980962549","0.00283371568189827","0.00142399508428639","0.00453243356693719","0.123935473057275","0.125912583539978","400","30%"
"t = 1.28033705966721","0.0242229251432662","-0.000355277915528073","-0.000490497174586906","-0.0005439558613685","0.0723936956802352","0.0718242750372464","0.0243018499690938","-0.00164168000875083","-0.00301976067382038","-0.00320614294210271","0.0734307921706566","0.0745914205024335","0.000126206555468956","0.00289271074168451","0.0015394169146737","0.00465904157629253","0.122380184540465","0.124343704668574","400","30%"
"t = 1.29377144454796","0.0219693538259981","-0.000341987454946888","-0.000485715450537073","-0.000590552281675499","0.0729358767623678","0.072329814255227","0.0217607626090922","-0.00157723661292816","-0.00321856416110191","-0.00315631593875381","0.073854894314549","0.0751210160919325","-7.95834654538644e-05","0.00277013037448969","0.00143388448017934","0.00455973009710899","0.120750667451044","0.122700030169382","400","30%"
"t = 1.30720582942872","0.0197110469100623","-0.000342603798759875","0.000626021851970798","0.000453577824742844","0.0741056178641734","0.0734659465743151","0.0192176722980442","-0.0015253013169359","-0.00226163414644829","-0.00199111231605539","0.0749560803250079","0.0762843263019387","-0.000317683935543238","0.00259786859714767","0.00131783621141089","0.00443438849136569","0.119060124996921","0.12097315267837","400","30%"
"t = 1.32064021430947","0.0175010391994095","-0.000234248248877842","0.000736781198175012","0.000521419964236629","0.0742559461208455","0.0735950257614423","0.0167180194525413","-0.00135156643939884","-0.00236629531968233","-0.00184521039070255","0.0749919332439302","0.0764123076402161","-0.000257073565894498","0.00270037445596783","0.00155602194908701","0.00467919575002379","0.117600305614916","0.119490577470417","400","30%"
"t = 1.33407459919023","0.0152913590203745","-0.000195044525749422","-3.75580291046622e-05","-0.000354481029585827","0.0733621485764539","0.0726522326548329","0.0142275566650014","-0.00125585559664106","-0.00338063129740984","-0.0026535330398337","0.0739365930518694","0.0754711285200862","-0.000268482281302381","0.00270892738829459","0.00157620698177159","0.00471810415453606","0.116060209605781","0.117951519652015","400","30%"
"t = 1.34750898407098","0.0130879209805565","-0.000217520238488052","-0.000218363363376001","-0.000587019784007745","0.0733173887927137","0.0725776907372498","0.0117532416448956","-0.00122611132080907","-0.00373189672763065","-0.00278698872934661","0.0737752566406653","0.0753829237590733","-0.000553366381421892","0.00251090547675738","0.00142679304440742","0.00456562198097376","0.114343682150783","0.116213997172438","400","30%"
"t = 1.36094336895174","0.0109493869488366","-0.000168599738012268","0.00114066816742087","0.000654029186408231","0.0745127048447142","0.0737206371054232","0.00934558616328917","-0.00111311164444908","-0.00249840459985982","-0.00140152836094186","0.0748832596952888","0.0765193217808351","-0.000538971317449667","0.00248245685355711","0.00149729368691937","0.00460848932868399","0.112735705380715","0.114566548502955","400","30%"
"t = 1.37437775383249","0.00884746464625026","-7.71158611597547e-05","0.000492887912868301","-3.82054532948473e-05","0.0742342118038973","0.0734612777149857","0.00698512427054441","-0.000957442759615471","-0.00331203702367545","-0.00200886765512999","0.0745012088509604","0.0762294861622981","-0.00039781145625684","0.00265606573958846","0.00174741865945685","0.00486635627087195","0.111239924412284","0.113041651579482","400","30%"
"t = 1.38781213871325","0.00677815640286105","-6.94801603926092e-06","-0.000380787907245935","-0.0010213551453918","0.0737047585937561","0.0728590267448018","0.00466522049562382","-0.00082295100872653","-0.00440762507211057","-0.00291051090243749","0.0738312806414834","0.0756263643135179","-0.000343687958420347","0.0027382122857919","0.0018806486120341","0.0050199565384788","0.109692251902275","0.111487398408449","400","30%"
"t = 1.401246523594","0.00472034120610248","-1.83800253273069e-05","0.000300341159383402","-0.000422326737891892","0.0737293440643951","0.0728454044097261","0.00236789183166208","-0.000782438932516753","-0.00379714441591593","-0.00217502088352731","0.0737503493658404","0.0755862239553412","-0.000439565837854341","0.00264964141926175","0.0018648465097597","0.00497866897806742","0.10797078334055","0.109739968417989","400","30%"
"t = 1.41468090847476","0.0027274334893591","3.26059024710252e-05","0.000953445384114753","0.000178826234979827","0.0739163496910493","0.0730364390628007","0.000146408633871678","-0.000672409408695716","-0.00324470302348212","-0.00142618502854966","0.0738415207844301","0.0757481976290236","-0.000382589514205792","0.0026878764598125","0.00199210459605419","0.00507337466456716","0.106318891510707","0.108050588846223","400","30%"
"t = 1.42811529335551","0.000805546592612044","0.000152066424280779","0.000664465172465226","-0.000126632876399921","0.0734558118770642","0.072576934903898","-0.00199662385662536","-0.000488288244481322","-0.00364743500441655","-0.00160384747140485","0.0732623123013725","0.0752505228559009","-0.000255447358826477","0.00285456646665013","0.00228906609408648","0.00536130592364433","0.104851809856874","0.106561641037492","400","30%"
"t = 1.44154967823627","-0.0010742613160304","0.000252259904948546","0.00203743544015081","0.00116129919377384","0.074062843034589","0.0731500743661377","-0.00408277384297018","-0.000328365943558102","-0.00236099116117735","-0.000133634243320715","0.0738011054203611","0.075802475854814","2.84602133252154e-06","0.00309294335261433","0.00261644290950193","0.00565940146047637","0.103392029921998","0.105060341744933","400","30%"
"t = 1.45498406311702","-0.00292038644641247","0.00029799383507792","0.00211522681219132","0.00120269813191676","0.0741187939292827","0.0731985068770181","-0.006121323506368","-0.00022431949712034","-0.00241178991935863","3.87311039013648e-05","0.0737582525741001","0.0758111188168738","1.61114554271267e-05","0.00306927280358274","0.00263844499800576","0.00566219714739901","0.10177069961099","0.103406005485289","400","30%"
"t = 1.46841844799778","-0.00468990079072997","0.000413022086256942","0.00208444982216712","0.00101966797854343","0.0736709256333039","0.0726715702936952","-0.00807189500493461","-4.36385758315301e-05","-0.00251533678250264","1.16536317620334e-05","0.0732168221096786","0.0752663381054324","0.000229749450039574","0.00323181522505824","0.00289906915125835","0.00589897615353817","0.100294963678133","0.101904574935081","400","30%"
"t = 1.48185283287854","-0.00643517822591722","0.000473244174505732","0.00308218070494377","0.0019430545677033","0.0738816531357957","0.072865197800119","-0.00998697358969105","7.15802359015345e-05","-0.00149883928324758","0.00112876842319363","0.0733679139143846","0.0754151267098201","0.000280662175514707","0.0033136513829951","0.0030768557049045","0.00603559307049946","0.0986848870808838","0.10025368790966","400","30%"
"t = 1.49528721775929","-0.00819056742986151","0.000373657311774472","0.00274113193325881","0.00156848183425536","0.0733088664039135","0.0722531922877759","-0.0119026935430527","8.38614102657535e-06","-0.00184268194327634","0.000861181834353105","0.0727161289288527","0.0747278343984522","0.000107151410718695","0.00311099421899671","0.00291573811101162","0.00583581102824849","0.0969931522652882","0.0985296067241541","400","30%"
"t = 1.50872160264005","-0.00990610309634442","0.000289122766571361","0.00172233195804874","0.00057038548346904","0.0723686471379911","0.0713174925248719","-0.0137633623131419","-3.64017896585595e-05","-0.00294489835210407","-1.29105699580351e-05","0.0716900957725484","0.0737469748335958","-0.000107205061190896","0.00289058630644162","0.00272293286898045","0.00562155828331144","0.0952560257316544","0.0967648942675913","400","30%"
"t = 1.5221559875208","-0.0114923800362476","0.000336203801373665","0.00205095639789753","0.000842831995664913","0.0719017877091053","0.0708061115947765","-0.0154798817624544","6.22507750940119e-05","-0.0027092041436661","0.000408391479227364","0.0711380831201135","0.0732093884233847","-9.02340039524155e-05","0.00289185681290082","0.00290801077673495","0.00578438111146096","0.0938464405525215","0.0953336672993268","400","30%"
"t = 1.53559037240156","-0.0130286310103081","0.000355500975373124","0.00105257178403258","-0.00023382659968557","0.0708354147737206","0.0696863530680777","-0.0171338136797799","0.000125549211365526","-0.00378069801379621","-0.000485129231806617","0.0699923944131546","0.0721084191989605","-7.46498882350787e-05","0.00283953149667603","0.00289232215353077","0.00575699255756871","0.0923381601466947","0.0938092539559641","400","30%"
"t = 1.54902475728231","-0.0144703603743044","0.000475901549710962","0.000917391510689751","-0.000489737939401654","0.0698926340671711","0.0686901999661623","-0.0186808822952345","0.000295287566846491","-0.00392459643478482","-0.00057609342136602","0.0689723304535121","0.0710719379445824","0.000132488016560904","0.00301285289795401","0.00319523398976526","0.00603587115450065","0.0908525936489663","0.0923015147116947","400","30%"
"t = 1.56245914216307","-0.0159529300617386","0.000446264884525521","0.000903701213303359","-0.000458095908178834","0.0691014153061334","0.0679107034348031","-0.0202603085739825","0.000301641033395886","-0.00392011759068285","-0.000406556236567774","0.0681212576244029","0.0702563784263872","7.76873769704511e-06","0.00291320243375649","0.0030489957163742","0.00584176460418748","0.0892607364054108","0.0906799533283332","400","30%"
"t = 1.57589352704382","-0.0173253380639552","0.000445809288108598","0.00109534564710658","-0.000280223380627602","0.0686250597659937","0.0674549900345586","-0.0217160865077931","0.000337739594121231","-0.00372386830327078","-6.57988034047627e-05","0.0675905102326388","0.0697540822088276","9.3203313045246e-05","0.00288381257161033","0.00320623394221367","0.00595617011707722","0.0878014665559298","0.0891818760431531","400","30%"
"t = 1.58932791192458","-0.0187228101713753","0.000356477472110363","0.00178319072534028","0.000435957872360816","0.0686017682192604","0.0674287097660864","-0.0231851526862285","0.000279192976666101","-0.00298411641113585","0.000773794553149557","0.0675219803618966","0.0696519989135473","-0.000104395195577219","0.0026646286272374","0.00298688426689144","0.00567566727130597","0.0861394430497822","0.0874808486874621","400","30%"
"t = 1.60276229680533","-0.0199633343777397","0.000423781020240206","0.00173028610239918","0.000402288848350238","0.0678168162252439","0.0666408628300442","-0.0244810070651291","0.000385469574269512","-0.00306237630575064","0.000928309125472142","0.0666845767676344","0.06886846847289","-1.08470016681862e-05","0.00271698581898447","0.00316783923907118","0.00582506041042852","0.0847375995855299","0.0860544697786201","400","30%"
"t = 1.61619668168609","-0.0211675738577105","0.000481553039256111","0.00190103508708599","0.000523888875726448","0.0670362454382352","0.0658732510194994","-0.0257290904088387","0.000480528053515808","-0.00285410274525533","0.00122950317420749","0.0658609344913122","0.068109405481199","2.26880434106812e-05","0.00272238605506809","0.00326843669117383","0.00588836609327913","0.0832689794700174","0.0845556386612976","400","30%"
"t = 1.62963106656684","-0.0222991922692379","0.000565284728103916","0.00208932687194093","0.000599603556404046","0.0665411698782713","0.0653396983338473","-0.0268993199553302","0.000599883754406737","-0.00262495684530767","0.0014920620311606","0.0653331795473904","0.0675389261457907","0.000159857861178712","0.00280195137043496","0.00338705522281504","0.00596963671708311","0.0818890179880248","0.0831449480997331","400","30%"
"t = 1.6430654514476","-0.023351675741708","0.000700268312323839","0.00176303497957202","0.000145910060121335","0.0656492790173236","0.064422804013877","-0.0279756304251367","0.000772088842092451","-0.00292869455618436","0.00123474024525967","0.0644167163759008","0.0666435150381612","0.000369158681089485","0.00296386324082063","0.00370837444249724","0.00627609139044129","0.0806687851590206","0.0819012615746976","400","30%"
"t = 1.65649983632835","-0.0242996240071951","0.000877219904083145","0.00223043578011497","0.000630938678043752","0.0648859959493896","0.0636740373838525","-0.0289311292332975","0.000984948729422326","-0.00238427709289097","0.00190545335947381","0.0636392251934193","0.0658820538637533","0.000619334951220576","0.00313801474448115","0.0040075276950031","0.00652842317127049","0.0794048192367342","0.0806069703293183","400","30%"
"t = 1.66993422120911","-0.0253530584172176","0.000844485957850095","0.00193427583943479","0.000385499824713778","0.0638296151828916","0.0626386886992297","-0.0299929371340519","0.000974902327238868","-0.00263353008841154","0.00179453010744751","0.062556962689323","0.0648582177235333","0.000576282423358724","0.00305026205540486","0.00388667817958881","0.00636992842053001","0.077888308359604","0.0790682639968371","400","30%"
"t = 1.68336860608986","-0.0263455187304895","0.000837023798953569","0.00225389065652461","0.000738502871996962","0.0629064504283734","0.0617254761118455","-0.0309821026433698","0.000992103867347676","-0.00226917423148698","0.00223152784366862","0.0615921916556578","0.0639315958037798","0.00052661388086559","0.00298920691530198","0.0038733643826688","0.00631183417541754","0.0764119183464709","0.0775729186428661","400","30%"
"t = 1.69680299097062","-0.0272639596575024","0.000861112215799092","0.00328385588669603","0.00187393718844522","0.0627241136041271","0.0616377721023613","-0.0318895470038858","0.00103632392708804","-0.00110271864008869","0.00347944324079584","0.0614115013194302","0.0637541313569654","0.000607404189363285","0.00302505771665066","0.00407656864781893","0.00643933667520408","0.0751334673163754","0.0762450347572525","400","30%"
"t = 1.71023737585137","-0.0281571891185513","0.000857347875430284","0.00335555047027064","0.00197159247716345","0.0618478953149394","0.0607777486556231","-0.0327619263606293","0.00105147183130888","-0.000972913793340342","0.00367389522225482","0.0605162567806434","0.0628470096130491","0.0006369662502641","0.00301590714116222","0.00403425769483157","0.00635683256655294","0.0737302224224603","0.0748165638086077","400","30%"
"t = 1.72367176073213","-0.0289346712947701","0.000970307371272578","0.00402326672313353","0.0025733696078145","0.0613652861492031","0.0602860965952618","-0.0335087732833662","0.00118749090611854","-0.000218370993505015","0.00440658484581407","0.0600244317222766","0.0623247508679152","0.000806965974199678","0.00315857430673309","0.00420142566361275","0.00649116565512513","0.072437044297344","0.0734962545424922","400","30%"
"t = 1.73710614561288","-0.029592606128885","0.00112956542993438","0.00445745960177374","0.0029467559307521","0.0605944965360652","0.0594942558825544","-0.0341230806640654","0.00137003640037939","0.000270172508752646","0.00495182786991107","0.0592562839413257","0.0615676694521324","0.00108107252703287","0.00333296978835915","0.00453400464169905","0.00678904745813117","0.071259317041412","0.072292965489759","400","30%"
"t = 1.75054053049364","-0.0302680464711183","0.00123354810267543","0.00484960250835979","0.00316445996837902","0.059975755696747","0.0588411401339393","-0.0347532284385351","0.00149230346938795","0.000723329502748989","0.00538373095017302","0.0586295497663438","0.0608829186529085","0.00120700437003612","0.00344091697437823","0.00476566448268707","0.00700422157566309","0.0700342894742233","0.0710482587461719","400","30%"
"t = 1.76397491537439","-0.0309403615932261","0.00129218308799368","0.00575295778741702","0.00398959418582339","0.0597781840878203","0.0586481250244839","-0.0353726480107758","0.00156850977588617","0.00172388141283318","0.00631779069597084","0.0584424583661769","0.0606165951104774","0.00126452636207771","0.00346937181086365","0.00472153571545098","0.00691336312931027","0.0687843994444233","0.06975954889242","400","30%"
"t = 1.77740930025515","-0.0315361970736094","0.00135320648890161","0.00620821168061426","0.00439476020597574","0.0592472689655222","0.0581141975241832","-0.0359043744083212","0.00164670061041626","0.0022810434120234","0.00686398914228495","0.0579202019443682","0.0600429385973383","0.00133971502128698","0.00347857366811959","0.00485809122781918","0.00700728748988647","0.0675461692215556","0.0684942645938312","400","30%"
"t = 1.79084368513591","-0.0320584803522289","0.00146451487313945","0.00620062729876341","0.00443957758894229","0.0585527347411957","0.0574677438543322","-0.0363523235439463","0.00177279371402241","0.00235570021444311","0.00703297438355367","0.057231160914378","0.0593444938189597","0.0014231186723386","0.00353731770656229","0.00491805699816876","0.00702738572528184","0.0663128789253331","0.0672303740395797","400","30%"
"t = 1.80427807001666","-0.0325963728719157","0.00153594755377675","0.00675042341536153","0.00488313999637452","0.0579570300113233","0.0568495324691635","-0.036814558072606","0.00185638510110686","0.0030226972230768","0.00763114927357953","0.0566397304207465","0.0586849556190406","0.00148994010701521","0.00359971539892019","0.00508654392201307","0.00716039014542591","0.0651470633844411","0.0660418333933952","400","30%"
"t = 1.81771245489742","-0.0331442270508363","0.00157080539245973","0.00631023658827238","0.00442774665715843","0.0568455279478434","0.0557406463066166","-0.0372827873905502","0.00190160215603365","0.00267000999654943","0.00734421172040647","0.0555340916387546","0.057552485670161","0.001455649657146","0.00360280550866079","0.00517391665451085","0.00720726505118896","0.0640029820812479","0.0648752624502135","400","30%"
"t = 1.83114683977817","-0.0335367461201198","0.00162116926051053","0.00623735052044176","0.00428233380009899","0.0561598837549694","0.0550298209920178","-0.0375781027199235","0.00196030392756785","0.00270460359326252","0.00737923678504846","0.0548628639785434","0.0568253063380356","0.00157610509489344","0.00360971879146507","0.00528607921313723","0.007283466131029","0.062934962570078","0.063782790197985","400","30%"
"t = 1.84458122465893","-0.0339831103605082","0.00169204879256361","0.00592524649352558","0.00392999191380483","0.0550721485388532","0.0539009764340206","-0.0379366434121994","0.00204259648457534","0.00247168232047422","0.00723441269595405","0.0537986061481195","0.0557601246010012","0.00161847951756563","0.0036576667960317","0.00538532189482578","0.00735499823550632","0.0618021924607925","0.0626365345025183","400","30%"
"t = 1.85801560953968","-0.0344353942666297","0.0016754687284011","0.00563204261583822","0.00356702701958013","0.054199129086147","0.0530351138884032","-0.0383019202810982","0.00203278819250281","0.00227466043085077","0.0071149027021561","0.0529371404055782","0.0548902248513389","0.00158667040427455","0.00357349328813257","0.00533761393388601","0.00729074668079232","0.0605711565995313","0.0613864092388372","400","30%"
"t = 1.87144999442044","-0.0348898968084961","0.00163007104431443","0.00580915940092951","0.00369516788744928","0.053500841881237","0.0523148682614569","-0.0386687628906404","0.00199208859484971","0.00257865694134821","0.00744502670186503","0.0522669277439128","0.0541939296143902","0.00152832794650061","0.00348351280104371","0.00529808632553096","0.00722670990050109","0.05942566858269","0.0602226311664262","400","30%"
"t = 1.88488437930119","-0.0352644596010488","0.00161669740274645","0.00582877364390199","0.00369411665569155","0.0527015078609029","0.0515184486937214","-0.0389448349546933","0.00198374742769629","0.00268253755672438","0.00758616574628948","0.0514685599046568","0.0533643290007364","0.00148616082180252","0.00339507431126461","0.00527394194957841","0.00716488045786962","0.058272784894243","0.0590490984181492","400","30%"
"t = 1.89831876418195","-0.0355545897601547","0.00169063321694818","0.007139377619023","0.00505486440727111","0.0527316695399124","0.0516295845226202","-0.0391304584057599","0.00206159597223957","0.00410892454526808","0.00892524254826922","0.0515037128717248","0.0533497349592611","0.00152243153607528","0.00342773035220448","0.00533548670239814","0.00716390769978621","0.0571742487999991","0.0579103819441951","400","30%"
"t = 1.9117531490627","-0.0359339414608165","0.00161010508773089","0.00639936981489005","0.0043264270626317","0.051575093031445","0.0504627570640841","-0.0394116074027122","0.00198336572633769","0.0034377186802856","0.00842474527792193","0.0503755549940209","0.0522478316500722","0.00143545945867951","0.00331893692392407","0.00532954180652479","0.00714465917470885","0.0561353120344385","0.0568629688316418","400","30%"
"t = 1.92518753394346","-0.0362569297111991","0.00157736596805141","0.0062788029777141","0.00418162873655825","0.0507815439511893","0.0496924545190659","-0.0396337985163277","0.00195139987222065","0.0034076496044973","0.00842736132584635","0.049614545302674","0.051511651372735","0.00137837712716234","0.00325857854201744","0.00526699569699339","0.00704794488307995","0.0550341405879303","0.0557420206626661","400","30%"
"t = 1.93862191882421","-0.0366010111138958","0.00151000978472888","0.00682965826790512","0.00467038777915923","0.0502012148279274","0.0490942634395831","-0.0398776333116249","0.00188481035207226","0.00407663128484829","0.0090663963196469","0.0490661578348514","0.0509221982565829","0.00125411748562156","0.00312974962513965","0.00516682948474837","0.0069071994919791","0.0539584482253084","0.0546438955970206","400","30%"
"t = 1.95205630370497","-0.0368134881451084","0.00154655788584697","0.00716177716162765","0.00493449752647528","0.0496653021193127","0.0485658907041333","-0.0399825313309732","0.00192384940507844","0.00453706120539033","0.0094755070158071","0.0485638987602383","0.0503803503363537","0.00134245931059727","0.00315414732760159","0.00529786125477746","0.00699664907565791","0.0530396784744247","0.0537017415232021","400","30%"
"t = 1.96549068858572","-0.0370090503385135","0.00154988252300315","0.00754223790371136","0.00533654486916553","0.0491677676722522","0.0480955331774216","-0.0400676679827885","0.00192873390144029","0.00507933618040598","0.0100542338477002","0.0480817836592661","0.0498524380679339","0.00135221726253183","0.00314069176350747","0.00536304420417746","0.00702534784857881","0.0520491816426969","0.0526883238480476","400","30%"
"t = 1.97892507346648","-0.0371776335875598","0.00158923133661084","0.00722053432026523","0.00506880504642285","0.0480907165756237","0.0470293153985703","-0.0401239200197553","0.00196884943104628","0.00492890432559777","0.00992945271801599","0.0470392663431984","0.0488108475762433","0.00137248963236205","0.00318150913023596","0.00551584466146425","0.00714324953754923","0.0511367068117103","0.0517643616331686","400","30%"
