"","ame.cox","ame.po","ame.kmdr.clog","ame.kmdr.logit","ame.dr.ig.clog","ame.mdr.ig.logit","me.cox.x = 0.5","me.po.x = 0.5","me.kmdr.clog.x = 0.5","me.kmdr.logit.x = 0.5","me.dr.ig.clog.x = 0.5","me.dr.ig.logit.x = 0.5","cdf.cox.x = 0.5","cdf.po.x = 0.5","cdf.kmdr.clog.x = 0.5","cdf.kmdr.logit.x = 0.5","cdf.dr.ig.clog.x = 0.5","cdf.dr.ig.logit.x = 0.5","n","cens.level"
"t = 0.497423894309699","-0.000578002113721216","-0.0640893598738622","-3.15926577323182e-06","0.00214047523060559","-3.15926577323182e-06","0.00214047523060559","-0.000503333679833328","-0.0442761801868037","0.00105434734329458","-0.00183699688217198","0.00105434734329458","-0.00183699688217198","0.000284674698139842","-0.0103441636372825","-0.000110882156688321","0.000460551845038307","-0.000110882156688321","0.000460551845038307","1600","0%"
"t = 0.520605609033673","-0.000542844994548197","-0.0668594406872783","-0.000182928963234956","0.00231549629663004","-0.000182928963234956","0.00231549629663004","-0.000477549289028096","-0.0481323826627414","0.000877274723835441","-0.00251678086071239","0.000877274723835441","-0.00251678086071239","0.000274068016001067","-0.010974202505912","-0.00013429853790938","0.000548164254697065","-0.00013429853790938","0.000548164254697065","1600","0%"
"t = 0.543787323757646","-0.000680273104140468","-0.0695495334590644","-0.000462171799045943","0.00240707816708795","-0.000462171799045943","0.00240707816708795","-0.000617661601506489","-0.0522901648329431","0.000528585080292108","-0.0034296078617831","0.000528585080292108","-0.0034296078617831","0.000354331758165426","-0.011487114499437","-5.54105879020657e-05","0.000753434667937341","-5.54105879020657e-05","0.000753434667937341","1600","0%"
"t = 0.56696903848162","-0.000845894864713462","-0.0719546754422753","-0.000194937235021048","0.00306665210157379","-0.000194937235021048","0.00306665210157379","-0.000789678511352559","-0.0565539755602632","0.000599819242064226","-0.00394349723758838","0.000599819242064226","-0.00394349723758838","0.000450735834275771","-0.0119454902410733","8.87013241485649e-05","0.00103651748749877","8.87013241485649e-05","0.00103651748749877","1600","0%"
"t = 0.590150753205593","-0.000742843077198335","-0.0737495671225078","-0.000312297533208016","0.00339583161827005","-0.000312297533208016","0.00339583161827005","-0.000705583067352525","-0.0605543514233862","0.000489154854465865","-0.00471549817509795","0.000489154854465865","-0.00471549817509795","0.000411870185569409","-0.0124860893053239","2.42103265877076e-05","0.00112861519252385","2.42103265877076e-05","0.00112861519252385","1600","0%"
"t = 0.613332467929567","-0.000733366827647024","-0.0753171112161065","-0.000161779597007508","0.00398737977078055","-0.000161779597007508","0.00398737977078055","-0.000711910616980771","-0.0646859645887604","0.000552103951796795","-0.00536492322694452","0.000552103951796795","-0.00536492322694452","0.000416641114218795","-0.0129382265554273","6.47696151302789e-05","0.0013402803977013","6.47696151302789e-05","0.0013402803977013","1600","0%"
"t = 0.63651418265354","-0.000693089544334269","-0.0765209956108499","0.000239534697927882","0.00481312607936367","0.000239534697927882","0.00481312607936367","-0.000690056628453978","-0.0687755709092203","0.000781174758606781","-0.00589309061030719","0.000781174758606781","-0.00589309061030719","0.000412428278782879","-0.0133459802867367","0.000103643368059334","0.00156422570595677","0.000103643368059334","0.00156422570595677","1600","0%"
"t = 0.659695897377513","-0.000760378486392243","-0.0775146793938339","0.000228100490847863","0.00527285301940029","0.000228100490847863","0.00527285301940029","-0.000776044507665787","-0.0729872974269168","0.000709361309797078","-0.00681173748239303","0.000709361309797078","-0.00681173748239303","0.000467343434407026","-0.0136438497277319","0.000175832751289161","0.00184351404534372","0.000175832751289161","0.00184351404534372","1600","0%"
"t = 0.682877612101487","-0.000735086636554052","-0.0780757417966696","0.000170450782490304","0.00572243228210362","0.000170450782490304","0.00572243228210362","-0.000771791749691085","-0.0770298398251513","0.000618375467978253","-0.00778365409119793","0.000618375467978253","-0.00778365409119793","0.000467317203919225","-0.0139345559720194","0.000169672244352278","0.00206453764762498","0.000169672244352278","0.00206453764762498","1600","0%"
"t = 0.70605932682546","-0.000756623452552157","-0.0783523955650564","0.000327057311082575","0.00640898382219169","0.000327057311082575","0.00640898382219169","-0.00081882995572636","-0.0810512210213619","0.000679623630712399","-0.00861431368511044","0.000679623630712399","-0.00861431368511044","0.0004989926302759","-0.0141321095482054","0.00023444541567653","0.00237584331898697","0.00023444541567653","0.00237584331898697","1600","0%"
"t = 0.729241041549434","-0.000833110084263128","-0.0783752728015375","0.000311615138322832","0.00693709669148409","0.000311615138322832","0.00693709669148409","-0.000924780471375692","-0.0850392397275665","0.00059038418970737","-0.00965571734029534","0.00059038418970737","-0.00965571734029534","0.000577476679610602","-0.0142206180350349","0.000344726136048077","0.00275445495825372","0.000344726136048077","0.00275445495825372","1600","0%"
"t = 0.752422756273407","-0.000898437627070589","-0.078066974393954","-1.49041242464085e-05","0.00717129204167039","-1.49041242464085e-05","0.00717129204167039","-0.00102130511397127","-0.0888662147776009","0.000249195680124275","-0.0110203912681913","0.000249195680124275","-0.0110203912681913","0.000642006238197509","-0.0142553807261681","0.000367647113904699","0.00306933342365825","0.000367647113904699","0.00306933342365825","1600","0%"
"t = 0.775604470997381","-0.000856297063226341","-0.0773606217507535","-1.0315514627655e-05","0.00772240617021233","-1.0315514627655e-05","0.00772240617021233","-0.00100451085588643","-0.0923922392715241","0.000200446151060467","-0.0121050294719571","0.000200446151060467","-0.0121050294719571","0.000638574400837674","-0.0142916124884917","0.000362191305433065","0.00337371207877506","0.000362191305433065","0.00337371207877506","1600","0%"
"t = 0.798786185721354","-0.000946326411975395","-0.0764892921902751","-0.000383915573834368","0.00791132037997752","-0.000383915573834368","0.00791132037997752","-0.001135235610247","-0.0958892545633344","-0.000207672416238419","-0.0136103652377649","-0.000207672416238419","-0.0136103652377649","0.000727663023138306","-0.0141671378639265","0.000427981198617561","0.00377678434205519","0.000427981198617561","0.00377678434205519","1600","0%"
"t = 0.821967900445328","-0.00104704099528047","-0.0753530125056489","-0.000553280252094984","0.0082813222444156","-0.000553280252094984","0.0082813222444156","-0.0012861246343736","-0.0991755289641888","-0.000481399871751345","-0.0149833125696808","-0.000481399871751345","-0.0149833125696808","0.00083221954583159","-0.0139570794025028","0.000535778782595725","0.00424211610293312","0.000535778782595725","0.00424211610293312","1600","0%"
"t = 0.845149615169301","-0.00106761290528032","-0.0738872166925462","-0.000452767391142306","0.00890878630800582","-0.000452767391142306","0.00890878630800582","-0.00135171320704059","-0.102090299773038","-0.000505484382203537","-0.016076127503846","-0.000505484382203537","-0.016076127503846","0.000894206783205643","-0.013723651093735","0.000625901427834203","0.00470770510678032","0.000625901427834203","0.00470770510678032","1600","0%"
"t = 0.868331329893275","-0.000884497843093045","-0.0720018558298612","-0.000303829878485304","0.00959443053929669","-0.000303829878485304","0.00959443053929669","-0.0011879665334312","-0.104435737720245","-0.000413831175670466","-0.017042307080308","-0.000413831175670466","-0.017042307080308","0.000791635885519739","-0.0135922524065152","0.000533271138995344","0.00500914560957227","0.000533271138995344","0.00500914560957227","1600","0%"
"t = 0.891513044617248","-0.000721711081791972","-0.0699257845174963","-0.0003453316280953","0.0100610923969855","-0.0003453316280953","0.0100610923969855","-0.00103933522387639","-0.106482692775361","-0.000485553632342066","-0.0182003237768551","-0.000485553632342066","-0.0182003237768551","0.000703673336648598","-0.0133847424634993","0.000427573115439359","0.00532039334810751","0.000427573115439359","0.00532039334810751","1600","0%"
"t = 0.914694759341222","-0.000644400689387029","-0.0677221635969975","-0.000312369903756925","0.0105547333748735","-0.000312369903756925","0.0105547333748735","-0.000990486929959089","-0.108284679727938","-0.000508060433287121","-0.0193037563159816","-0.000508060433287121","-0.0193037563159816","0.000674844689438261","-0.01305728269428","0.000409698942029001","0.00574032928230357","0.000409698942029001","0.00574032928230357","1600","0%"
"t = 0.937876474065195","-0.000687094939112523","-0.0654395801248459","-0.000238874561777788","0.0110251340008271","-0.000238874561777788","0.0110251340008271","-0.0010833839665678","-0.10986835964739","-0.000520256115138544","-0.0204373139522974","-0.000520256115138544","-0.0204373139522974","0.00074583188599162","-0.0125686305749651","0.00049023881487902","0.00627987374633002","0.00049023881487902","0.00627987374633002","1600","0%"
"t = 0.961058188789168","-0.000493551579075661","-0.0628014028640417","-7.77755522937029e-05","0.0116289316580311","-7.77755522937029e-05","0.0116289316580311","-0.000888110805001383","-0.110730968293992","-0.00039009822420014","-0.021278162360365","-0.00039009822420014","-0.021278162360365","0.000611970299478883","-0.012238638588159","0.000359328920969741","0.00662525168856012","0.000359328920969741","0.00662525168856012","1600","0%"
"t = 0.984239903513142","-0.000571272745453787","-0.0602312975448244","-9.31407378492592e-05","0.0119541522745528","-9.31407378492592e-05","0.0119541522745528","-0.00103792348358253","-0.111530237055707","-0.000504365377086235","-0.0223892609670848","-0.000504365377086235","-0.0223892609670848","0.000732964291378316","-0.0115918524354874","0.00050538769500536","0.00727303119328062","0.00050538769500536","0.00727303119328062","1600","0%"
"t = 1.00742161823712","-0.000428388012721026","-0.0573630745076602","0.000112812197979589","0.012511215027207","0.000112812197979589","0.012511215027207","-0.000909815806201246","-0.111585867055676","-0.000337122010856318","-0.0230681412969935","-0.000337122010856318","-0.0230681412969935","0.0006370971132213","-0.0111275242358451","0.000420390341321131","0.00769946824710082","0.000420390341321131","0.00769946824710082","1600","0%"
"t = 1.03060333296109","-0.000358074504302963","-0.0544476633409808","0.000400497861226569","0.0130900765271315","0.000400497861226569","0.0130900765271315","-0.000866337673928098","-0.111272151742317","-9.67352170677469e-05","-0.0236138260528019","-9.67352170677469e-05","-0.0236138260528019","0.000613014138672267","-0.010548896275617","0.000436723333933392","0.00824377241265995","0.000436723333933392","0.00824377241265995","1600","0%"
"t = 1.05378504768506","-0.000361873809060407","-0.0514934718672156","-7.84286624680846e-05","0.0128462342474662","-7.84286624680846e-05","0.0128462342474662","-0.000919561852435809","-0.110574410799286","-0.000698433192102665","-0.0251050949708443","-0.000698433192102665","-0.0251050949708443","0.000669386192076283","-0.0098490233730974","0.000443264660307296","0.00881902282804475","0.000443264660307296","0.00881902282804475","1600","0%"
"t = 1.07696676240904","-0.000423754531090715","-0.0485001562180649","-0.000242428463245804","0.0128684940060546","-0.000242428463245804","0.0128684940060546","-0.00106543773168211","-0.109454727096441","-0.000994202459558865","-0.0260817101972308","-0.000994202459558865","-0.0260817101972308","0.000811670959456198","-0.00902600873476947","0.000587314566394867","0.00954010412925058","0.000587314566394867","0.00954010412925058","1600","0%"
"t = 1.10014847713301","-0.00029450698775408","-0.0453149887843209","0.000140836313659522","0.0133251902635659","0.000140836313659522","0.0133251902635659","-0.000941319179741849","-0.107598497537684","-0.000616588148320889","-0.0262710454204929","-0.000616588148320889","-0.0262710454204929","0.000717636957442861","-0.00842916024531806","0.000527700460575558","0.0100465083075239","0.000527700460575558","0.0100465083075239","1600","0%"
"t = 1.12333019185698","-0.000301496493686845","-0.0421768743564441","-8.98894028219419e-05","0.0130494030129386","-8.98894028219419e-05","0.0130494030129386","-0.00101137356011097","-0.105406801384521","-0.000958547075819232","-0.027274810538422","-0.000958547075819232","-0.027274810538422","0.000801114099424749","-0.0076248309985423","0.000581289145126707","0.01070349076898","0.000581289145126707","0.01070349076898","1600","0%"
"t = 1.14651190658096","-0.000207007929623369","-0.0389411611933338","-0.00011665376105045","0.0130010570955276","-0.00011665376105045","0.0130010570955276","-0.000933417108297078","-0.102586781121119","-0.00104558174593291","-0.0277296516502246","-0.00104558174593291","-0.0277296516502246","0.000750919741094844","-0.00694818558521583","0.000530272170746911","0.0112570437907852","0.000530272170746911","0.0112570437907852","1600","0%"
"t = 1.16969362130493","-0.000184379482039931","-0.0357351119458666","-0.000419953496914486","0.0125890655652442","-0.000419953496914486","0.0125890655652442","-0.000964709956229635","-0.0993565372489322","-0.00149661868357718","-0.0284993311765881","-0.00149661868357718","-0.0284993311765881","0.000792865069651394","-0.00616597755341897","0.000564770859743109","0.0119199638744786","0.000564770859743109","0.0119199638744786","1600","0%"
"t = 1.1928753360289","-0.000214142966048285","-0.0325520512193163","-0.000948397983524189","0.0119014811601592","-0.000948397983524189","0.0119014811601592","-0.00107205541573816","-0.0956758322207806","-0.00226078090826023","-0.0294632841894626","-0.00226078090826023","-0.0294632841894626","0.000925751321492758","-0.00528652971355571","0.000654376408610681","0.0126580773398511","0.000654376408610681","0.0126580773398511","1600","0%"
"t = 1.21605705075288","-0.000153011082181075","-0.0293189954876317","-0.000958885582705565","0.0116667776382672","-0.000958885582705565","0.0116667776382672","-0.00104126415184849","-0.0914211748958551","-0.00235341030411136","-0.0294760912133964","-0.00235341030411136","-0.0294760912133964","0.000915548835571113","-0.00456141415489229","0.000638315423784711","0.0132696200895649","0.000638315423784711","0.0132696200895649","1600","0%"
"t = 1.23923876547685","-5.40970613153923e-05","-0.0260834155423906","-0.000957590752884108","0.0113136067486241","-0.000957590752884108","0.0113136067486241","-0.000941262064535306","-0.0866705200682995","-0.00243274445261173","-0.029416897958583","-0.00243274445261173","-0.029416897958583","0.000820635883327126","-0.00393495147948819","0.000538516405270747","0.0138004305348335","0.000538516405270747","0.0138004305348335","1600","0%"
"t = 1.26242048020082","-2.99490840102161e-05","-0.0228997943053984","-0.000517170823225878","0.0113102811289595","-0.000517170823225878","0.0113102811289595","-0.000960934974146478","-0.0815151656348724","-0.00197678834585705","-0.0285524181160396","-0.00197678834585705","-0.0285524181160396","0.000884001049193197","-0.00315983805264902","0.000641120922823768","0.0145176873113973","0.000641120922823768","0.0145176873113973","1600","0%"
"t = 1.2856021949248","3.70134580937864e-06","-0.0197421797449263","-0.00045892436797376","0.0109120052948603","-0.00045892436797376","0.0109120052948603","-0.000961266142708091","-0.075924840641143","-0.0019559780191706","-0.027930710428287","-0.0019559780191706","-0.027930710428287","0.000924059140160959","-0.00243074958725481","0.000699970013697695","0.0152019704696115","0.000699970013697695","0.0152019704696115","1600","0%"
"t = 1.30878390964877","5.15340284146407e-05","-0.0166046866476027","-8.76496336172594e-06","0.0107951425515967","-8.76496336172594e-06","0.0107951425515967","-0.000953162244263564","-0.069893071112686","-0.00145184402065997","-0.0266100914356125","-0.00145184402065997","-0.0266100914356125","0.000971871841669572","-0.00172205035979629","0.000775255628876643","0.0158805154530713","0.000775255628876643","0.0158805154530713","1600","0%"
"t = 1.33196562437274","0.000119082321139172","-0.0135086437099598","-8.00165356011069e-05","0.0100739576598265","-8.00165356011069e-05","0.0100739576598265","-0.000876017226674359","-0.063475920955145","-0.00157599344408449","-0.0258982292430097","-0.00157599344408449","-0.0258982292430097","0.000922495780126104","-0.00114671258393504","0.000718102923406712","0.0164449755600241","0.000718102923406712","0.0164449755600241","1600","0%"
"t = 1.35514733909672","0.00018107304253636","-0.0104618268540389","0.000246927405322452","0.00969026488061175","0.000246927405322452","0.00969026488061175","-0.00082687810248528","-0.0567148528108701","-0.00118912250887439","-0.0243684773996444","-0.00118912250887439","-0.0243684773996444","0.000896590804520889","-0.000581216348983268","0.000726389152448497","0.0170462589159819","0.000726389152448497","0.0170462589159819","1600","0%"
"t = 1.37832905382069","0.000268426582119591","-0.00746565621406781","0.000555952904144065","0.0092283496979703","0.000555952904144065","0.0092283496979703","-0.000710033510612759","-0.0496316947000952","-0.000762812879927387","-0.0226071626481332","-0.000762812879927387","-0.0226071626481332","0.000760885498429459","-0.000171039124462511","0.000610067023077983","0.0175050324199985","0.000610067023077983","0.0175050324199985","1600","0%"
"t = 1.40151076854466","0.000311510281092216","-0.00452904146595568","0.000533433566357198","0.00831535321932406","0.000533433566357198","0.00831535321932406","-0.000672803566961936","-0.0422636983012332","-0.00083654612566634","-0.021269254720674","-0.00083654612566634","-0.021269254720674","0.000763782601791563","0.00033872139209056","0.000624349069315035","0.0181114728328459","0.000624349069315035","0.0181114728328459","1600","0%"
"t = 1.42469248326864","0.000347470374335417","-0.00166282568791314","0.000389526635171946","0.00723652600959676","0.000389526635171946","0.00723652600959676","-0.000632443666798271","-0.0346622520039035","-0.00107264312102363","-0.0199052542693317","-0.00107264312102363","-0.0199052542693317","0.000732959738593086","0.000768405087657591","0.000576831861039571","0.0186456055564277","0.000576831861039571","0.0186456055564277","1600","0%"
"t = 1.44787419799261","0.000393319618781999","0.0011517840252977","0.000378574957405937","0.00622884259427196","0.000378574957405937","0.00622884259427196","-0.000558498458579018","-0.0268274307843164","-0.00112165216924209","-0.0181208851153253","-0.00112165216924209","-0.0181208851153253","0.000669866863510579","0.00111485379562525","0.000537279757071648","0.0191622815052236","0.000537279757071648","0.0191622815052236","1600","0%"
"t = 1.47105591271658","0.000419031684275566","0.00391327007021317","0.000436953936504844","0.00530119841604243","0.000436953936504844","0.00530119841604243","-0.000544876335830955","-0.018794290710898","-0.0010567204779781","-0.0158597814870474","-0.0010567204779781","-0.0158597814870474","0.00071056601089524","0.00151488889867734","0.000586868226423004","0.0197350239820451","0.000586868226423004","0.0197350239820451","1600","0%"
"t = 1.49423762744056","0.000450017575603917","0.00661236000178622","0.00046317752912788","0.00420377371757618","0.00046317752912788","0.00420377371757618","-0.000514548799434118","-0.0106201345745989","-0.00107211381968989","-0.0136647455616729","-0.00107211381968989","-0.0136647455616729","0.000715234312568064","0.00182431471143001","0.000596713707384393","0.0202589894082453","0.000596713707384393","0.0202589894082453","1600","0%"
"t = 1.51741934216453","0.000484667770303615","0.00926672249051907","0.000526754760544638","0.00306854911966622","0.000526754760544638","0.00306854911966622","-0.00049796389835916","-0.00230398257278214","-0.00102901651813004","-0.0112117546274842","-0.00102901651813004","-0.0112117546274842","0.000770742171425313","0.00213003583582376","0.000669420578238321","0.0208229758815488","0.000669420578238321","0.0208229758815488","1600","0%"
"t = 1.54060105688851","0.000511963583575293","0.011832267452432","0.000302471388729244","0.0015753671483041","0.000302471388729244","0.0015753671483041","-0.000440215687569257","0.00602742061706033","-0.00141400584514704","-0.00911005985683764","-0.00141400584514704","-0.00911005985683764","0.000700136148108569","0.00225069707917801","0.000588179599397813","0.0212268346838195","0.000588179599397813","0.0212268346838195","1600","0%"
"t = 1.56378277161248","0.000533888904864672","0.0143435632920831","5.78129411190665e-05","0.000129481346151195","5.78129411190665e-05","0.000129481346151195","-0.000401399536152206","0.0144096370350865","-0.00181918099724232","-0.00665105316982797","-0.00181918099724232","-0.00665105316982797","0.000665834119696928","0.00234895993879825","0.000575191107394895","0.0216601143016657","0.000575191107394895","0.0216601143016657","1600","0%"
"t = 1.58696448633645","0.000560517712318865","0.0168088672942803","0.000166250500427347","-0.00111189058278606","0.000166250500427347","-0.00111189058278606","-0.000357641170450624","0.0228253504204021","-0.00169461902837348","-0.00364306668772185","-0.00169461902837348","-0.00364306668772185","0.000657362612285746","0.00241526390897571","0.000577834586912992","0.022065343227783","0.000577834586912992","0.022065343227783","1600","0%"
"t = 1.61014620106043","0.000571285338566457","0.0192064022271359","0.000132894125727674","-0.00248326666858722","0.000132894125727674","-0.00248326666858722","-0.000336006343213124","0.031182037292716","-0.00176224220001931","-0.000597362000849698","-0.00176224220001931","-0.000597362000849698","0.000653927012125063","0.00242983832512466","0.00057208020778716","0.0224348925583872","0.00057208020778716","0.0224348925583872","1600","0%"
"t = 1.6333279157844","0.00056360279235984","0.0215056399618926","0.000388034983501499","-0.00366440072690482","0.000388034983501499","-0.00366440072690482","-0.000300435153378959","0.0393850762524531","-0.00131120656185702","0.00292444960414281","-0.00131120656185702","0.00292444960414281","0.000529500681049245","0.00226428911505504","0.000452777524341763","0.0226381067729389","0.000452777524341763","0.0226381067729389","1600","0%"
"t = 1.65650963050837","0.000625700165219271","0.0238910714316781","0.000481557877699016","-0.00494591743209903","0.000481557877699016","-0.00494591743209903","-0.000259651000695396","0.0477543671354318","-0.00118400393399299","0.00656606476753806","-0.00118400393399299","0.00656606476753806","0.000719666051731162","0.00235393708480903","0.000646175009267627","0.0231254146159149","0.000646175009267627","0.0231254146159149","1600","0%"
"t = 1.67969134523235","0.000642037091921869","0.0261368399687923","0.000157351399483853","-0.00677717824446611","0.000157351399483853","-0.00677717824446611","-0.000220943729842205","0.0558282389682467","-0.00173402244816617","0.00945421995313179","-0.00173402244816617","0.00945421995313179","0.000706075296868393","0.00218572768890086","0.000657123319195443","0.0234428505981177","0.000657123319195443","0.0234428505981177","1600","0%"
"t = 1.70287305995632","0.000668832184489731","0.0283676926583256","0.000530199228090198","-0.00790034803745321","0.000530199228090198","-0.00790034803745321","-0.000178650686539962","0.0638023477557297","-0.00110319486973705","0.0135678432530477","-0.00110319486973705","0.0135678432530477","0.000770906822410791","0.00204096841085547","0.000713394719205219","0.0237123653333858","0.000713394719205219","0.0237123653333858","1600","0%"
"t = 1.72605477468029","0.000684497864980222","0.030522818788479","0.000815320817323856","-0.00910338258207673","0.000815320817323856","-0.00910338258207673","-0.000136206019522146","0.0715529825027554","-0.000553053293762894","0.0177018719693193","-0.000553053293762894","0.0177018719693193","0.000779453634256167","0.00178846061203847","0.000728174474497529","0.0239030094592407","0.000728174474497529","0.0239030094592407","1600","0%"
"t = 1.74923648940427","0.000743410302766945","0.0327082807808285","0.00121333453106171","-0.0102069652856161","0.00121333453106171","-0.0102069652856161","-5.8723162009522e-05","0.0792101861571754","0.000112976382287153","0.0220363734105215","0.000112976382287153","0.0220363734105215","0.000908121487784385","0.00160203780206674","0.000829752545568637","0.0241399892008307","0.000829752545568637","0.0241399892008307","1600","0%"
"t = 1.77241820412824","0.000793286934146118","0.0348229356826182","0.00118195535806085","-0.0116888088231475","0.00118195535806085","-0.0116888088231475","3.13090820214792e-05","0.0865946967978254","5.37691048279856e-05","0.025902242380119","5.37691048279856e-05","0.025902242380119","0.000978719028521642","0.00130589590243204","0.000906603330588664","0.0243321123460106","0.000906603330588664","0.0243321123460106","1600","0%"
"t = 1.79559991885221","0.000797002563429506","0.0368319114740178","0.00105487049194017","-0.0133165137517371","0.00105487049194017","-0.0133165137517371","8.78279477878648e-05","0.093608206484448","-0.000109565864969133","0.0295877859021608","-0.000109565864969133","0.0295877859021608","0.000952912048860288","0.000870738732251161","0.000901893597447366","0.0244197789548544","0.000901893597447366","0.0244197789548544","1600","0%"
"t = 1.81878163357619","0.000789234805469469","0.0387850593636598","0.000830549034704138","-0.01502743051435","0.000830549034704138","-0.01502743051435","0.000137749263106425","0.100310367831805","-0.000443120517769792","0.0331832230191337","-0.000443120517769792","0.0331832230191337","0.000896865756850835","0.000363241666296805","0.000875789419031227","0.0244494130606158","0.000875789419031227","0.0244494130606158","1600","0%"
"t = 1.84196334830016","0.000850379677749434","0.0408003409310846","0.000852838790624013","-0.0165087539248333","0.000852838790624013","-0.0165087539248333","0.00025538145784252","0.106878431233316","-0.000380052884229648","0.0371510924727822","-0.000380052884229648","0.0371510924727822","0.000981291345153933","-5.18087736164791e-05","0.000963205587317747","0.0245386431687113","0.000963205587317747","0.0245386431687113","1600","0%"
"t = 1.86514506302413","0.000848313078963954","0.0426854854509237","0.00078671861568958","-0.0180055436108821","0.00078671861568958","-0.0180055436108821","0.000304713306583913","0.11297539163325","-0.000445606724647201","0.0410006531959201","-0.000445606724647201","0.0410006531959201","0.000945440972856041","-0.000619362382893265","0.000947890728861437","0.0244846706885235","0.000947890728861437","0.0244846706885235","1600","0%"
"t = 1.88832677774811","0.000873539781589635","0.0445751296153849","0.000736855860108182","-0.0195157572290759","0.000736855860108182","-0.0195157572290759","0.000389724580685041","0.118816141700366","-0.000495383246217183","0.0448505021954213","-0.000495383246217183","0.0448505021954213","0.000965435023685165","-0.00116932912287055","0.000987224698148163","0.0244495718829981","0.000987224698148163","0.0244495718829981","1600","0%"
"t = 1.91150849247208","0.000817725521566519","0.0463234307381804","0.000676492436414658","-0.0210619797717664","0.000676492436414658","-0.0210619797717664","0.000383646810628716","0.124152404416706","-0.000488569014108569","0.0485256813987101","-0.000488569014108569","0.0485256813987101","0.000860332682387445","-0.00186719345539107","0.000881499609420305","0.024244620909836","0.000881499609420305","0.024244620909836","1600","0%"
"t = 1.93469020719605","0.000717486362562378","0.0479808425618162","0.000502791238381896","-0.022666627078943","0.000502791238381896","-0.022666627078943","0.000322578197133066","0.129047181716724","-0.000713762454929662","0.0520121586266079","-0.000713762454929662","0.0520121586266079","0.00069248458679749","-0.00265127183022025","0.000748492140378708","0.0239743655853354","0.000748492140378708","0.0239743655853354","1600","0%"
"t = 1.95787192192003","0.000743054631646808","0.049771979823595","0.000602995180981042","-0.0239844397721378","0.000602995180981042","-0.0239844397721378","0.000414177973902716","0.133853557574237","-0.000501971126951806","0.0558620815603273","-0.000501971126951806","0.0558620815603273","0.000726864034153377","-0.00327388942595681","0.000778283110029243","0.0238155186474198","0.000778283110029243","0.0238155186474198","1600","0%"
"t = 1.981053636644","0.000802939092004274","0.0515751574732309","0.000634409176397232","-0.02548285084801","0.000634409176397232","-0.02548285084801","0.000552760198552725","0.138367943378176","-0.000370253386383882","0.0594893183055503","-0.000370253386383882","0.0594893183055503","0.000812066870460066","-0.00387227532063809","0.000867144464195706","0.0237125898219899","0.000867144464195706","0.0237125898219899","1600","0%"
"t = 2.00423535136797","0.000896039471397566","0.0533928517276397","0.000647109923102793","-0.026859223556126","0.000647109923102793","-0.026859223556126","0.000748330732622576","0.142580666651212","-0.000287883809557353","0.0631470921391971","-0.000287883809557353","0.0631470921391971","0.000934077185555426","-0.004456413859943","0.0010103591103244","0.0236065609848723","0.0010103591103244","0.0236065609848723","1600","0%"
"t = 2.02741706609195","0.000953284863513631","0.0551313190230859","0.000513958341549639","-0.0283904380667836","0.000513958341549639","-0.0283904380667836","0.000893854701544969","0.14633217085058","-0.000451250212271567","0.0664391539501489","-0.000451250212271567","0.0664391539501489","0.000996820948087975","-0.00511010867547694","0.00110952644759818","0.0234410051161634","0.00110952644759818","0.0234410051161634","1600","0%"
"t = 2.05059878081592","0.000937382237621337","0.056737659722037","0.000411975613083065","-0.0297552393398703","0.000411975613083065","-0.0297552393398703","0.000942718098882534","0.149575499260041","-0.000517052150349712","0.0697003824225887","-0.000517052150349712","0.0697003824225887","0.000964159538496436","-0.00586473742568966","0.00110170967153054","0.0231178168865183","0.00110170967153054","0.0231178168865183","1600","0%"
"t = 2.0737804955399","0.00085772850401193","0.0582355690728816","0.000373992902715842","-0.0310499757335124","0.000373992902715842","-0.0310499757335124","0.000912110627341809","0.152330967248598","-0.000440813829451709","0.0727563682676405","-0.000440813829451709","0.0727563682676405","0.000853493354400833","-0.00669945738195702","0.000993348759399634","0.0226722090703733","0.000993348759399634","0.0226722090703733","1600","0%"
"t = 2.09696221026387","0.000821195648005762","0.0597530586613323","0.000379558690507345","-0.0323143825241058","0.000379558690507345","-0.0323143825241058","0.000927981889589693","0.154809120198045","-0.000291108934844246","0.0757169762636392","-0.000291108934844246","0.0757169762636392","0.000803949738544871","-0.00748415331023034","0.000930912050336211","0.0222554759480683","0.000930912050336211","0.0222554759480683","1600","0%"
"t = 2.12014392498784","0.000690335117637985","0.0611205345172629","0.000211088002267822","-0.0337152225322682","0.000211088002267822","-0.0337152225322682","0.00080347303295724","0.156741745149539","-0.000450683891488006","0.0782425409252579","-0.000450683891488006","0.0782425409252579","0.000648958655754975","-0.008366431266582","0.000794723812151505","0.0217508409476133","0.000794723812151505","0.0217508409476133","1600","0%"
"t = 2.14332563971182","0.000740590574210668","0.0626840967868071","8.78468868239847e-05","-0.0349821020538111","8.78468868239847e-05","-0.0349821020538111","0.000940770767091788","0.158652299944023","-0.000537791859356524","0.0809499848141302","-0.000537791859356524","0.0809499848141302","0.000704142574985524","-0.00906032358940816","0.000891170554648183","0.0214230203669887","0.000891170554648183","0.0214230203669887","1600","0%"
"t = 2.16650735443579","0.000691241047841534","0.0640963176246888","-0.000108898211762526","-0.0362930562612753","-0.000108898211762526","-0.0362930562612753","0.000940476275671004","0.160046666819944","-0.000739527001853862","0.0832879964773817","-0.000739527001853862","0.0832879964773817","0.000653683739041969","-0.00984645082702921","0.000876133342877718","0.0209777344640873","0.000876133342877718","0.0209777344640873","1600","0%"
"t = 2.18968906915976","0.000734832097120543","0.0655834445460206","-8.9075426250991e-05","-0.0373056604837569","-8.9075426250991e-05","-0.0373056604837569","0.00106580665667165","0.161230574068097","-0.000566513343959587","0.085777828984227","-0.000566513343959587","0.085777828984227","0.000691548370135639","-0.0105502663243653","0.000943879818036213","0.0205777212130961","0.000943879818036213","0.0205777212130961","1600","0%"
"t = 2.21287078388374","0.000721192805197022","0.0669664621186592","-0.000145976954017921","-0.0383472511945917","-0.000145976954017921","-0.0383472511945917","0.00110754592459435","0.161986369960372","-0.000490124485319802","0.0879466446731288","-0.000490124485319802","0.0879466446731288","0.000672839442250079","-0.0112969037842934","0.000937434136746411","0.0200884238209917","0.000937434136746411","0.0200884238209917","1600","0%"
"t = 2.23605249860771","0.000688087715414754","0.0682898222993132","-0.000147220737639246","-0.0392553345887607","-0.000147220737639246","-0.0392553345887607","0.00111859245249912","0.162385529380534","-0.000345428126446164","0.0899578336663483","-0.000345428126446164","0.0899578336663483","0.000633977074463026","-0.0120532288723878","0.000891986846662592","0.0195365718192063","0.000891986846662592","0.0195365718192063","1600","0%"
"t = 2.25923421333168","0.000708111788275796","0.0696433794033532","8.0343565892948e-05","-0.0399942596260559","8.0343565892948e-05","-0.0399942596260559","0.00122450406264736","0.162560010088822","0.000170238248195847","0.0919150729306256","0.000170238248195847","0.0919150729306256","0.000649265683931663","-0.0127497548680253","0.000858714818248413","0.019008601024851","0.000858714818248413","0.019008601024851","1600","0%"
"t = 2.28241592805566","0.000869466019014254","0.071129704844759","0.000370421177796825","-0.040444086561816","0.000370421177796825","-0.040444086561816","0.00154395134361886","0.162642235311432","0.000740865607497386","0.0939721937107234","0.000740865607497386","0.0939721937107234","0.000784416317897959","-0.0133250108386058","0.000959375001776538","0.0185461376860151","0.000959375001776538","0.0185461376860151","1600","0%"
"t = 2.30559764277963","0.000920810059069254","0.0724500549373108","0.000317099318544846","-0.0413215982892345","0.000317099318544846","-0.0413215982892345","0.00168969414890685","0.162256986011884","0.000791349578597443","0.095436600685479","0.000791349578597443","0.095436600685479","0.000817585464657062","-0.0139746106052949","0.00102807694539889","0.0180836591271311","0.00102807694539889","0.0180836591271311","1600","0%"
"t = 2.3287793575036","0.00108497560099921","0.073864815736717","0.00067560509115991","-0.0417510505004179","0.00067560509115991","-0.0417510505004179","0.00203030379933348","0.161761426100762","0.00147884345167366","0.0970594957569735","0.00147884345167366","0.0970594957569735","0.000945714801113438","-0.0145230081743561","0.00109850944291656","0.0176103610950178","0.00109850944291656","0.0176103610950178","1600","0%"
"t = 2.35196107222758","0.00107531837023081","0.0750365672432522","0.000690941058575786","-0.0425081961514994","0.000690941058575786","-0.0425081961514994","0.0020800662301331","0.160730285244366","0.00165064698611473","0.0981082456574834","0.00165064698611473","0.0981082456574834","0.00092680502244257","-0.0151810376847159","0.00108815335520405","0.0170655365034032","0.00108815335520405","0.0170655365034032","1600","0%"
"t = 2.37514278695155","0.00104474511408217","0.0761463356131264","0.000577491499039668","-0.0432910118185344","0.000577491499039668","-0.0432910118185344","0.00210465921129571","0.15941726991442","0.00166406567022459","0.0988806217998489","0.00166406567022459","0.0988806217998489","0.000887465468281698","-0.0158379022086729","0.00105815345461882","0.0164872348607838","0.00105815345461882","0.0164872348607838","1600","0%"
"t = 2.39832450167552","0.00100565326311715","0.0772036357871903","0.000401740339151076","-0.0440938561454739","0.000401740339151076","-0.0440938561454739","0.00210608837360538","0.15784045243766","0.00156615003066202","0.0994280738403117","0.00156615003066202","0.0994280738403117","0.00084230468730374","-0.0164766332095816","0.00105996500793655","0.0159310587724537","0.00105996500793655","0.0159310587724537","1600","0%"
"t = 2.4215062163995","0.00106913352331628","0.0783393513562532","0.000615381328498792","-0.0445234810249236","0.000615381328498792","-0.0445234810249236","0.00228763430383103","0.156180354267264","0.00202004705035247","0.100058643640377","0.00202004705035247","0.100058643640377","0.000872844200367339","-0.0170262564779423","0.00105307351155708","0.0153797374091037","0.00105307351155708","0.0153797374091037","1600","0%"
"t = 2.44468793112347","0.0011340472966703","0.0794354816530295","0.000440578276604539","-0.0451695538235534","0.000440578276604539","-0.0451695538235534","0.00244758693619598","0.154294584012267","0.00199270766525217","0.100414884033841","0.00199270766525217","0.100414884033841","0.000902344883690544","-0.0175513047742013","0.00115379932599257","0.0148912241475966","0.00115379932599257","0.0148912241475966","1600","0%"
"t = 2.46786964584744","0.00126836360837501","0.0805647549149446","0.000682388467142694","-0.0453836148020363","0.000682388467142694","-0.0453836148020363","0.00273080854072611","0.152292462960924","0.00251546414993599","0.100813827232183","0.00251546414993599","0.100813827232183","0.000971996770489439","-0.0180157587134496","0.00120726402373889","0.0143742400635147","0.00120726402373889","0.0143742400635147","1600","0%"
"t = 2.49105136057142","0.00140820895361186","0.0816584287873218","0.000753891585861713","-0.0458109818702644","0.000753891585861713","-0.0458109818702644","0.0030130796892064","0.150108599220075","0.00288265268957303","0.101011822587361","0.00288265268957303","0.101011822587361","0.00104420975782641","-0.0184507596440257","0.00132546334189608","0.0139265281480934","0.00132546334189608","0.0139265281480934","1600","0%"
"t = 2.51423307529539","0.00140488157474775","0.0825416682978632","0.000889953344290127","-0.0461627434746009","0.000889953344290127","-0.0461627434746009","0.00304486842611656","0.147546564397018","0.00317119138719046","0.100784008033822","0.00317119138719046","0.100784008033822","0.0010194211385304","-0.0189438223444157","0.00126023069606265","0.013344401170611","0.00126023069606265","0.013344401170611","1600","0%"
"t = 2.53741479001936","0.00130119102789324","0.0832670669274402","0.000728182698342332","-0.0466212328399624","0.000728182698342332","-0.0466212328399624","0.00290150855513118","0.144694703453868","0.00302431395352679","0.100126956483897","0.00302431395352679","0.100126956483897","0.000926920552686711","-0.0194702441593324","0.00114809312813419","0.0126935507500796","0.00114809312813419","0.0126935507500796","1600","0%"
"t = 2.56059650474334","0.00128773439714418","0.084053442097123","0.000633663481042882","-0.0469746428908527","0.000633663481042882","-0.0469746428908527","0.00291967664692282","0.141824229514361","0.00312877303003499","0.0996395064998024","0.00312877303003499","0.0996395064998024","0.000899960395279092","-0.0199115843808528","0.00117666628792233","0.0121599418227899","0.00117666628792233","0.0121599418227899","1600","0%"
"t = 2.58377821946731","0.00121676900449412","0.0847291974988358","0.000565711612172206","-0.0472146046601553","0.000565711612172206","-0.0472146046601553","0.00283279304813577","0.138739574376716","0.00316447913218901","0.0988745040464878","0.00316447913218901","0.0988745040464878","0.000834827658135641","-0.0203583045927163","0.00112537666514643","0.0115657207699472","0.00112537666514643","0.0115657207699472","1600","0%"
"t = 2.60695993419129","0.00104811575444768","0.0852514478886991","0.00036785708802626","-0.0475146890851636","0.00036785708802626","-0.0475146890851636","0.00257222382461677","0.135415878365735","0.00299487657688733","0.0977838327174907","0.00299487657688733","0.0977838327174907","0.000719879663917951","-0.0208225268009098","0.00101169087595411","0.0109169391802553","0.00101169087595411","0.0109169391802553","1600","0%"
"t = 2.63014164891526","0.00103286764833671","0.0859009300445956","0.00056965930303107","-0.0475181307387633","0.00056965930303107","-0.0475181307387633","0.00258301033596656","0.132176532727182","0.00323947746858639","0.0967496164138253","0.00323947746858639","0.0967496164138253","0.000691935122227961","-0.0211797155564612","0.000908149029480607","0.0103342066602105","0.000908149029480607","0.0103342066602105","1600","0%"
"t = 2.65332336363923","0.000999108460863905","0.0864897025372999","0.000531890010209768","-0.0476307319447606","0.000531890010209768","-0.0476307319447606","0.00255324239514317","0.12882589112633","0.00330104720994688","0.0956129235039431","0.00330104720994688","0.0956129235039431","0.000659415822942806","-0.0215114817776985","0.000887836177131782","0.00980174283442889","0.000887836177131782","0.00980174283442889","1600","0%"
"t = 2.67650507836321","0.00100144638096174","0.0870634867133735","0.000575197499547553","-0.0476956945294705","0.000575197499547553","-0.0476956945294705","0.00258384853932216","0.125421881974958","0.00345180724091684","0.0943815039231299","0.00345180724091684","0.0943815039231299","0.000640111969425494","-0.0218034349331633","0.000859436602292615","0.0092884022756065","0.000859436602292615","0.0092884022756065","1600","0%"
"t = 2.69968679308718","0.000897347364723052","0.0874748093790975","0.00030150199370966","-0.0479712335485619","0.00030150199370966","-0.0479712335485619","0.00241024722234057","0.121818137332018","0.00322623736055464","0.0928446809258641","0.00322623736055464","0.0928446809258641","0.000566529400274268","-0.0221156093465142","0.000822548182540694","0.00876128823238291","0.000822548182540694","0.00876128823238291","1600","0%"
"t = 2.72286850781115","0.00075224104703964","0.0877919662886694","0.000129941166713083","-0.0481392556089912","0.000129941166713083","-0.0481392556089912","0.00217055093890087","0.118106430864274","0.00310482886387926","0.0912089507078282","0.00310482886387926","0.0912089507078282","0.000477231649342368","-0.0224166215529633","0.000743060413602612","0.00821729485560353","0.000743060413602612","0.00821729485560353","1600","0%"
"t = 2.74605022253513","0.00058143829292305","0.0880388497860555","-0.000413996232673567","-0.0485839920670065","-0.000413996232673567","-0.0485839920670065","0.00189508863303134","0.114325834762991","0.00286730825931003","0.0894896080787602","0.00286730825931003","0.0894896080787602","0.000380137976233317","-0.0226990469920561","0.000757244815038411","0.00773284684098506","0.000757244815038411","0.00773284684098506","1600","0%"
"t = 2.7692319372591","0.000720575447802047","0.0885734345417837","-6.76657042050703e-05","-0.0481359059475471","-6.76657042050703e-05","-0.0481359059475471","0.00214843390825899","0.110854580324539","0.00331149093285936","0.0880500198017366","0.00331149093285936","0.0880500198017366","0.000433271018376162","-0.0228134455987971","0.000745120012750473","0.00728037985320208","0.000745120012750473","0.00728037985320208","1600","0%"
"t = 2.79241365198307","0.000763964635034121","0.0889506717343269","-0.00047083534059086","-0.048483434927732","-0.00047083534059086","-0.048483434927732","0.0022191298063314","0.107231571562237","0.00338306163547488","0.0864769682724402","0.00338306163547488","0.0864769682724402","0.000436397663016756","-0.022946879336559","0.000876549445098749","0.0069361241286521","0.000876549445098749","0.0069361241286521","1600","0%"
