"","ame.cox","ame.po","ame.kmdr.clog","ame.kmdr.logit","ame.dr.ig.clog","ame.mdr.ig.logit","me.cox.x = 0.5","me.po.x = 0.5","me.kmdr.clog.x = 0.5","me.kmdr.logit.x = 0.5","me.dr.ig.clog.x = 0.5","me.dr.ig.logit.x = 0.5","cdf.cox.x = 0.5","cdf.po.x = 0.5","cdf.kmdr.clog.x = 0.5","cdf.kmdr.logit.x = 0.5","cdf.dr.ig.clog.x = 0.5","cdf.dr.ig.logit.x = 0.5","n","cens.level"
"t = 0.497423894309699","-0.00953153604556483","-0.0720195348166374","-0.00906560173296258","-0.00540574286590204","-0.00839740959988372","-0.0048496717140312","-0.00776191524002636","-0.0520637656805246","0.0119698508186449","0.00751888664274385","0.0121904732428277","0.00778340114900164","0.00489059787601021","-0.00414515264914737","-0.00161635874955971","-0.00111949788786853","-0.00171854902430496","-0.00122828034284148","100","10%"
"t = 0.520605609033673","-0.00874870945965632","-0.0743671534194743","-0.00776358390370432","-0.00381033436724331","-0.00540464761344744","-0.00164523412909863","-0.00711000792745265","-0.0559200553871977","0.0118796383783467","0.00669155774125314","0.0118575852633619","0.00674821580252906","0.00457206364858392","-0.00448304015310726","-0.00126521137522423","-0.000660062371861882","0.00105375477723857","0.00166268674255471","100","10%"
"t = 0.543787323757646","-0.0092796010775674","-0.0765086210008585","-0.0082793632684712","-0.0037437384397149","-0.00459896927436041","-0.000334385148030544","-0.00770469017910934","-0.0599553894890766","0.010763129210794","0.00472942384828364","0.0102184893536464","0.00431456781612406","0.00485096897935605","-0.00476655808032657","-0.00114362350215316","-0.000406195134092911","0.00388424105553931","0.00465246167580122","100","10%"
"t = 0.56696903848162","-0.0093944755731033","-0.0783165513960505","-0.00854709043420069","-0.00364133913588988","-0.00382386015294927","0.000819703366870678","-0.00795865190801551","-0.0640933465255674","0.00936052393148786","0.00229821439805913","0.00833490827821871","0.00145075668004397","0.00506094100685242","-0.00498312533537297","-0.000763401177560464","0.000114077951746395","0.00680808684274277","0.0077476684181598","100","10%"
"t = 0.590150753205593","-0.00859822495686588","-0.078931819573549","-0.00926422745425151","-0.00378418182648383","-0.00354481768296894","0.00157673148161605","-0.00732797434436071","-0.0672833596503135","0.00819757558592215","0.00017648310596257","0.0073271402588055","-0.000447110778148839","0.00481973245990773","-0.00550269960200169","-0.00103940542840224","2.84504294255732e-06","0.00890544801374715","0.0100244192773749","100","10%"
"t = 0.613332467929567","-0.00777450153542764","-0.0791974595486777","-0.00823718556430735","-0.00234009728652171","-0.00136152625438315","0.00412124252069496","-0.00666052972040402","-0.0703563514837053","0.00855494410395869","-0.000397148493202278","0.00792181154044088","-0.000603241188313646","0.00455279983811752","-0.00603194810148261","-0.00133534962639041","-0.000138228512564214","0.0109470320119669","0.0122360423591998","100","10%"
"t = 0.63651418265354","-0.00717005642760683","-0.0792023115117261","-0.00686821650120804","-0.000346754006909055","0.000644785658742825","0.00674010659392782","-0.00623373813592296","-0.0736014371873761","0.00887854401002552","-0.00104153213325687","0.00798352524513409","-0.00130310061582043","0.00439225833979603","-0.0064956318148435","-0.00135210100867114","4.91245838665278e-05","0.0134682602858845","0.0149889889520035","100","10%"
"t = 0.659695897377513","-0.00657588705720827","-0.078968442856143","-0.00436521001412321","0.0024910970752443","0.00488104022631774","0.0112258688269217","-0.00579184374772471","-0.0767529844634229","0.00989085594166963","-0.00111011505396927","0.00993816869250929","-0.000165656785961478","0.00428570218660565","-0.00687122819461242","-0.00138332923764849","0.000218734754481199","0.0157995876419524","0.0175382826303831","100","10%"
"t = 0.682877612101487","-0.00620537649231468","-0.0785648189984491","-0.00312840265836585","0.00419504948611351","0.00752887392373286","0.0143078696310045","-0.00560361728670332","-0.0800033755587954","0.00959259073831927","-0.00233876977774631","0.0105468965090988","-0.000254312173472843","0.0042445140223313","-0.00710162100033014","-0.00103840748355159","0.00080810553937518","0.0183097926632229","0.020300690295191","100","10%"
"t = 0.70605932682546","-0.0050054852259339","-0.0772219179311662","-0.00468827463901463","0.00321004126341907","0.00650045950808025","0.0138545430017287","-0.00455689930825826","-0.0823435137493056","0.00797484004730704","-0.00535634356110914","0.00897421149759662","-0.00295879482713145","0.00373381490459588","-0.00770154417008269","-0.00194222116275943","0.000157024093582809","0.0195713366071045","0.02183847216344","100","10%"
"t = 0.729241041549434","-0.00438497812416431","-0.0762036515696306","-0.00323444168931014","0.00518553746753291","0.00874388057126057","0.0164767892698376","-0.00407270505925135","-0.0852838852292096","0.00800617055026515","-0.00653874146468214","0.00955672027460457","-0.0033084741215007","0.00351592326524817","-0.00796268822676029","-0.00186757942329413","0.000503655772421716","0.0216250467314642","0.0241690460322322","100","10%"
"t = 0.752422756273407","-0.00370751263677807","-0.0749460795541708","-0.00261266265621399","0.0063158444938581","0.01057803803993","0.0187559013130852","-0.00358297678410455","-0.0882422639312835","0.00745802686490621","-0.00832019204083835","0.0099428983951735","-0.0038167380554479","0.00319712843793855","-0.00817753955719777","-0.00203696138947064","0.000623744955583654","0.0234731624382654","0.0263209435884682","100","10%"
"t = 0.775604470997381","-0.0033063194086384","-0.0735262253793769","-0.00198060988717848","0.00759270967679831","0.0137077171491503","0.0223550008352875","-0.00339821817896754","-0.0912395992040497","0.00698222326830058","-0.00991252183712916","0.0115188475183186","-0.00277814284029097","0.00311805843878365","-0.00822206409305238","-0.00180893181569832","0.00119021494118308","0.0259255452757707","0.0291029791643566","100","10%"
"t = 0.798786185721354","-0.00319083449860461","-0.0720546004846802","0.000586256646936632","0.0106018534626024","0.0173251545055865","0.0263665740245569","-0.00358891049859601","-0.0943959599300561","0.00807657259747812","-0.00989173138758158","0.0136861112090734","-0.00126567119997549","0.00331060273598613","-0.0078781124518555","-0.00139575554633727","0.00193302961858454","0.027935101729764","0.0314441750486757","100","10%"
"t = 0.821967900445328","-0.0029065752602766","-0.070235915959546","0.000403496634858862","0.0110365175874565","0.0179004711106232","0.0274253301108343","-0.00361908303260019","-0.0972164285509647","0.00658554178401142","-0.0127479823319382","0.0133430587812022","-0.00261456489555621","0.00338666342022084","-0.00759943452070608","-0.00135868640945319","0.00235467389668054","0.0298093351820152","0.0336948300095823","100","10%"
"t = 0.845149615169301","-0.00275916403206113","-0.0683065276661205","-0.000494948749441893","0.0105200314508446","0.0185886430192125","0.0284067118900148","-0.00381424798881496","-0.09994606758881","0.00461648324590837","-0.0164976072526577","0.013080494264316","-0.00412884916561154","0.00363995218710297","-0.00705222456290966","-0.000945612499476397","0.00318532361064398","0.0318313046516747","0.0361252187711839","100","10%"
"t = 0.868331329893275","-0.00188071164837981","-0.0656593547590885","0.00068149681316663","0.0120915272881387","0.0212794150643946","0.031339124755794","-0.00324839420783831","-0.10166611830647","0.00509351920905921","-0.017606918057739","0.0149847445560306","-0.00334127311272881","0.00327939999774961","-0.00692363926063844","-0.00129368072372686","0.00322946732126261","0.0331029558419863","0.0377894362477663","100","10%"
"t = 0.891513044617248","-0.00114024144078732","-0.0626719221087295","-2.67942073197699e-05","0.0119786229042965","0.0214656913496894","0.0319787775715474","-0.00275133746222853","-0.102706789424693","0.00353899377722106","-0.0203951339275296","0.0144815522115268","-0.00456655537958364","0.00299456110379747","-0.00694584899744976","-0.00161037015211989","0.0033581839893323","0.0343726969824484","0.0394962199232745","100","10%"
"t = 0.914694759341222","-0.000701495093471491","-0.0600432045217311","-0.00125664549213242","0.011462577580779","0.0213881579415985","0.0325445805245135","-0.0027203184313961","-0.104479914676383","0.00145410935503467","-0.0237639939329979","0.0135266367621351","-0.00618778127205581","0.0030251653298825","-0.00622863754858049","-0.00156786929889836","0.00390727976365304","0.0359853099416835","0.0416216161072102","100","10%"
"t = 0.937876474065195","-0.00040000354789495","-0.0572423307284522","-0.000970612424462675","0.0120920937576093","0.0227501457930671","0.0341724775521417","-0.00277025337517322","-0.105606599749662","0.0001942783764986","-0.0262882908936221","0.0139059439088985","-0.00646397442980225","0.00312471273257862","-0.00563536401743043","-0.00140822316665811","0.00457229551180085","0.0374312752447431","0.0435511620103088","100","10%"
"t = 0.961058188789168","-8.30958697756967e-05","-0.0542439258923564","0.00239865229946622","0.0155242844268042","0.0269481747592279","0.0383269393127352","-0.00277566647906208","-0.106315372459147","0.00208677920801096","-0.0252955589223515","0.0171777290566546","-0.00345273155780325","0.00321105116837188","-0.00498395639533049","-0.000724834476988293","0.00573549869097563","0.0393548801493726","0.0459414599035979","100","10%"
"t = 0.984239903513142","0.000683656528183651","-0.0507798759412613","0.00237092435987494","0.0159546308187224","0.0292277684210494","0.0409575510388624","-0.00233167580143537","-0.106222691072269","0.000980651670588902","-0.0277014130006489","0.0187987862616645","-0.00229303882506423","0.00287593530810213","-0.00470190473960026","-0.00115900512469474","0.00584485289495785","0.0404393215945654","0.0475314377187854","100","10%"
"t = 1.00742161823712","0.00156736982311975","-0.0471807559592692","0.00143321905547618","0.0155312951313175","0.0301211296102894","0.0421743480504186","-0.00166177193645903","-0.105509695231334","-0.000970399437674455","-0.0307579963186023","0.0193669998566459","-0.00197063284779547","0.0022786349413245","-0.00460225264740952","-0.00188374832656804","0.00569714424678869","0.0410327552407737","0.0486391867974368","100","10%"
"t = 1.03060333296109","0.001991608580405","-0.0438185533139547","0.00329534629567145","0.0173629636884092","0.0327597072414411","0.0446800499503504","-0.00166079860426307","-0.104907520879119","-0.000385910005085286","-0.0309416081752513","0.0215758833822948","-1.51560753695248e-05","0.00239625610293159","-0.0038014097159691","-0.00131726286599837","0.00679285502956942","0.0425686778810457","0.0506701454112","100","10%"
"t = 1.05378504768506","0.00271969867901802","-0.0402237937651515","0.0046335957414888","0.0186492076297241","0.0357184157728515","0.0475217643899138","-0.00117373804811537","-0.10338811633796","-0.000224948718451741","-0.0319431761279487","0.0243204433119069","0.00253629193840067","0.00205143781558948","-0.00340590856761019","-0.00161585237090176","0.00706354230290019","0.0433751483172479","0.0519865567462484","100","10%"
"t = 1.07696676240904","0.0031559659385983","-0.0366851225589872","0.00427704192999446","0.018388579039171","0.0368442436995252","0.0486804934656897","-0.00108024321092285","-0.101706450598083","-0.00203156093200571","-0.0346437168693935","0.025026830836748","0.00313220201449942","0.00211875182172315","-0.00257375278117775","-0.00145185355034537","0.00788076208357239","0.0446357473857726","0.0538252288691273","100","10%"
"t = 1.10014847713301","0.00350909480376169","-0.0332853528519699","0.00407235906819976","0.0181235280229905","0.0379514565810566","0.0497341999892634","-0.000932182518046064","-0.0996364055763828","-0.00324403825529509","-0.0364081967192307","0.0261065774628385","0.00423379007935551","0.00210153018931925","-0.00173542353805602","-0.00117604856555959","0.00875570849969699","0.0455901417352006","0.0553155905026617","100","10%"
"t = 1.12333019185698","0.00440783380192132","-0.029392848014868","0.00477561729682799","0.0188561309347988","0.0399010585022443","0.0516317049214185","-0.000162297915326982","-0.0964287031664697","-0.00332428934307774","-0.0364826295444248","0.0282900728848548","0.00707896773834556","0.00132493241886743","-0.00177598094067094","-0.001874496817376","0.00864324226948391","0.0458791941646323","0.0561092229875558","100","10%"
"t = 1.14651190658096","0.00539631896952429","-0.0254386718449887","0.00552345037011968","0.0197211683208443","0.0426378985110235","0.0542912816478466","0.00075089604617216","-0.0926458956860848","-0.00305951261540604","-0.0363314411355966","0.0316259672339069","0.0109766429492983","0.000354323092755454","-0.00201411727310553","-0.00290546608393722","0.00820195829579642","0.0459383398817103","0.0566585647949526","100","10%"
"t = 1.16969362130493","0.00588677627149355","-0.0217834841051336","0.0071164993504822","0.0212949860111244","0.0462733486805418","0.0577902204458293","0.000986503080778264","-0.0888587398222616","-0.00230344843372701","-0.0349428358392453","0.0359424272985679","0.0165772521200378","0.000158594943880369","-0.00147523260281967","-0.00286134965060676","0.0088521618817311","0.046631628093987","0.0578192576124935","100","10%"
"t = 1.1928753360289","0.00626474309939247","-0.0181830239332185","0.00622139711572796","0.0202963980643405","0.045809055132777","0.057105354685649","0.00109290207066299","-0.0846944041013409","-0.00428409600657856","-0.0365784496580792","0.035364273817895","0.0165574808154933","8.97698696907731e-05","-0.000768205018492124","-0.00277680355839967","0.00960581743155659","0.0472197883076162","0.0590148702122372","100","10%"
"t = 1.21605705075288","0.00657562985869252","-0.0146307783302481","0.00639567156962193","0.0199507078344346","0.0470108960849124","0.0578345383579735","0.00122754105574602","-0.0801076792496863","-0.00474895957277706","-0.0370718971413829","0.0371232752035822","0.0190366849881946","-1.15436388265001e-06","-0.000117240476158294","-0.00295933661551745","0.0100529557959191","0.0473707021569898","0.0596935866285216","100","10%"
"t = 1.23923876547685","0.00661929530775755","-0.0113356693612363","0.00693060318865221","0.0198194486154679","0.0485304766598254","0.0586745506378166","0.000876258971101603","-0.0755077421339332","-0.00459290670775985","-0.0365628911092868","0.0395029614783689","0.0221407418483167","0.00030562313205185","0.00109927164336715","-0.00257044907789708","0.0110646108258783","0.0480012507230743","0.0608451883965475","100","10%"
"t = 1.26242048020082","0.00683433323791799","-0.00790418925049559","0.00477581497311484","0.0174549115359073","0.0476990468184946","0.0575693693969326","0.000809846982098235","-0.0701826819171225","-0.00864040390829819","-0.0396278498566363","0.0383532679989001","0.0225738661688609","0.000524924044083719","0.0021773943768738","-0.00201615365716309","0.0124098591081387","0.0489479935752533","0.0624514556291839","100","10%"
"t = 1.2856021949248","0.0068674576977166","-0.00457625272031312","0.00661474444354584","0.0187244494202003","0.0507456008378741","0.0600579682000825","0.00035379602308753","-0.0644942504440606","-0.00730811265981295","-0.0365525779764763","0.0422196510210351","0.028277696948816","0.0010281529091618","0.00344373104398078","-0.00101402899907437","0.0139618207920216","0.0501461459596524","0.0640725275511331","100","10%"
"t = 1.30878390964877","0.00712333811219957","-0.00124143301341819","0.00516386524245911","0.0168624712879796","0.0503872836832519","0.0591773135162063","0.000259500179207919","-0.0583604454379797","-0.0106622140668506","-0.0388207129999458","0.0414123711744296","0.0293311105554914","0.000991544742461675","0.00409229851536278","-0.00114446797550165","0.014581693501814","0.0504711715687612","0.0650306566220936","100","10%"
"t = 1.33196562437274","0.0073718596809776","0.00212031536019898","0.00553332919493747","0.0168465650021125","0.0524672944098148","0.0608266408908266","0.000205460256955933","-0.0516254106659961","-0.0114020550678683","-0.0376701285401932","0.0440693093567406","0.0341979688767463","0.00109901344797425","0.00480945658622396","-0.000970035491729347","0.0153850618032367","0.0508093614476221","0.0658322186131765","100","10%"
"t = 1.35514733909672","0.00759140051152329","0.0054465611036479","0.00504976464102164","0.0156098556758113","0.0538220437630189","0.0614219112671059","-5.61827591649787e-06","-0.0445306655969467","-0.0133311155736606","-0.0376939163845751","0.0460219917069179","0.0384822248331778","0.00141174589440941","0.00570235988648944","-0.000461813221152288","0.016565070075252","0.0513935703910485","0.0668932743964191","100","10%"
"t = 1.37832905382069","0.00775776336133454","0.00870000580331167","0.00760139647166033","0.0170260745715147","0.0574795975879802","0.0640331941236812","-0.000291911329232054","-0.0371301653013069","-0.00972292441182388","-0.0320660828350223","0.0521287885708827","0.0465707400284147","0.0019180873002531","0.00670704162756756","-6.89173098559575e-05","0.0173901266350516","0.0515543902105","0.067329417684388","100","10%"
"t = 1.40151076854466","0.00798476958099664","0.0118865374070725","0.00701985700679339","0.0156499290825321","0.0579343380348301","0.0636804429137302","-0.000300780986660725","-0.0294441888564741","-0.0115564575559749","-0.0317524963845563","0.0532544597255695","0.0499214588322973","0.00206123693395732","0.00740518359562867","0.000280026505581829","0.0183753706063526","0.0517770546035712","0.0680091296846021","100","10%"
"t = 1.42469248326864","0.00819239831009784","0.0150544797843495","0.00692827821271004","0.0147962460810303","0.0592202029075249","0.0641860989274252","-0.000361004055254981","-0.0212235311590922","-0.0125304409322611","-0.0295691014808095","0.0556066105186422","0.0553446100724124","0.00253760149614382","0.00838269716197493","0.00103110276190652","0.019696597883071","0.0526528984998598","0.0692587085477047","100","10%"
"t = 1.44787419799261","0.00844429641832685","0.0182025815454415","0.00703125100198262","0.0138429414042518","0.0606364822114108","0.0645150220951831","-0.000228050519041884","-0.0129158782188327","-0.0135558629569259","-0.0279852776618782","0.0576965614570685","0.0598117141927972","0.0027042091698647","0.00895050998309905","0.00113277793692781","0.0203689194819304","0.0526959103408558","0.0697112043880824","100","10%"
"t = 1.47105591271658","0.0086727324495187","0.0212007353369303","0.00707462496988834","0.0127464827634959","0.0612679951115091","0.0640680138304435","2.29888694749205e-06","-0.00449888167396309","-0.0140739503633062","-0.0256528851955885","0.0592297886435523","0.0638953039697702","0.00257406340660136","0.0091974846846213","0.00108697014518428","0.0208395471452025","0.0523722093682063","0.0697735889452473","100","10%"
"t = 1.49423762744056","0.0089152186908629","0.0242450302660277","0.00695160952421492","0.0115274279962656","0.0621516361247378","0.0638889041837152","7.710765356948e-05","0.00430148890054762","-0.0161754184394917","-0.0234923345232683","0.0603531010431711","0.0688442524739743","0.00290115943095658","0.00983991491229274","0.00171143405813404","0.0219850605536028","0.0529401636479949","0.0706866762966795","100","10%"
"t = 1.51741934216453","0.00915163912001075","0.027247198087551","0.00842403993475042","0.0116231940578104","0.0646442091177267","0.0650714634521921","0.000185263451079032","0.0132377920839648","-0.0148255441134737","-0.0182200558728316","0.0641425143665931","0.0759262810101722","0.00326978900430866","0.0104693378252446","0.00253919380963825","0.0231893587396541","0.0534685166108315","0.0714601266722885","100","10%"
"t = 1.54060105688851","0.00931929959345191","0.0300246783041295","0.0081554142350971","0.0100596848710016","0.0656556162927249","0.0650794008729783","0.000283594028598441","0.0220587439575808","-0.0157661608938637","-0.0154882740745479","0.0660294179256444","0.081477519447459","0.00344584705168772","0.0108252036662435","0.00284448597433022","0.0238948114476804","0.0535444368364107","0.0717496022592599","100","10%"
"t = 1.56378277161248","0.00942784252111738","0.032637763451834","0.00874574563428866","0.00948518213549553","0.0674146273580608","0.0658058572649502","0.000600984484935586","0.0305992876139323","-0.0143075708315739","-0.0109839608478022","0.0699994715148668","0.0881834367153586","0.00307429921785764","0.0105465910819145","0.00220714395097572","0.0235798625085225","0.0527307679785864","0.0711118708179186","100","10%"
"t = 1.58696448633645","0.00961469860921511","0.0354847909827346","0.00938017043250516","0.00886435395237334","0.0691856995765878","0.0665472978670618","0.000790355698011329","0.0395727541067026","-0.0130236908042312","-0.0055075960226016","0.0737935398343538","0.0954489489021816","0.00356759744131149","0.0110240455621603","0.00303422032263654","0.0246843860348867","0.0529759862745501","0.0714592048384945","100","10%"
"t = 1.61014620106043","0.009850695285299","0.0383106684717547","0.00770509326130831","0.00600981560237331","0.068473008157974","0.0647741089250013","0.00113977879851371","0.0487740293047922","-0.0158772749803754","-0.00419565299944176","0.0735093094212314","0.0988960870754654","0.00393534648530737","0.0114343512595917","0.00361094309306285","0.0256823197023066","0.0531720581427889","0.0719205251945074","100","10%"
"t = 1.6333279157844","0.0100556040861112","0.040963757678297","0.00752121024626196","0.00444838218808816","0.0688484441979607","0.0638615083412824","0.00157173675530043","0.0574810024210939","-0.0159190456583015","-0.000196198067227857","0.075320865191702","0.103917014969205","0.00400236398439685","0.0113728395053318","0.0036092184550508","0.0259229455267036","0.052794713469163","0.0716797197439105","100","10%"
"t = 1.65650963050837","0.010187729174314","0.0435202267742578","0.00853642021248225","0.0040644907459168","0.0703233097002331","0.0640723838117884","0.0019200843247281","0.0660603695140968","-0.013804782196364","0.00625667304490071","0.0788905159183359","0.110863466943966","0.00401210145410211","0.0112521230074029","0.00401060097780433","0.0264328176630845","0.0525011405660729","0.0714128719025279","100","10%"
"t = 1.67969134523235","0.0102787336858102","0.0459942136009842","0.00854673453045452","0.00308701417339502","0.0713748370422874","0.0644006522436423","0.00220348901820647","0.0746202602485895","-0.0138874001510606","0.011089675871236","0.0813520756905194","0.117161347506582","0.00416473404515415","0.0112730193218748","0.00421740965776062","0.0267516911076253","0.0520676367667205","0.0709412475507721","100","10%"
"t = 1.70287305995632","0.0103148031764714","0.0482974513243465","0.00763789940388618","0.000783675479146309","0.0716430105280249","0.0634844213518562","0.00241455224965622","0.0827307407505107","-0.0149233894033865","0.0142987292542024","0.0831532586504452","0.122405632077261","0.0042844396225451","0.0110827475842819","0.00462407135549223","0.0273659655576352","0.0519307375720971","0.070834476659412","100","10%"
"t = 1.72605477468029","0.0102305911156117","0.0503943438667402","0.00662324705240093","-0.00176465681472116","0.0716520323005886","0.0620966434133271","0.002653127147007","0.0904671865912795","-0.0168241019214343","0.0174942600171687","0.0839093675620262","0.127171970294178","0.00394659258100632","0.010543705172288","0.00461167747596682","0.0274362574651606","0.0514807277520247","0.0703388486669602","100","10%"
"t = 1.74923648940427","0.0100176705661648","0.0523601407338546","0.00762118132558915","-0.00217966803889277","0.0734638690720578","0.0627015199561748","0.00284976397329334","0.0978891549009323","-0.0137904048154202","0.0237062119709256","0.0884192705274149","0.134134107808341","0.00359097764678786","0.00991298609890353","0.00411536455277007","0.0269177915636963","0.0505014450955697","0.0692372616392523","100","10%"
"t = 1.77241820412824","0.0101727791721584","0.0546198751936134","0.00714025329014841","-0.00387350519550697","0.0739417040201938","0.0621303102771532","0.00344530914442336","0.105675043376475","-0.0143116013702687","0.0278576169406032","0.0903760324823507","0.139517149195459","0.00379976275565261","0.00962564003880492","0.00432478785209938","0.0270723092638989","0.0501273588978417","0.068700815189398","100","10%"
"t = 1.79559991885221","0.0102969520817668","0.0568694994475114","0.00660323803102145","-0.00578617571372076","0.0744356682343383","0.0614851249046103","0.00396170075597802","0.113216093276468","-0.0151720131762817","0.0327446832854082","0.0918770974167053","0.145063821110467","0.00418554396438028","0.00946840440603307","0.00525484648616849","0.0279285340850963","0.0502095627712152","0.0685927618655619","100","10%"
"t = 1.81878163357619","0.010305596973224","0.0588885200926709","0.00680576283904962","-0.00691625599139977","0.0753087343042543","0.061351727309604","0.00433458739103263","0.120152297158891","-0.0149313942639844","0.037728498383572","0.0939282616891986","0.150478521399269","0.00415595945745691","0.00894829462303529","0.00528675668234263","0.0278585036014986","0.0495396008101128","0.067708088361315","100","10%"
"t = 1.84196334830016","0.01060968955169","0.0612997407364442","0.00623492074734039","-0.00884967055240454","0.0751634338603377","0.0599636500381039","0.00500658816774954","0.127431647653697","-0.016628894077689","0.0421507996910623","0.0942314580074085","0.155200140257166","0.00465772373714976","0.00885761507215959","0.00632427880107965","0.0287686678986913","0.0496601404260252","0.0676267265863115","100","10%"
"t = 1.86514506302413","0.010656504604436","0.0633742645965236","0.00755079373083373","-0.00859972004467325","0.0771987174796431","0.0611547122199487","0.00557518447715738","0.133967701645749","-0.0128775950716302","0.0497216803382176","0.0989693516275013","0.162476392633556","0.00472891768242074","0.00838156829523371","0.00639167312376112","0.028469157054552","0.0490625860849157","0.0666138240671456","100","10%"
"t = 1.88832677774811","0.0108267547536574","0.0654470208109317","0.00775433864351753","-0.00951152457156192","0.0778084843947885","0.0607482606738473","0.00630937809414355","0.140242379170291","-0.0116731686312695","0.0556838130014598","0.101267201656932","0.167745486129967","0.00488562614842136","0.00785286236393595","0.00674873063767811","0.0285461276858193","0.0484935076268629","0.0657601830166788","100","10%"
"t = 1.91150849247208","0.0110015058414332","0.0676220687905494","0.00699473176437147","-0.0117561159044747","0.0772311959196808","0.0588248613330547","0.00705056876659616","0.146306443560128","-0.0118314678807917","0.0599370482325745","0.101669993025767","0.171103612002372","0.00508986802433988","0.00750624646791007","0.00724719151536164","0.028825164024975","0.0480042847380208","0.065056559193448","100","10%"
"t = 1.93469020719605","0.0113660911861849","0.0699240536070705","0.00763616029555478","-0.0122253720828405","0.0784855555523503","0.0592892234144859","0.00809877029537969","0.152319347863384","-0.0104620873299804","0.0666178306333267","0.10438347522897","0.177399944244706","0.00546970066854905","0.00723417106009234","0.00813014747443362","0.0291819244820681","0.0479938964763739","0.0644998941315757","100","10%"
"t = 1.95787192192003","0.0114370003645643","0.0719041711574299","0.0078254122495204","-0.0130519203164208","0.0787420970510781","0.0586529616366028","0.0088329873086639","0.157521501605853","-0.00885197955292642","0.0720018812230938","0.106348909692178","0.181861385438394","0.00560223758800795","0.00666172715188508","0.00832015455687718","0.0289508447950372","0.0474724020253627","0.0635813751744443","100","10%"
"t = 1.981053636644","0.0115114260759828","0.0737917998922742","0.00681715116341333","-0.0152550998288955","0.0782032858306144","0.0571071820114758","0.00968619504527217","0.162309395401067","-0.00895723586733291","0.0759730921899653","0.107312792006089","0.185143682052742","0.00562967378162684","0.00600944932361333","0.00839449466237374","0.0286696037526842","0.0467025557066286","0.0624517355412954","100","10%"
"t = 2.00423535136797","0.0116102833227746","0.0755667168111701","0.00602714115914478","-0.0172406782332781","0.0778280179798798","0.0555839287160597","0.0103277953387552","0.166450576612044","-0.0083899328599685","0.0806409339201026","0.108700613183931","0.188953121382916","0.00574829770861643","0.00531359314379424","0.00904108901712183","0.0288517102049577","0.0464189531714051","0.0617541746505491","100","10%"
"t = 2.02741706609195","0.0120208526756642","0.0777809451166961","0.00564672879817953","-0.0189392184177885","0.0779383009381678","0.0545455693390786","0.0115448910378211","0.170935015009844","-0.00686292172561205","0.0853403014702104","0.110582830874252","0.192573986144758","0.00616988509208166","0.00494951611063077","0.0096371264197979","0.0289467984804701","0.0460247772067722","0.0609524660138138","100","10%"
"t = 2.05059878081592","0.0126904054275301","0.0802282853036516","0.00672969698523617","-0.0188438464855997","0.0797688924361349","0.0556664866187439","0.0133017663809658","0.175571007671298","-0.00164692799120656","0.0929991313338343","0.115326230146303","0.198950522157411","0.00689045130692319","0.00478015171284714","0.0110145137882545","0.0294638388867173","0.046475661217864","0.0606487464942426","100","10%"
"t = 2.0737804955399","0.0126383338725645","0.0818757527820931","0.00560821599225631","-0.0209705377037164","0.0786760780735929","0.053712801298433","0.013905441629091","0.178527848613425","-0.00147811230597388","0.0959655708511185","0.115458164142003","0.200640059797448","0.00672823933507407","0.00388553096991085","0.0108603063358452","0.0288513531165397","0.0454280908606114","0.0592069946024407","100","10%"
"t = 2.09696221026387","0.0127627687021037","0.0836930041233254","0.00573790987519518","-0.0221511886581704","0.0792421730473833","0.0533001495926124","0.0147936675370981","0.181415283422332","0.000878255338267479","0.100322246465251","0.118082546752451","0.203968857099762","0.00678087100525629","0.0032481161593708","0.011419642404448","0.0288389168061777","0.045100351832325","0.0583242863582258","100","10%"
"t = 2.12014392498784","0.012801602799537","0.0852980771770475","0.005220537416382","-0.023373405096176","0.0792919024582756","0.0527512343116773","0.0154669680494277","0.183625953753487","0.00280945784156986","0.104149666406696","0.119947963637259","0.20653486860825","0.00671592116186524","0.0024645710621136","0.0116093448977461","0.0283804729875897","0.0443673575025234","0.057095680447788","100","10%"
"t = 2.14332563971182","0.012704753808123","0.0867516753373314","0.00394114971666473","-0.0254702854148457","0.0785516122876572","0.0514537590257657","0.0159725092245953","0.185389420177411","0.00350260659883146","0.106476310672982","0.120645646450895","0.207704003119934","0.00656587083447076","0.00157062762506547","0.011802716655286","0.0279703569233228","0.043570911263601","0.0557880442003078","100","10%"
"t = 2.16650735443579","0.0127901631977055","0.0883855344808084","0.00482020203295735","-0.0254968285095208","0.0795067461374796","0.051618812180995","0.0167066842682793","0.187145597061853","0.00662136545616066","0.110137760427292","0.122888462640902","0.209779621800631","0.00659516007799968","0.000862435838656638","0.0114658607512228","0.0271212189397399","0.0424773052022837","0.0542649213134686","100","10%"
"t = 2.18968906915976","0.0127664064376478","0.0898738733846505","0.00543524778639787","-0.0254323463764446","0.0800577593902701","0.0518909264419088","0.0172249991739802","0.188291505803577","0.0103861788998888","0.114594191754175","0.125609636846939","0.212180126184845","0.00653786648444359","7.07966439843474e-05","0.0116885016077726","0.0265544511814974","0.0416784372589346","0.0528207019992679","100","10%"
"t = 2.21287078388374","0.0129636381033998","0.0915945429437346","0.00414830091803051","-0.0276562077246451","0.078899748359159","0.0499040440569451","0.0181908343075491","0.189576808119534","0.0117862000886986","0.117193278245558","0.126525537078382","0.213444166943033","0.00662400935076315","-0.000561828337074496","0.0122551472796007","0.0264619172468029","0.0414577149379934","0.0520460565776378","100","10%"
"t = 2.23605249860771","0.0130702132849341","0.0930400139044326","0.00325706477138906","-0.0292216639293597","0.0779904614409237","0.0483782176544705","0.0189885950234411","0.190123760800005","0.014131579701424","0.120045277111703","0.127444954288088","0.214292622820333","0.00663409771768721","-0.00135275694760144","0.0127274234270335","0.0262257121618769","0.0408517037257403","0.0509197327561863","100","10%"
"t = 2.25923421333168","0.0129519090707591","0.0942264717526651","0.00275621236670073","-0.030573647145072","0.0772980463157946","0.0469964427597888","0.0194911837883539","0.19006207977272","0.0157900536209848","0.121678093678104","0.127893367523507","0.214240705295647","0.00631750360216503","-0.00233151301614843","0.0122983077379757","0.0253346502006585","0.0395620300535406","0.0492189837077309","100","10%"
"t = 2.28241592805566","0.0125209537690518","0.0950636903324678","0.00265878664305389","-0.0309135507924335","0.0772282336762857","0.0468365679079194","0.0194202392888521","0.189301874487279","0.0177746252722653","0.123372598844263","0.128366052427163","0.214080294653981","0.00587568514951708","-0.00342184305019972","0.011569040705199","0.0239842082063623","0.0380177661010462","0.0471986435324917","100","10%"
"t = 2.30559764277963","0.0119442616856611","0.0958180102543143","0.00167135559743358","-0.0318594998238137","0.0760764796605556","0.0458403527176852","0.0190973923974262","0.188250179861086","0.0199311580029873","0.125024242836234","0.128991227716626","0.213851563544918","0.00541814405191321","-0.004436197626511","0.0114055903362551","0.0230585927973571","0.0370371274162291","0.0455965503069341","100","10%"
"t = 2.3287793575036","0.0118268770320684","0.097009129984756","0.00010035115371032","-0.0337851314956491","0.0744510259703069","0.0439104299949348","0.0194660461008184","0.18748117753008","0.0210250744297796","0.126593657089952","0.12845966712933","0.213445521808908","0.00527086933303159","-0.00519103822326867","0.0118690810060424","0.0227535091180758","0.0365758513709453","0.0445295210198748","100","10%"
"t = 2.35196107222758","0.0116696531294539","0.0980450896486664","-0.00122286426238873","-0.0352375765632688","0.0731649151641784","0.0425287313681971","0.0198426927409796","0.186215715417179","0.0227142660446518","0.127451228453322","0.128460994773972","0.212330284139852","0.0050505927051783","-0.00602979013682322","0.0118205333553242","0.0218934128668153","0.0356270118346893","0.0429899819156464","100","10%"
"t = 2.37514278695155","0.0113788625325912","0.0988879377520588","-2.83517930560561e-05","-0.0337710227030841","0.0741175884004397","0.0438596209630229","0.019858166911788","0.184490742907694","0.0275369696653453","0.129771551064666","0.130855451855449","0.212489670707198","0.00476562675517681","-0.00686796026809759","0.0114320281675261","0.0207491714772639","0.0344782550844072","0.0412551380954453","100","10%"
"t = 2.39832450167552","0.0110481237990519","0.0995938540159272","-0.00206715504625821","-0.0361065810491449","0.0725414002948654","0.0421685609173822","0.019562077041612","0.182396506759864","0.0265196997310012","0.128904732674198","0.128647391798875","0.209872397340486","0.00441705682431852","-0.00772580833566201","0.0111492389784931","0.019844166651939","0.0332766856278697","0.0396210879735936","100","10%"
"t = 2.4215062163995","0.0111882835210833","0.100771393061603","-0.00309955523349772","-0.0367998759956773","0.0719503460030578","0.0418901149397928","0.0201238940864082","0.180687728247152","0.0297645040679427","0.130648621906391","0.129985072865145","0.209640375723499","0.00442000902296964","-0.00827342973749785","0.0115123880922245","0.0194141383454007","0.0326616441331022","0.0384682462632331","100","10%"
"t = 2.44468793112347","0.011103831020531","0.101608965869343","-0.00352440196205618","-0.0374639167044686","0.0711434261912657","0.0409328045292947","0.0201927857872852","0.17836643036015","0.0333127472364194","0.131632048325203","0.130854133588256","0.208353391667584","0.00421916186483201","-0.00895358270197355","0.0113783046006844","0.0186538048900278","0.0317403432390745","0.0370627500135435","100","10%"
"t = 2.46786964584744","0.0108428484615068","0.102255756559417","-0.00294986877617179","-0.0370891830454308","0.071347556407448","0.0409714599697222","0.0198909360383629","0.175736618034677","0.0346612566815951","0.131118833865378","0.130129336402495","0.206025412010865","0.00395075872332556","-0.00967835591364387","0.0106676705882557","0.0175669417912492","0.030383886798478","0.0354248559301807","100","10%"
"t = 2.49105136057142","0.011045132188404","0.103539798662232","-0.00481382670260574","-0.0394154164450658","0.0693504692658928","0.0387172175381722","0.0203865356643085","0.173738722968405","0.0368485951460301","0.131880667579666","0.130321184871051","0.204592877704206","0.00401552907942929","-0.0100062600107093","0.0113993677038532","0.0176148681094655","0.0301598823600036","0.0346610968238373","100","10%"
"t = 2.51423307529539","0.0112904455360492","0.104623962187772","-0.0063173720121761","-0.040978920350033","0.0675777091473993","0.0370944369524558","0.0211916387057462","0.171395397542018","0.0401015424476188","0.132360193267229","0.13129771746081","0.203146503100749","0.00403417900946773","-0.010473358618491","0.0115982059483018","0.0171654521348646","0.0295865335392165","0.033577734217374","100","10%"
"t = 2.53741479001936","0.0114589939060717","0.105692937321133","-0.00528676668749702","-0.0400291393650145","0.0681548221433761","0.037733791824351","0.0217845421619101","0.168900921415196","0.0433614469167549","0.132980838760141","0.131766098832954","0.201329977608273","0.00402546169553865","-0.0108994593457058","0.0115085851508591","0.0165318591333411","0.0286752450761212","0.0322880515581402","100","10%"
"t = 2.56059650474334","0.0117182522544132","0.106799562638245","-0.00703962455266679","-0.0417003602651346","0.0661495140068901","0.035862400100327","0.0224133151743033","0.166296628916496","0.0448418407358263","0.132283088971423","0.13192725553974","0.198979718023733","0.00401243896467493","-0.0112426557644463","0.0116508221759625","0.0160535506966286","0.0280888526659718","0.0312433380773488","100","10%"
"t = 2.58377821946731","0.0121380654424506","0.107885853567272","-0.00698511755524005","-0.0420205780270546","0.0657753369416413","0.0352373254298271","0.0231921050971665","0.163528338146641","0.0481162440099304","0.132790677761296","0.132483723634298","0.197331994681903","0.00403606149191422","-0.0115837482450667","0.011784823328146","0.0156748576125892","0.027461138692698","0.0302222959802517","100","10%"
"t = 2.60695993419129","0.0121910019773094","0.108569733942402","-0.00774173576639921","-0.0427131407279073","0.0647243099693461","0.0343471921524411","0.0233702108399308","0.16028310354131","0.050385519554443","0.131818188854936","0.132413688500099","0.194565869549704","0.00389218283687334","-0.0120170858424378","0.0113371476385903","0.0147874839687816","0.0264851917466777","0.0288965921496977","100","10%"
"t = 2.63014164891526","0.0120090142118734","0.10894662173197","-0.00894979525007816","-0.0437442463264246","0.0632919369733405","0.0330533615530263","0.023091471446059","0.156677269847278","0.0517403413185927","0.130351462261195","0.130973841238984","0.191107766048671","0.00368987289166342","-0.0125119970978189","0.0110479547284986","0.0140091624920094","0.0255743658733523","0.0276243275404202","100","10%"
"t = 2.65332336363923","0.011773190443426","0.109343987427541","-0.00971296956145338","-0.0443704127312685","0.0625738391216439","0.0324727510841887","0.0228532667249141","0.153079021069883","0.0556643825843221","0.130478637994327","0.131692042574943","0.188950933430083","0.00345642658806167","-0.0129656723466544","0.0111769677491171","0.013572517299201","0.0249516426230623","0.026613830402329","100","10%"
"t = 2.67650507836321","0.0119838304849713","0.110094251209503","-0.00986837236282735","-0.0440724640179694","0.0620619191809722","0.0324595303429128","0.0233392471062295","0.149805645699889","0.058933551291041","0.130182714468388","0.132620818978533","0.18691154527505","0.00344380429135375","-0.0132135528042002","0.0109194460770435","0.0128942793570967","0.0242869079844339","0.0255926825763485","100","10%"
"t = 2.69968679308718","0.0120887089603814","0.110643979976254","-0.0133244179024407","-0.0477252266569956","0.0589353458901188","0.0290354211007721","0.0235693430438439","0.146279441096944","0.0604219377168454","0.128830178555252","0.130867946430311","0.183357713508425","0.0033222115976448","-0.0135326270283713","0.0109861287199502","0.0126222201417207","0.0236555744941177","0.0247290180534237","100","10%"
"t = 2.72286850781115","0.0120002223160269","0.110967807042104","-0.0155186343004706","-0.0498618194343627","0.056784820897962","0.0270214507521644","0.0234251149781966","0.142478407659358","0.0613273784773788","0.127084034379225","0.12932299585264","0.179775390214949","0.00312194903253532","-0.0138826419873156","0.0111850889119975","0.0122949044384884","0.023173098578586","0.0238845143339458","100","10%"
"t = 2.74605022253513","0.0118396654869569","0.111162442672519","-0.0174863415168784","-0.05080915312729","0.0546777688462163","0.0258259001780851","0.0230876497126794","0.138523711229199","0.0654525621758033","0.12646173103224","0.13004420583434","0.176938476446418","0.00287916267114314","-0.014257914469468","0.0110090504445303","0.0116582577010093","0.0224276016644786","0.0228005696769782","100","10%"
"t = 2.7692319372591","0.0115117174598779","0.111219803578366","-0.0191229822895505","-0.0519300406072988","0.0517172692200167","0.0230335579423162","0.0224445169321397","0.134445643061489","0.0653435465502889","0.123719495263032","0.127905837013442","0.172648999153936","0.00254324076215115","-0.014641333401776","0.010576450852508","0.0109045405931724","0.0214948431081902","0.0216441316339556","100","10%"
"t = 2.79241365198307","0.0111380686148896","0.111061259963841","-0.0214873390735411","-0.0535958297657351","0.0495440273520293","0.0215154404215477","0.0216995685016958","0.130178900905514","0.0660799543274024","0.121159390046926","0.12617791897198","0.168412925242041","0.0022352602466529","-0.0150395810883514","0.0101580570233559","0.0101012300795192","0.0205242917078024","0.0204234387976895","100","10%"
