"","ame.cox","ame.po","ame.kmdr.clog","ame.kmdr.logit","ame.dr.ig.clog","ame.mdr.ig.logit","me.cox.x = 0.5","me.po.x = 0.5","me.kmdr.clog.x = 0.5","me.kmdr.logit.x = 0.5","me.dr.ig.clog.x = 0.5","me.dr.ig.logit.x = 0.5","cdf.cox.x = 0.5","cdf.po.x = 0.5","cdf.kmdr.clog.x = 0.5","cdf.kmdr.logit.x = 0.5","cdf.dr.ig.clog.x = 0.5","cdf.dr.ig.logit.x = 0.5","n","cens.level"
"t = 0.237043780897122","0.24257389106744","0.193213488052576","-0.00613811359404165","-0.00383661078309255","-0.00492816914617083","-0.0027239669746526","0.224643690357364","0.176267262545278","4.49943039260099e-05","-0.00300715320830051","0.00091006926582391","-0.0021297942553541","0.0106975746326214","0.0126527013354542","-0.000675847770307233","-0.00013451756156039","-0.000727421513927968","-0.000193736727452147","400","10%"
"t = 0.247302270059656","0.250357369173049","0.197731342022506","-0.00605763640584848","-0.00377299161940069","-0.00485292486945752","-0.00266491916216194","0.233955848037053","0.182352342934866","-0.000506615379252876","-0.00362208709582034","0.000381985898206431","-0.0027224385070653","0.010258102437659","0.0124276205599181","-0.00046350926832872","0.000130503887504217","-0.000525011145135549","6.09264305623422e-05","400","10%"
"t = 0.257560759222191","0.257651851776311","0.201780831886615","-0.00659459064429229","-0.00433716964357081","-0.00470163495299939","-0.00255596796919529","0.242724177488297","0.187910512212889","-0.00143526821592106","-0.0046138253820445","-0.000505323177958422","-0.00361680881514726","0.00959108625683121","0.0121351452642545","-0.000352523828476276","0.000291293329399221","0.00143326866607192","0.00207421088074147","400","10%"
"t = 0.267819248384725","0.264578804661056","0.205338503374943","-0.00696410066995998","-0.00472109492284964","-0.00432562413696945","-0.00223186715269572","0.251061708203444","0.192909802271339","-0.00219104591049566","-0.00537494207446034","-0.00114247958252924","-0.00420795297489131","0.00896359010988614","0.0116568541703397","-0.000440781901798387","0.000251343860445664","0.00381796606178369","0.00451188846533355","400","10%"
"t = 0.278077737547259","0.271118991258964","0.208422654746062","-0.00648468448091172","-0.0043040850978196","-0.00251213578504054","-0.000522285512703447","0.258940219286634","0.197360311241283","-0.00227186839126843","-0.0054138374053287","-0.00049470185421687","-0.00342740309925575","0.00835544456885693","0.0112446654816102","-0.000216212847961523","0.000517481086365341","0.00650325010504216","0.0072390232871391","400","10%"
"t = 0.288336226709793","0.277340826919511","0.21101979364741","-0.00619942292877657","-0.00406514393130714","-0.00185772144349908","5.57333299856766e-05","0.266424302883403","0.20124330847564","-0.00249334657197743","-0.00557055729016462","-0.000478457843623047","-0.0033198324523998","0.00788730031131797","0.0108927458790463","4.27012370371381e-05","0.0008174150118096","0.00899043946703462","0.00976734338108774","400","10%"
"t = 0.298594715872328","0.283032808773862","0.213133879200503","-0.00590668429681684","-0.00383758246201837","-0.00113400681982922","0.000704999515514872","0.273299683973118","0.204558702212372","-0.00259189818810701","-0.00559562916272376","-0.000133367140505888","-0.00287514062658771","0.00724005330974111","0.0104181467387285","0.000123865169324484","0.000932846688820062","0.0112115957800957","0.0120222303089809","400","10%"
"t = 0.308853205034862","0.288290533250669","0.214752966878988","-0.00543961509378332","-0.0034520152084278","-8.16353915909836e-06","0.00174967604274023","0.279657727648636","0.207291513931543","-0.00245524560283334","-0.00538177110127181","0.000658505825475736","-0.00196381226035913","0.00659258720909577","0.00994545494952696","0.000247418444582991","0.00108400404121776","0.0134582546645646","0.0142947571645826","400","10%"
"t = 0.319111694197396","0.293073703491953","0.215854310536231","-0.0047424327636627","-0.00281401358066084","0.00188996150846762","0.00356645875588696","0.285459350432364","0.209418416937095","-0.00205346757323472","-0.00484963617423569","0.00222322663146559","-0.000206508719499153","0.00590958108670512","0.00945799352897025","0.000386136684411557","0.00124569409485408","0.0157054898534128","0.0165577220508164","400","10%"
"t = 0.329370183359931","0.297474870268971","0.216494356612454","-0.00440031943159516","-0.00257002511290521","0.00281875585433451","0.00439583824807804","0.29079655679087","0.210996480665269","-0.001972311885991","-0.00466578820333335","0.00300083351768699","0.000706629885704224","0.00529541135415541","0.0090008743036371","0.000519489705575697","0.00139770898662397","0.0177357784293517","0.0186019221889768","400","10%"
"t = 0.339628672522465","0.301124773521132","0.216487275822767","-0.00465882716923589","-0.0029280660960423","0.00242475100812944","0.00391365517975411","0.295300625833412","0.211837733943073","-0.00246202800952061","-0.00506827081639327","0.0025497339856391","0.000337878414075295","0.00428182458715153","0.00816919466154363","0.0002753418785185","0.00117202190735779","0.0193174972411705","0.0202034379536683","400","10%"
"t = 0.349887161684999","0.304421454725392","0.21601533820151","-0.00563926479437347","-0.00396142452191299","0.00141229866638408","0.00283210512193091","0.299374369768463","0.2121299844969","-0.003573916772505","-0.00608429418961577","0.00155365883515309","-0.000580691873391364","0.00348290523568812","0.00755982976877739","0.000180818034520509","0.00109750099379667","0.0209242952580583","0.0218295306242295","400","10%"
"t = 0.360145650847534","0.307257043983016","0.215014168646902","-0.00561323920303878","-0.00401063944996775","0.00185154691312983","0.00319971244218534","0.302910127814852","0.21180999792707","-0.00372541156627401","-0.00610437093047658","0.00196944956427905","-2.80115296909395e-05","0.00275925803414503","0.00703915220403963","0.000224238562610211","0.00114748247288664","0.0227709083109907","0.0236794669019253","400","10%"
"t = 0.370404140010068","0.309501115103447","0.213471620477024","-0.00578661687942739","-0.00428507982142064","0.00308999457825343","0.00433723886436467","0.305783699879033","0.210869236541664","-0.00412506795478264","-0.00637291536488203","0.00312129479230871","0.00128879710733332","0.00186683657981545","0.0063398104954775","0.000128870291035363","0.00105460492756321","0.024432347613715","0.0253314762259787","400","10%"
"t = 0.380662629172602","0.311304008404419","0.211436135934841","-0.00545120404935065","-0.00408104306519168","0.00386591247618266","0.00499691111271142","0.3081501493598","0.209361352976758","-0.00403322776160229","-0.00616061648192757","0.00383614893555697","0.00212101799988336","0.00106546930171631","0.00571942156312692","0.000111573388721248","0.00103172326510749","0.0260685521929694","0.0269588224595203","400","10%"
"t = 0.390921118335136","0.312590281682071","0.208855182414544","-0.00568561108630832","-0.00442221589731834","0.00327834677624656","0.00431563944640243","0.309937378739526","0.207236912799015","-0.00447438339552007","-0.00645581431113105","0.00323426878335202","0.00162809431607627","0.00033064556250227","0.00516926789929473","0.000116996166500572","0.00102906679412846","0.0275466522662756","0.0284313403385347","400","10%"
"t = 0.401179607497671","0.313428867661187","0.205775843820571","-0.00495536420053341","-0.00379607867763488","0.00415606876413028","0.00509851379988887","0.311220730783323","0.204549091157572","-0.00393985067699151","-0.00575654975855802","0.00408716235144252","0.00261045278033314","-0.000289645719175663","0.00473844438185258","0.000290403671970199","0.00118396239913614","0.0292241114372773","0.0300901195388627","400","10%"
"t = 0.411438096660205","0.313668979314089","0.202165883022723","-0.00506959837559174","-0.00400604069248394","0.00449950623972523","0.00534732921451912","0.311853569632377","0.201270627151786","-0.00421132225822901","-0.00586329656831391","0.00442392403622887","0.00308340528894039","-0.0010760693876014","0.00414922316715128","0.000203319681728574","0.00107736020430396","0.030622495750346","0.0314658185247443","400","10%"
"t = 0.421696585822739","0.313491275827843","0.198066662683103","-0.00533240959774074","-0.0043724455649568","0.00429786332803072","0.00505974973937734","0.312027134288107","0.197449802426277","-0.00461160420523295","-0.00613896635842365","0.00422097766240708","0.00298206060104948","-0.00166437456262134","0.003739499252059","0.000290524773277237","0.00114311784695029","0.0319352420075334","0.0327582555400469","400","10%"
"t = 0.431955074985274","0.312715533853664","0.193428452183903","-0.00543096211015103","-0.00458163559049626","0.00432334463410769","0.00499790522044079","0.311558091459718","0.1930386164171","-0.00486878558460117","-0.00626389631468649","0.00421471626605698","0.00309612264435833","-0.00233350382199616","0.00325277325532916","0.000311312027473547","0.00113525347247425","0.0330852864056824","0.0338791905768154","400","10%"
"t = 0.442213564147808","0.311468073196282","0.188327522472565","-0.00446060960110489","-0.00368742451539555","0.00543188930511429","0.0060552387177763","0.310585276057193","0.188123144371715","-0.00404762090083499","-0.00524279731545589","0.00529706623733182","0.00435468184802595","-0.00293611115911537","0.00285639895190971","0.000435320867168704","0.00121716897352638","0.0343800334418648","0.0351316015961465","400","10%"
"t = 0.452472053310342","0.309718379824102","0.182755336794957","-0.00350001398466645","-0.00279750505499728","0.00646371251824404","0.00700366720167024","0.309084198655933","0.182699738612528","-0.00320995646623989","-0.00421786818699441","0.00631603054453349","0.0055135259641116","-0.00352780033888081","0.00246545953663422","0.000493757892723872","0.00123166406493698","0.0356521083178637","0.036356323901046","400","10%"
"t = 0.462730542472877","0.307468519351872","0.176681802201012","-0.00394421429311436","-0.00330603012878125","0.00573213435330311","0.00621529234399889","0.307060818383178","0.176740979319632","-0.00375329610664271","-0.00462610293869268","0.00556506465553591","0.0048671678149336","-0.00406349080710658","0.00208922280855727","0.000581001807140383","0.00128420874090495","0.0369258186701061","0.037597872354549","400","10%"
"t = 0.472989031635411","0.304781675962325","0.170135637269737","-0.00287304484082711","-0.00230025439312656","0.00645087173564966","0.00687698536951126","0.304583372089724","0.170282215801326","-0.00276590999176728","-0.00350014520463816","0.00627298556343866","0.00568587046560969","-0.00434392414156381","0.00198581146820891","0.000889277468932248","0.00154657839054023","0.0382494595925347","0.0388774722528966","400","10%"
"t = 0.483247520797945","0.301575677076648","0.16317128366541","-0.0023697159016289","-0.00182159200490369","0.00685818754243284","0.00726090481501837","0.301575247729215","0.163383691915579","-0.0023285888622366","-0.00290315315039379","0.00667858226847669","0.00622670709460521","-0.00476141759306445","0.00174109386036903","0.00100791478159898","0.00161764138857323","0.0392920970443339","0.0398708763521656","400","10%"
"t = 0.493506009960479","0.297797517418066","0.155743499956936","-0.00193096709346703","-0.00144610205456859","0.00718274489187033","0.00752973012587825","0.297984582572529","0.156003009172695","-0.00195260646331758","-0.00242012927009112","0.00699267690738125","0.0066177819182007","-0.005297490378113","0.00136241176289885","0.000975267990891798","0.00154063790677462","0.0401242360747996","0.0406622366620408","400","10%"
"t = 0.503764499123014","0.293575831301025","0.147912295688663","-0.00209942736164015","-0.00166050615579262","0.0068059055677828","0.00710638249372084","0.293947439205311","0.148205112147393","-0.00217128272561099","-0.00253398780844195","0.00661354358379632","0.00631698572496482","-0.00578979583033578","0.0010185305349071","0.000928348434992113","0.00145153261933489","0.041019666276383","0.0415145778919229","400","10%"
"t = 0.514022988285548","0.288849172955334","0.139658760122464","-0.00333111805760487","-0.00292951716235063","0.00542667186561281","0.00570102730537789","0.289400094305524","0.139973621094358","-0.00343582586971103","-0.00371920489595099","0.00523111268380485","0.00499979978691421","-0.0062928607140497","0.000652081245460026","0.000810427580052625","0.0012993949109889","0.0417934572528751","0.0422547789447012","400","10%"
"t = 0.524281477448082","0.283746983770069","0.131028019809628","-0.00335613859164601","-0.0030182724849319","0.00462307046909934","0.00485247175213183","0.28448192628746","0.131356747154942","-0.00348096220375898","-0.00371098715369321","0.00443270175030233","0.0042497359092431","-0.00656416177409784","0.000536467608195902","0.000967009231910981","0.00141506962180738","0.0426331059174827","0.043059040136983","400","10%"
"t = 0.534539966610617","0.278243826811529","0.122062531367888","-0.00377140233913765","-0.0034785821056962","0.00389758871220519","0.0041000770257083","0.279170741391626","0.122402146343685","-0.00391121570052945","-0.00409296022516808","0.0037128501118119","0.00357572312561717","-0.00676575349450789","0.000455129538992423","0.001078262330219","0.00149156532397666","0.0434425218240014","0.0438363585407934","400","10%"
"t = 0.544798455773151","0.272324816442831","0.112764195992322","-0.00293324831588104","-0.00268923633229403","0.00417955960643563","0.00434283910960124","0.273450247140241","0.113112020055465","-0.00307377827589169","-0.00321019959248479","0.00401311381342222","0.00390994750937279","-0.00693416121489129","0.000442682352796733","0.0011868458410248","0.00156102298858191","0.044228368152983","0.0445876680334062","400","10%"
"t = 0.555056944935685","0.265958150190255","0.103145559085439","-0.00292712875075","-0.00272731085408128","0.00374426259427577","0.00388197309324183","0.267287855011274","0.10350151642094","-0.00306156087548753","-0.00316351963258931","0.00359701883655362","0.00352644758863021","-0.00721470931298479","0.000295342052336341","0.00119771806189938","0.00154442338351165","0.0448732295321426","0.0452079324785428","400","10%"
"t = 0.56531543409822","0.259201914380338","0.093239366048673","-0.00216349956142155","-0.00200468894976669","0.0040220646817858","0.00414052646157918","0.260743487363307","0.0936037148793361","-0.00228294284376423","-0.0023535525303928","0.00390137625018555","0.00386401981598725","-0.00751518158289649","9.35136642914147e-05","0.00109951753110864","0.00142054433137137","0.0453005722575307","0.0456119537089388","400","10%"
"t = 0.575573923260754","0.252106380152299","0.0830637159485482","-0.00299927296645617","-0.00284811388981926","0.00261516014198388","0.00272412370386117","0.253866012194219","0.0834369950617824","-0.00310481290497469","-0.00312457895116761","0.00251961591887808","0.00251429181997566","-0.00765623168433512","1.96630702814385e-05","0.00115519611987378","0.00146135859215399","0.0458726788215478","0.0461720477008134","400","10%"
"t = 0.585832412423288","0.244713947586754","0.0726581163230253","-0.00377232564032634","-0.00363475091408477","0.00110195938996415","0.0012050359918384","0.246705465128803","0.0730417007945231","-0.00385213187658353","-0.00384024673173339","0.00103760435729629","0.00106028301885646","-0.00768577149550212","4.36648391165051e-05","0.00122343563502853","0.00151642556709377","0.0462910029516087","0.046576440828574","400","10%"
"t = 0.596090901585822","0.237024158071121","0.0620332124200871","-0.00348864829486671","-0.0033777459622127","0.000610160374559984","0.000700875088979534","0.239253017293979","0.0624274229660162","-0.00353756438811226","-0.00350520381748514","0.000579433314355495","0.000622183983732839","-0.0075411328680183","0.000257600259802973","0.00154243938498505","0.00182262101100543","0.0469185309619586","0.0471916987437518","400","10%"
"t = 0.606349390748357","0.22899977459683","0.0512237792809178","-0.00398515422486277","-0.00390378430504277","-0.000614352579977676","-0.000547122186908668","0.231470167533882","0.0516286317474524","-0.00399968579564904","-0.00395636503241788","-0.000602847193621754","-0.000552957022436386","-0.00759311448498469","0.000264464903446734","0.00156910085171865","0.00184613266630707","0.0473540133033673","0.0476261578267741","400","10%"
"t = 0.616607879910891","0.220669451268295","0.0402486485272274","-0.00380875826608284","-0.0037483100716208","-0.00175001434664453","-0.00168668439633628","0.223385512006578","0.0406619766477326","-0.00377339534244845","-0.00370494945058737","-0.00168740448544724","-0.00161119029775124","-0.00767447510120604","0.000228744513334451","0.00153315349652144","0.00181335233516279","0.0475975789820454","0.0478732847270203","400","10%"
"t = 0.626866369073425","0.212068828820727","0.0291453737375495","-0.00461009659690769","-0.00456531509311854","-0.00353138410022272","-0.00349010560311066","0.215030127807672","0.0295644750325239","-0.00452645289702898","-0.00443519502711946","-0.00342031393086792","-0.0033436902362221","-0.00790386940735328","3.59546120319193e-05","0.00134550906285868","0.00164213658538875","0.0476614211586311","0.0479528260776183","400","10%"
"t = 0.63712485823596","0.203317291722686","0.0179358054378002","-0.00424504299274211","-0.00423063694813913","-0.00441083489164603","-0.00439759660417941","0.206524893524143","0.0183547642384533","-0.00410395043581816","-0.00401020604434099","-0.00424923804484506","-0.00418653946234638","-0.00769458980158726","0.000219313906667353","0.00151976247932247","0.00183605192664344","0.0480269222372715","0.0483416072297413","400","10%"
"t = 0.647383347398494","0.194330877347934","0.00665229624492541","-0.00437676195797785","-0.00441104979048325","-0.0054269573315143","-0.0054549695800122","0.197778979520553","0.00706413045099537","-0.00417757395719014","-0.00410248772781981","-0.00521090179943906","-0.00517421989715613","-0.00759181354854654","0.000331006438510817","0.00163924809163025","0.00198912807079791","0.0483032556388988","0.0486491345144631","400","10%"
"t = 0.657641836561028","0.185093940945962","-0.00467995531000413","-0.00422490661507908","-0.00428778470587791","-0.0069569928167422","-0.00699640855263281","0.188761656084725","-0.004285855837564","-0.00396274521447426","-0.0038858968181322","-0.00668832851631553","-0.00665270285761251","-0.0077529190522826","0.000146792615216528","0.00140984523372668","0.00180572655211571","0.0482313371942705","0.0486170226374182","400","10%"
"t = 0.667900325723563","0.17575675539585","-0.0160291026367001","-0.00383605465649813","-0.00393713588466628","-0.00780225924432095","-0.0078680421213296","0.179639723813089","-0.0156653160925079","-0.00350275112751077","-0.00343440288542481","-0.00747684919233835","-0.00746186799238205","-0.00772105658737341","0.000145754830402419","0.00145565936328365","0.00191433283375766","0.0484227600466625","0.0488632151969599","400","10%"
"t = 0.678158814886097","0.166352496482888","-0.0273813925323962","-0.00326061370504612","-0.00336705148812894","-0.00854973882040099","-0.00861485708500243","0.170442804317226","-0.0270645361682805","-0.00284490470622896","-0.00275587674918321","-0.00816382011883766","-0.00814926233288529","-0.00747877260746657","0.000315433409171143","0.00152376960752307","0.00205992947315906","0.0484283383205153","0.0489383021965692","400","10%"
"t = 0.688417304048631","0.156824041627634","-0.0386941869897836","-0.00268665580569343","-0.00277527054432846","-0.00930079565873445","-0.00933215271854263","0.16109711973396","-0.0384424976996545","-0.00219557447154207","-0.0020632912717524","-0.008857769277349","-0.00881229188985327","-0.00705845414985993","0.000667333416396007","0.00187606739097017","0.00249809135442461","0.0486962616651443","0.0492820093550013","400","10%"
"t = 0.698675793211165","0.1471688184248","-0.0499445713558135","-0.00292669994608453","-0.00305152244295492","-0.0107950513942822","-0.0108367590779393","0.151593657908073","-0.0497792909453183","-0.00235014226983337","-0.00223681947871833","-0.0102992994337506","-0.0102784109423371","-0.00709842939084466","0.000553175573701357","0.00176658889396833","0.00248759723550872","0.0485650258706796","0.0492383036824099","400","10%"
"t = 0.7089342823737","0.137490715885062","-0.0610963729086134","-0.00282084989356946","-0.00293582010807863","-0.0122075995605979","-0.0122335413841318","0.142044568589947","-0.0610419691325747","-0.00216967278182172","-0.00203821062923069","-0.0116711089200271","-0.0116588090586086","-0.00707829525062298","0.000450025143013172","0.00156085905836175","0.00238809163532604","0.0483533771773886","0.0491195278427326","400","10%"
"t = 0.719192771536234","0.127775783999549","-0.0721348213190243","-0.00253942100144608","-0.00266359780802615","-0.01345495862424","-0.0134736962336711","0.132426250911536","-0.0722189563253711","-0.00179981725052495","-0.00167328424090813","-0.0128707366757216","-0.0128855946514701","-0.00704315943392433","0.000371402336002853","0.00149579994925424","0.00245145290256368","0.0481493742345056","0.049026902207913","400","10%"
"t = 0.729451260698768","0.118041101330595","-0.0830426151642676","-0.00264615356696541","-0.00279834652800628","-0.0150277832037774","-0.0150564546187705","0.122751468481773","-0.083295537119368","-0.00182814567000687","-0.00174664052360665","-0.0144177333035279","-0.0144977376508902","-0.00699626356778936","0.000271892575552526","0.0013680951985002","0.00245650658542296","0.0479264746218116","0.0489176156826697","400","10%"
"t = 0.739709749861303","0.108342159221425","-0.0937733122662423","-0.00297584830423649","-0.00314371895384885","-0.0167941616272269","-0.0168274063083063","0.113072564571595","-0.094227417239998","-0.00209200736209563","-0.00206426395987108","-0.0161861025545594","-0.0163440218194868","-0.0068712797976139","0.000225828720047769","0.00130737742322019","0.0025358250098134","0.0476663757988697","0.0487731999677164","400","10%"
"t = 0.749968239023837","0.0986941568583914","-0.104317403229966","-0.00155450617039152","-0.00171177487400802","-0.0171466869395227","-0.0171521842008363","0.103402047907546","-0.105006956327034","-0.000558284875309114","-0.000568896268065973","-0.0165033235500818","-0.016730982872122","-0.00671523369424211","0.000232346517148231","0.00135700327534917","0.00276412553035731","0.0474760835742646","0.0487347963696093","400","10%"
"t = 0.760226728186371","0.0891087737362711","-0.114658549765191","-0.00229572603898859","-0.00240299547780355","-0.019145123371483","-0.01909527225897","0.0937552078164148","-0.115620258713993","-0.00120782215650822","-0.00124007372670487","-0.0184821752138077","-0.0187737021910422","-0.00677223023651818","1.2421330922443e-06","0.00115334596201728","0.00273080049032999","0.0469986973336975","0.0484062644694698","400","10%"
"t = 0.770485217348906","0.0796142071242017","-0.12477091471297","-0.0033643153669792","-0.0034930085031016","-0.0216998830441965","-0.0216501483276739","0.0841498424348901","-0.12604276066054","-0.00221728599208729","-0.00237975652648836","-0.0210712962366266","-0.0215090063326212","-0.00658254199111516","-2.9667439323944e-05","0.001168914407216","0.00291833101158607","0.0467490383301154","0.0483011105140223","400","10%"
"t = 0.78074370651144","0.0702229463104211","-0.134637859303148","-0.0043324260739048","-0.00439619422103528","-0.0239445538493672","-0.0238194097349753","0.0745999252689702","-0.136260251980401","-0.0031352229999385","-0.00337074456988134","-0.0233612026148318","-0.0239054957697494","-0.00637947793460714","-5.27771230962282e-05","0.00121364269370909","0.00314727049255479","0.0464229856020758","0.0481311509846397","400","10%"
"t = 0.791002195673974","0.0609646238187286","-0.144213175928723","-0.00483415840654732","-0.00486413333798298","-0.0260630051969469","-0.0258882148447757","0.0651341409330683","-0.146224640332023","-0.00359479787693494","-0.00396127785511477","-0.0255488864868102","-0.0262507816051494","-0.00613999982360328","-3.87287405129569e-05","0.00133950530126921","0.00346631104688206","0.0461876998380384","0.0480565426600518","400","10%"
"t = 0.801260684836508","0.0518488261645217","-0.153525740780077","-0.00529521432219926","-0.00516820375698858","-0.0280142895965552","-0.0276812504902808","0.0557520638618731","-0.155967741045221","-0.0040129822138168","-0.00442874357108167","-0.0275989545990461","-0.0283883512995229","-0.00634737680266642","-0.000483638249889916","0.000961035099613679","0.00330099662628733","0.0454709802821112","0.04751274559799","400","10%"
"t = 0.811519173999043","0.0429076399859469","-0.16257057274795","-0.00564509210015347","-0.0054258001963426","-0.0297645313129694","-0.0293334375685301","0.046495649700972","-0.165484332903746","-0.00429946426145546","-0.00488348726943074","-0.0294344623325535","-0.0304199013673604","-0.00647275108056267","-0.000872052993891631","0.000713250163759121","0.00327732472106331","0.0448119708029635","0.0470381126990432","400","10%"
"t = 0.821777663161577","0.0341344327941818","-0.171273342885525","-0.0059549498513675","-0.00558196015611735","-0.0317353211473095","-0.0311733700700606","0.0373581507891335","-0.174696654821963","-0.00458341760310885","-0.00533637429036217","-0.0315425213724212","-0.0327463383645707","-0.00631110576504542","-0.000945499610778498","0.000818085365742176","0.00361014211950623","0.0444376023441216","0.0468446405065791","400","10%"
"t = 0.832036152324111","0.0255570858900491","-0.179648928739209","-0.00526475414943522","-0.00479391726435427","-0.0325174754969713","-0.0318361798852395","0.0283651912390427","-0.183619115989013","-0.00384144790339479","-0.00488417009225856","-0.0324650554637695","-0.0339435779432665","-0.00617527562082054","-0.00110307835018242","0.000793350353181378","0.00383138162153354","0.0439444948395149","0.0465507057035572","400","10%"
"t = 0.842294641486646","0.0171759975629558","-0.187704205716133","-0.00553898746720571","-0.00484133648433288","-0.0341438143151424","-0.0332465672523142","0.0195180650853621","-0.19225875096288","-0.00408368454773615","-0.00533450643546946","-0.0342407547825247","-0.0359584197513533","-0.00608236922559084","-0.00132067863075325","0.000786537269952776","0.00407571882740452","0.0434200143387213","0.0462308200092841","400","10%"
"t = 0.85255313064918","0.00901379704334271","-0.1954091978721","-0.00644468854174357","-0.00556182161546527","-0.0364257748295291","-0.0353563702109812","0.0108435304228738","-0.20058122285296","-0.00500001900883663","-0.00657282583867492","-0.0367414034259085","-0.0387914700135134","-0.00603464913166111","-0.00155490716345391","0.000779312602714926","0.00430265980237725","0.0428619494397557","0.0458566359176881","400","10%"
"t = 0.862811619811714","0.0010635456706859","-0.20275037005404","-0.00635046592440729","-0.00515882669841131","-0.0377355979445151","-0.0363822439332353","0.0023369997711538","-0.208569637388688","-0.00484754433931268","-0.00672095994803443","-0.0382278503961768","-0.0405881541006013","-0.00598507828682892","-0.00184230865560959","0.000776139751382131","0.00457426845762549","0.0423400126901744","0.0455533215107493","400","10%"
"t = 0.873070108974249","-0.00661987624221614","-0.209752226152177","-0.00614966861304114","-0.004689420671697","-0.0387708785885573","-0.0371723899209082","-0.00594233228820658","-0.216246897920521","-0.00455748707418059","-0.00685588581801321","-0.0394259026031594","-0.0422308643701798","-0.00608058865288638","-0.00224584490567671","0.000610576842114907","0.00469081512207038","0.0416496709631447","0.0450899623250655","400","10%"
"t = 0.883328598136783","-0.014051929211739","-0.216378500857978","-0.00668774021571398","-0.00493494381910411","-0.0405163001540112","-0.0386337448501187","-0.0140117736528042","-0.22357303507151","-0.00511998433653711","-0.00787234582310531","-0.0414343825086645","-0.044663738802611","-0.00620420302692684","-0.00268575389512595","0.000539453742730702","0.00487598240477845","0.0410182909199157","0.0446616221274944","400","10%"
"t = 0.893587087299317","-0.0213106698801107","-0.222686622471436","-0.00620393045259248","-0.00405609626309745","-0.0415184707769438","-0.039271497229592","-0.0219397009433466","-0.230600878765236","-0.00456841201485282","-0.00782334987882012","-0.0426535023276825","-0.0463713222195678","-0.00595353847347737","-0.00278159931421419","0.000765822601338974","0.0054020854490467","0.0406899968590864","0.0445672597594714","400","10%"
"t = 0.903845576461852","-0.0283021259840211","-0.228571041937477","-0.00636834274151384","-0.00381774516067074","-0.0427661156822744","-0.0401460254474424","-0.0296328682278786","-0.237217992840447","-0.00472864826854672","-0.00856181371489176","-0.0441751120798392","-0.0484277142878975","-0.00581278319129609","-0.00300141418786457","0.000952366225696383","0.00586477517012282","0.0402345210708873","0.0443297413342495","400","10%"
"t = 0.914104065624386","-0.0349912064991245","-0.234095004622754","-0.00678178196122325","-0.00386064893597412","-0.0445104747241114","-0.0415410481142272","-0.037048072179974","-0.243484580501034","-0.00515793028303419","-0.00965217217435933","-0.0462507808896457","-0.0510771549599209","-0.00590982458400729","-0.00344072270519972","0.000847114755875883","0.00601877087804355","0.039577323587126","0.0438654353405896","400","10%"
"t = 0.92436255478692","-0.0414603276005123","-0.239277227316001","-0.00800152855402658","-0.00459386829546076","-0.0468757734210016","-0.0434656345768953","-0.0442633775208324","-0.249412573132773","-0.006465778473204","-0.0116067395347747","-0.0490042306316866","-0.0543883528018406","-0.00574273282861656","-0.00365122428032364","0.00112878239043427","0.00654302604003816","0.0392247975107557","0.0436925880325909","400","10%"
"t = 0.934621043949454","-0.0476124791803066","-0.244109078795092","-0.0083688779261032","-0.00448953824046431","-0.0483455866051553","-0.0445519587582979","-0.0511728204354581","-0.254989053061326","-0.00692206188369296","-0.0127884491454152","-0.0508627562820593","-0.056917038370465","-0.00584929192097267","-0.00409548981742367","0.00107068333352705","0.00674100567279953","0.0385095275751286","0.0431653436008957","400","10%"
"t = 0.944879533111989","-0.0535519875699608","-0.24860571046107","-0.00858297397368357","-0.00415297146644291","-0.049657680526836","-0.0453986987076214","-0.0578790604059491","-0.260220749738843","-0.00714298149019872","-0.0138568354425422","-0.0525316595940512","-0.0593229868496949","-0.00586513373478197","-0.00449046845771864","0.00111589120673135","0.00705277862072707","0.0378710258928314","0.0427215699508549","400","10%"
"t = 0.955138022274523","-0.059187538309593","-0.252693454313663","-0.00854803616349707","-0.00342785005046093","-0.050836632869519","-0.0460122003670211","-0.0642810992545106","-0.265028461095689","-0.00712038702846064","-0.0146709853364107","-0.054086978828997","-0.0616311561327609","-0.00594582404606348","-0.0049067975902435","0.00124093676703623","0.0074551237398627","0.0373650075119424","0.0424144636530762","400","10%"
"t = 0.965396511437057","-0.0645402923762352","-0.256449097898919","-0.00779891484739785","-0.00226047397432097","-0.0512313346171382","-0.0460412984735984","-0.0703912201530361","-0.269482609006031","-0.00628466857978878","-0.0151175723420533","-0.0547813001878161","-0.0634173238613467","-0.00607126627213034","-0.00540043428046373","0.00137711768070942","0.00785740442112627","0.0368616786713891","0.0421051226988382","400","10%"
"t = 0.975655000599592","-0.0696726532909204","-0.259868705423713","-0.00818980047637684","-0.00209590800938552","-0.0525824512159716","-0.0469160258045116","-0.0762706994969995","-0.273573951744491","-0.00678587660400732","-0.0167323832913558","-0.0565699092872951","-0.0661390613178887","-0.00610561657132062","-0.00580691775517563","0.00145334392696928","0.00816357356551844","0.0362649894298551","0.0416707267326368","400","10%"
"t = 0.985913489762126","-0.0745710257521031","-0.262966200848857","-0.00842776104024394","-0.00168204637766364","-0.0537259016717561","-0.047558658745012","-0.0818904272606382","-0.277307231617867","-0.00710371459861387","-0.0182100230942814","-0.0581507030808957","-0.0686925296702515","-0.00612022918258538","-0.00621353652395994","0.00165351966645105","0.00859119309630076","0.0357057780311948","0.0412632892183952","400","10%"
"t = 0.99617197892466","-0.0791562496755203","-0.265760407008144","-0.00899724492956852","-0.00161828806262709","-0.0551247593656135","-0.0484906780435403","-0.0871728849483511","-0.280696014557625","-0.00788788955224879","-0.0201191611880815","-0.0600739177634646","-0.0715428612711764","-0.00637490587901789","-0.00679747572839647","0.00157637073873107","0.00869881892489692","0.0349569328802135","0.0406285372155767","400","10%"
"t = 1.00643046808719","-0.0834438251674745","-0.26819409500982","-0.00811352584385718","-0.000143872059959694","-0.0552099252080481","-0.0480699928360523","-0.0921199821624637","-0.283674490497619","-0.00694872731512407","-0.0207612101714727","-0.0605078244700072","-0.0732398524313159","-0.00664578263643656","-0.00743085883351723","0.0016196031641434","0.00896555271676637","0.0343569831790095","0.0401817840455766","400","10%"
"t = 1.01668895724973","-0.0875505655824776","-0.270352273069664","-0.00833407284311163","0.000321455007122216","-0.0561382718336627","-0.0484828854558241","-0.0968471157228809","-0.286323313582297","-0.00726656945476829","-0.0224799353085827","-0.0618716802138326","-0.0757640369868842","-0.00679779407826784","-0.00794594345684644","0.00167805474121556","0.00921245240740493","0.0337254327495872","0.0396678393119884","400","10%"
"t = 1.02694744641226","-0.0912668695022832","-0.272141121255795","-0.00922385019250103","0.000169277806402591","-0.0575380328818863","-0.0493121249905847","-0.101123752885804","-0.288538842828826","-0.00835238000102461","-0.024749291528757","-0.0637413279859861","-0.078592876752278","-0.00725104252660887","-0.00871807111283162","0.00148753086778208","0.0091671964100395","0.0328881790230844","0.038917326295686","400","10%"
"t = 1.0372059355748","-0.094789212092165","-0.273645264147238","-0.00912816102910916","0.000957029607737208","-0.0581331193549625","-0.049339601299703","-0.105149584297672","-0.290401285181657","-0.00837422422685776","-0.0262210639966628","-0.0647788685581387","-0.0807496663455418","-0.0076161530753942","-0.00943787334302426","0.00135748908834825","0.00919620575471493","0.0320941661559121","0.0382192485765374","400","10%"
"t = 1.04746442473733","-0.0981486718513249","-0.274885394167319","-0.00858757875784343","0.00222572177263513","-0.058149317929153","-0.0487529746185292","-0.108953363490535","-0.291925368366042","-0.00785976302847452","-0.0275418614164754","-0.0651820947204595","-0.0825646732478792","-0.00786866252918543","-0.010032893155264","0.00147398857251017","0.009469952024613","0.0314379831430774","0.0376649102879105","400","10%"
"t = 1.05772291389987","-0.101313958349936","-0.275909094861225","-0.0088484716533858","0.00292271533351756","-0.0588700108066792","-0.0487576018250242","-0.112500429921145","-0.293154006433183","-0.00833318522746977","-0.0294891828942773","-0.0664028728197252","-0.0849329342365935","-0.0081207058389566","-0.0106172757004765","0.00160514470186922","0.0097317722502447","0.0308794866689858","0.0371721603764923","400","10%"
"t = 1.0679814030624","-0.104194965125803","-0.27666641522558","-0.00792917022852494","0.00471585734517791","-0.0586392233417759","-0.0478276497339252","-0.115679158553648","-0.294030564998003","-0.00739656548517108","-0.0303150313627491","-0.0665016405604479","-0.0863890167483777","-0.00851753179438901","-0.0113553627102043","0.00159177496713122","0.00987269898246036","0.0301841021990536","0.0365660118152832","400","10%"
"t = 1.07823989222493","-0.106937113799376","-0.277230794170634","-0.00747918853304682","0.006137330027668","-0.0587991867208936","-0.0472242981710165","-0.118644816029863","-0.294624933277633","-0.0069956051370859","-0.0317236717253593","-0.0670326120025222","-0.0882529485883343","-0.00879449894615471","-0.0119546992054114","0.00173880299218093","0.0101433476344813","0.0296126728828906","0.0360573914601896","400","10%"
"t = 1.08849838138747","-0.109432718128305","-0.277512429771065","-0.00756768905583126","0.00706737836838376","-0.0591433771075728","-0.0467096139684575","-0.121270758511318","-0.294840316646872","-0.00729324514344997","-0.0335519566413277","-0.0677916150181157","-0.0901633833676457","-0.00913481210129501","-0.0126032227470787","0.00178705054979606","0.0102765994285736","0.029004534814587","0.0355006255440266","400","10%"
"t = 1.09875687055","-0.111738277547079","-0.277597121154085","-0.00719263824512986","0.00830081889051121","-0.0592408284861417","-0.0461162897808526","-0.123615148099077","-0.294759670517533","-0.00700629091047087","-0.0350569285585181","-0.0682331973207265","-0.091902388766468","-0.0094543300731001","-0.0132284129458917","0.00185383806579939","0.0104098429241157","0.0283787600866732","0.0348987537992486","400","10%"
"t = 1.10901535971254","-0.113839769633444","-0.277477535043074","-0.00644457225711302","0.00983180305001861","-0.0587760627591715","-0.0449947803596996","-0.125660081756553","-0.2943715064071","-0.00636299510135806","-0.0364294014160327","-0.0681077232229845","-0.0932880152012332","-0.00984756097009908","-0.0139248636632712","0.00192389363885458","0.0104915832940654","0.0277485950147011","0.0342610040720954","400","10%"
"t = 1.11927384887507","-0.115736860557492","-0.277136523606717","-0.00625870370329513","0.0110046827511972","-0.0590165323127461","-0.0445004575863815","-0.127396719969094","-0.293656428609042","-0.00639160013810179","-0.0381869707986847","-0.0687415000968624","-0.0950999789698417","-0.0102311725984098","-0.0145775620072155","0.0019917524269337","0.010582750237667","0.0270953669271458","0.0335930113813935","400","10%"
"t = 1.12953233803761","-0.117447820747262","-0.276649809787011","-0.00558192510358473","0.0123841080857739","-0.0587641375385253","-0.0437057474311022","-0.128842101266938","-0.292686155022427","-0.00591694922334895","-0.0397733688395823","-0.068866918003093","-0.0966817582152104","-0.01070125268004","-0.015325249492763","0.00206733403237903","0.0106074404383224","0.0264736914528855","0.0329046508506622","400","10%"
"t = 1.13979082720014","-0.118822401830007","-0.275934024312074","-0.00457246986028565","0.0142674803260499","-0.0580749891353486","-0.0423228668906251","-0.129828783784973","-0.291375707970866","-0.00509538120293206","-0.0408273515043686","-0.0685112676290569","-0.097651176627055","-0.0114200393788537","-0.0162699219918057","0.00186193337665512","0.0103701478392942","0.0256467162991925","0.0320294245649337","400","10%"
"t = 1.15004931636267","-0.120355227766624","-0.275126062061734","-0.0042031072904976","0.0155161642259665","-0.0580190539786334","-0.0415650056208952","-0.130892824176953","-0.289861508899459","-0.00518484089280119","-0.0427155056226944","-0.0689729407025799","-0.0993579193833212","-0.0116637665424103","-0.0168205382954712","0.00215333725885114","0.0105761511768477","0.0252635855838928","0.0315572267263326","400","10%"
"t = 1.16030780552521","-0.12156225170284","-0.274150918151894","-0.00431688123957742","0.0161223593709945","-0.05828049151121","-0.0413146150704385","-0.131504821820097","-0.288066496585633","-0.00561442624075065","-0.0445041546562951","-0.0695365163133258","-0.100843641163596","-0.012165177252553","-0.0175277556393573","0.00196647975570027","0.0102764407137961","0.0244373867936242","0.0306171098296871","400","10%"
"t = 1.17056629468774","-0.122589887224824","-0.27299657041002","-0.00346093150301759","0.0177491105127447","-0.0578257996578153","-0.0402805168214146","-0.131817975019033","-0.285978204776737","-0.00497294224331982","-0.0456449869259816","-0.0693616781700112","-0.101836945213665","-0.0126812191065895","-0.0183214835244348","0.00195050571913801","0.0101430353141091","0.0237914737549602","0.0298546068573282","400","10%"
"t = 1.18082478385028","-0.123633434014235","-0.271783517162401","-0.00289715858827166","0.0193922101360065","-0.05746195115492","-0.0391140617609451","-0.132053087856119","-0.283717786558997","-0.00502494422557447","-0.0471559108677989","-0.069550865646403","-0.102961641823312","-0.0130586877110146","-0.018925861245922","0.00210293659420813","0.0101652621981215","0.023264131057075","0.0292014830773089","400","10%"
"t = 1.19108327301281","-0.124476385529751","-0.270437451194884","-0.00295057444876817","0.0199896699615773","-0.0576077741808953","-0.0387459433923862","-0.131964106416747","-0.281211148949275","-0.00550150423300025","-0.0489321646250144","-0.0700276660390471","-0.104225715782921","-0.0134800180580418","-0.0195499709497573","0.00220061083758295","0.0100757401487726","0.0226990997916742","0.0284768772268333","400","10%"
"t = 1.20134176217535","-0.125105153169087","-0.268945738478683","-0.00220095114616187","0.0214376610318417","-0.0572034402103045","-0.0378035350397081","-0.131539648430649","-0.278446584819816","-0.00513532006142405","-0.049876271414179","-0.0698648008714053","-0.104846123874708","-0.0140215290136057","-0.0202821710801026","0.00206695650482161","0.0097882730204997","0.0219810517128795","0.0276296619302208","400","10%"
"t = 1.21160025133788","-0.125634154349317","-0.267371122512913","-0.00168350145748799","0.0223536826837429","-0.0571063413088049","-0.03748008957598","-0.130908142875755","-0.2754891265907","-0.00500166465770656","-0.05093661991359","-0.0699665911622883","-0.105627226282987","-0.0145587851299795","-0.0210168116781025","0.00196570052054979","0.00945906214528216","0.0212995058848718","0.0267479354846139","400","10%"
"t = 1.22185874050041","-0.126220113775525","-0.265769463955616","-0.00106398499006669","0.0238308670415196","-0.0568063052080571","-0.0366127955037363","-0.130246025640115","-0.272396598303694","-0.00492128854669966","-0.0520788019206825","-0.0698877340248431","-0.106236440248942","-0.0149617512100834","-0.0216107931515275","0.00196333866040246","0.00928090520332064","0.0206654183684577","0.0259610852232947","400","10%"
"t = 1.23211722966295","-0.126812646913352","-0.264109421475843","-0.00136257450537684","0.0242019771343223","-0.0572379082151636","-0.0365417295542236","-0.129484480077326","-0.269140320672221","-0.00578593660707172","-0.0536850954153901","-0.0704716737545115","-0.107145981462747","-0.0152117639436643","-0.0220438041354433","0.0021164195962949","0.00921989116445158","0.0201857040809935","0.0253184295335702","400","10%"
"t = 1.24237571882548","-0.127237398319783","-0.262369597033378","-0.000906848048718409","0.0252703509296881","-0.0570175762690264","-0.0359041995081976","-0.128451927731934","-0.265701841916464","-0.00603098612308035","-0.0549379601231337","-0.0705963667752715","-0.107767511917288","-0.0155473143768887","-0.0225573029195023","0.00224565795868138","0.00907474306965894","0.0196995554089783","0.0246121430030453","400","10%"
"t = 1.25263420798802","-0.127634013797501","-0.260595017362172","-5.68893566559717e-05","0.02660212334723","-0.0564745090223239","-0.0350175764384266","-0.127298472254752","-0.262129824640011","-0.00603012414736787","-0.0558549772961632","-0.0704484927308587","-0.10811254112238","-0.0158095316312409","-0.0230062623839265","0.00243947257351357","0.00896775260283128","0.0192620945620422","0.0239378111834797","400","10%"
