"","ame.cox","ame.po","ame.kmdr.clog","ame.kmdr.logit","ame.dr.ig.clog","ame.mdr.ig.logit","me.cox.x = 0.5","me.po.x = 0.5","me.kmdr.clog.x = 0.5","me.kmdr.logit.x = 0.5","me.dr.ig.clog.x = 0.5","me.dr.ig.logit.x = 0.5","cdf.cox.x = 0.5","cdf.po.x = 0.5","cdf.kmdr.clog.x = 0.5","cdf.kmdr.logit.x = 0.5","cdf.dr.ig.clog.x = 0.5","cdf.dr.ig.logit.x = 0.5","n","cens.level"
"t = 0.648920970271713","0.0393512873451389","-0.000623675116679029","0.000581092503522392","0.000864773026843699","0.00322071843365943","0.00346871727654039","0.0380826325736224","-0.000499440936062932","0.00168674443900572","0.00124345335631225","0.00328914085806791","0.00294477360563177","0.0022754818280377","0.000240410651550741","-0.000324271101683202","-0.000145815685487826","0.0192206004831177","0.0194002913941792","1600","10%"
"t = 0.662355355152468","0.0417077388686108","-0.000646984990316992","0.000236873511575313","0.000560758637322803","0.00312280369478982","0.00340314470020883","0.0404796706862143","-0.000527461276020084","0.001430560854467","0.000930549406149033","0.00321878726790522","0.00283398400678574","0.00239921331289623","0.00026853457229219","-0.000332618219492084","-0.000126603760605934","0.0208031851962642","0.021010138304043","1600","10%"
"t = 0.675789740033223","0.0441404418520305","-0.00056345344979121","0.00027598677962382","0.000636247373349163","0.0034897358425998","0.00380245802086564","0.0429699420176089","-0.000448593512831151","0.00153406532781788","0.000977965667235729","0.00361002977869922","0.00318888397952088","0.00237064640703015","0.000150450624043102","-0.00047044847125673","-0.000235988252279406","0.0221910063508803","0.0224257897693728","1600","10%"
"t = 0.689224124913979","0.0465231473428381","-0.000566599636621039","0.000537972496536237","0.000926668036653683","0.00413106274905271","0.0044687446223524","0.04542795107995","-0.000458105573487628","0.00182890565820087","0.00121453824714592","0.00426594364074334","0.00380700231803127","0.00245050851408128","0.000150980792889727","-0.000473438473339819","-0.000209144899971526","0.0236825566796225","0.0239459797800497","1600","10%"
"t = 0.702658509794734","0.0488956625438789","-0.000567277811599947","0.000447682735490185","0.000867184730528432","0.00436879044216559","0.00473376187124592","0.0478939547196865","-0.000466604912580203","0.0018220366342732","0.00113219507398035","0.0045635981846998","0.00405036837825215","0.0025076587617308","0.000124326906214846","-0.000521500205039095","-0.0002225930968334","0.0250780729654786","0.0253754418389041","1600","10%"
"t = 0.716092894675489","0.0512279443421857","-0.000595086535003099","0.000352699678461565","0.000812344786271924","0.0047798229729022","0.00517757864531809","0.0503379241137807","-0.000505291790607357","0.00179815147191499","0.00104066252071705","0.00502798534536155","0.00446912324274312","0.00260356670570425","0.0001498621307278","-0.000529325387604282","-0.000192814410796724","0.0264969030244173","0.0268301389170327","1600","10%"
"t = 0.729527279556244","0.0534946161915011","-0.000664296115751455","3.53197904769545e-05","0.000545308181593144","0.00504191661033043","0.00547955486282669","0.0527348510176448","-0.000587884324694606","0.00157362568443364","0.000746598594015223","0.00535710633481846","0.0047547985994742","0.00274610526621249","0.00022584428062858","-0.000498258787589618","-0.000119435042072712","0.0279457346726498","0.0283185166442758","1600","10%"
"t = 0.742961664436999","0.0557880130706815","-0.000621634762105602","6.42505870583733e-05","0.000611220243894778","0.0056798001356599","0.00615056373559094","0.0551763700888089","-0.00055764242741899","0.00168103153633603","0.000776883020391208","0.00606974675643797","0.00541986774165836","0.00272153347212109","0.000146784023823384","-0.000613754551385967","-0.000191735912553073","0.0291323079266553","0.0295455109735219","1600","10%"
"t = 0.756396049317755","0.0580089580691023","-0.00059341086601714","0.000451648506318548","0.00103424864305485","0.00635146913779222","0.00684914640875183","0.0575631139643962","-0.000543989256801714","0.00213763443897895","0.00116067410833958","0.00682460348783971","0.00612132377131875","0.00269536438101819","8.60753394362125e-05","-0.000701053425115424","-0.00023445298349355","0.0302715047269527","0.0307277176722574","1600","10%"
"t = 0.76983043419851","0.0601274946185267","-0.000612490186312463","0.00061215033192548","0.00123447155329887","0.00708636286662049","0.00761797971933627","0.059864168090816","-0.000579540941698965","0.00237031716693675","0.00132006374901706","0.00764680391207031","0.00689823116194855","0.00275768149672724","0.000113822920107083","-0.000694469599115874","-0.000179202260450239","0.0315260633670175","0.0320276643249459","1600","10%"
"t = 0.783264819079265","0.062124020050583","-0.000675633481647666","0.00053499061065345","0.00120263028092166","0.00757557419923871","0.0081462080282422","0.0620587598872679","-0.000662087961650919","0.00238336110977343","0.00125261741779818","0.00824066332164849","0.00744290895483043","0.00289309888668511","0.000221446792148589","-0.000619173715511615","-4.99525773518307e-05","0.0327539201018054","0.0333057642546404","1600","10%"
"t = 0.79669920396002","0.0640246661517851","-0.000738214566079864","0.000326777879272414","0.00103153453392097","0.0078842887141319","0.00847943498009679","0.0641714138631711","-0.000746147810483099","0.00227392232339346","0.0010489527104914","0.00866822672854733","0.00779819741064271","0.00300913415361709","0.000327494012907988","-0.000573796548272002","5.3138115915704e-05","0.0338760802886397","0.0344824161441156","1600","10%"
"t = 0.810133588840775","0.0658164317281359","-0.000799369863997176","-0.00011068123995056","0.000645791673671316","0.00796857591050817","0.00860614707482983","0.0661874335224244","-0.000832797807860793","0.00194913650468243","0.00063077483334447","0.00888275708108923","0.00795282061035305","0.00309051153298072","0.000412646651791721","-0.000570823681718853","0.000119839521464133","0.0348990077500757","0.0355647395289688","1600","10%"
"t = 0.823567973721531","0.0675090660809823","-0.000820508132565978","-0.000597957020010355","0.000201907895862732","0.00789554013076855","0.00856436280837134","0.068114926154889","-0.00087749994335378","0.00155915682559549","0.000144417172767576","0.00893469244592424","0.00793738159906179","0.00312065501032524","0.000455401763150969","-0.000600792087376106","0.000156593310666232","0.035830170201728","0.0365585661755864","1600","10%"
"t = 0.837002358602286","0.0690761724297012","-0.000830531226215831","-0.000793824702401428","4.28339885816074e-05","0.00808849283407094","0.00878889757336862","0.0699250847297069","-0.000911529397744878","0.00143790417649171","-5.54739742182079e-05","0.00924983808699855","0.00819811838285409","0.00313799234337243","0.000500058868125292","-0.000621310948822473","0.000202097955229304","0.0366771290384708","0.0374682936238157","1600","10%"
"t = 0.850436743483041","0.0704753398470798","-0.000889308141595398","-0.00113005155152103","-0.000264287519180592","0.00843911300801077","0.00915603289284964","0.0715731535111918","-0.000997782303453331","0.00117237153528049","-0.000405197363817896","0.00972164947214494","0.00860779631033404","0.00323408497020769","0.000638872453613404","-0.000543604430821866","0.000349611905226754","0.0375763087833827","0.0384313508127224","1600","10%"
"t = 0.863871128363796","0.0717450107452427","-0.000930552511533274","-0.00191951489893304","-0.0010252717988494","0.00824855708988723","0.00898497977834355","0.0730954200945608","-0.00106621143256379","0.000465000267107217","-0.00121510165081778","0.00965433613945408","0.00847131601397842","0.0032956228526862","0.000751376832137111","-0.000530273224713471","0.000439843744240254","0.0384355245758549","0.039361824998119","1600","10%"
"t = 0.877305513244552","0.0728766854551909","-0.000942740217655341","-0.00220620206655999","-0.00128566825117269","0.00855576716745265","0.00931744294753436","0.0744807015656423","-0.00110342252243478","0.00024154404716184","-0.00151329125542003","0.0100792530145449","0.0088588861960489","0.00328714200685523","0.000806694462690301","-0.000555698942171681","0.000488610990850431","0.0391460581820022","0.0401401251251359","1600","10%"
"t = 0.890739898125307","0.0738803520227003","-0.000908622948739832","-0.00272539528163754","-0.00177181944720756","0.00863230403765422","0.00941825114304739","0.0757359898938825","-0.00109318452975973","-0.000222226103745878","-0.00205941800493662","0.0102637394722821","0.00899613644288045","0.00315381717289074","0.000751553728176304","-0.000707701726986485","0.000417250064123173","0.0397011632807932","0.0407686860157063","1600","10%"
"t = 0.904174283006062","0.074731663267704","-0.000858157445190788","-0.00294611208899814","-0.00197619514273987","0.00906928946319878","0.00985880007047285","0.0768347783288466","-0.00106574965818545","-0.000402276096656087","-0.00230596147709048","0.0108064036095019","0.00949553862497333","0.00297299979370093","0.000653406089566106","-0.00087275328217313","0.000329901776750085","0.0401915367545001","0.0413286953697862","1600","10%"
"t = 0.917608667886817","0.0754092719701936","-0.00081745392577723","-0.00341426415380858","-0.00243835198863117","0.00932559288079237","0.0101140929182934","0.0777524509125102","-0.00104823186079712","-0.000837897003149912","-0.00282740385403784","0.0111584008004903","0.00979696828057614","0.0027888063633263","0.000571409740592351","-0.00105994439620135","0.000225855309955493","0.0405892687310479","0.0418002580186091","1600","10%"
"t = 0.931043052767572","0.075895557949246","-0.000803328978567487","-0.00322243707713894","-0.0022441530464913","0.0101761503610938","0.0109601444304483","0.0784690211237983","-0.0010587743269612","-0.000629020870615634","-0.00266363642558158","0.0121005372254052","0.0107181645264243","0.00268887162048897","0.000571112364235887","-0.0011181521270887","0.00024326715823638","0.0410687052410112","0.0423465380879039","1600","10%"
"t = 0.944477437648327","0.0762082554649162","-0.000790758525289442","-0.00362492912359342","-0.00264266484977282","0.010417803439218","0.0112076220646655","0.0789995665903863","-0.00106888802516932","-0.00103260970293588","-0.00312417839488424","0.0124161547365962","0.0110153448357129","0.00257562591961658","0.000577799483664027","-0.00119870907606486","0.000246841649363742","0.041458321899714","0.0428106214850589","1600","10%"
"t = 0.957911822529083","0.0763193990251222","-0.000811843522158718","-0.00305763888326598","-0.00206587623131733","0.0115512295195489","0.0123510155998982","0.0793139202959548","-0.0011137230179507","-0.000470413092191934","-0.00255665153871641","0.013626498364248","0.0122483320565007","0.00257186012748557","0.00070562278455936","-0.00111749289848899","0.000399749733144339","0.041931774826608","0.0433470746476887","1600","10%"
"t = 0.971346207409838","0.0763090714060935","-0.000777238095623832","-0.00303758963266371","-0.00205008366237786","0.0121920271320682","0.0129826547258119","0.0794908173105202","-0.00109782904403908","-0.000463691315951596","-0.00256899063040948","0.0143324237976685","0.0129573922218643","0.00239187138270625","0.000656368920276003","-0.00125302009440953","0.000341887490830099","0.0421701980606994","0.0436525570317128","1600","10%"
"t = 0.984780592290593","0.0760932118415122","-0.000776488353982181","-0.00264260381687445","-0.00168983942558577","0.0132275699081916","0.0139809374988415","0.0794429749864188","-0.00111626770473651","-9.59502719046652e-05","-0.00222898135909085","0.0154206269822316","0.0140351066541869","0.00233497522406309","0.000735506420296083","-0.00122286879667324","0.000445682497559981","0.0425415171087195","0.0440873155041109","1600","10%"
"t = 0.998214977171348","0.0757206396491502","-0.000764274922365881","-0.00279356398656991","-0.0018693483780722","0.0135983463827618","0.0143188942212263","0.079217610339327","-0.00112287911410541","-0.00028982524236342","-0.0024441734793322","0.0158263168520706","0.0144349916944094","0.00217530485381942","0.000717790188329994","-0.00131929920904977","0.000427941125920155","0.0427224620762652","0.0443370282507006","1600","10%"
"t = 1.0116493620521","0.0752245659627699","-0.000719940052592364","-0.00254018896757342","-0.0016502537106226","0.0145252412697325","0.0152128426356208","0.0788487423662878","-0.00109154238792693","-8.94512551365177e-05","-0.00224293620559708","0.0167834355024482","0.0154117382964083","0.00191260718762436","0.000598192136634266","-0.00150808330017171","0.00031138133762304","0.042762198889826","0.0444367299093011","1600","10%"
"t = 1.02508374693286","0.0745195518883884","-0.000717825477828941","-0.00294552240270621","-0.00209785981616541","0.0146722755977391","0.0153100552064955","0.0782468134674967","-0.00110343487409045","-0.000569693398345411","-0.00273605600041348","0.0169320763646599","0.0155551766537958","0.00181396443481093","0.00065000100477725","-0.00152798628101316","0.000371364311814549","0.0429292565984904","0.0446730663948072","1600","10%"
"t = 1.03851813181361","0.0736970372227567","-0.000688885863839318","-0.00280102106612499","-0.00199229057939708","0.0153169700859478","0.0159137812008709","0.0775051349392112","-0.0010841793270395","-0.000496689833151444","-0.00263582909693152","0.0175786277784283","0.0162318569928728","0.00157949319924936","0.000563235402465618","-0.0016908026304467","0.000276524987718392","0.0428613084625549","0.04466360119559","1600","10%"
"t = 1.05195251669437","0.0726722551899398","-0.000692946582874847","-0.00294071527294622","-0.00218198934357228","0.0160425817756409","0.0165894760665286","0.0765345359917799","-0.00109970953242211","-0.000738788216111507","-0.00286049889088644","0.0182917057381553","0.0169802982073403","0.00155457404113086","0.000694815733743194","-0.001614972131687","0.000425178101882035","0.0430275818974698","0.0448854392365094","1600","10%"
"t = 1.06538690157512","0.071518649528021","-0.000685617082265217","-0.00275065942427956","-0.00199949766164276","0.016752432056996","0.0172887183437037","0.075411070352561","-0.00110074570142679","-0.000647100224879412","-0.00267768146676891","0.0189790108723919","0.0177552647305069","0.00151342097555167","0.000809279515512592","-0.00156136676339156","0.000542007966590074","0.043091398250226","0.0450008370577343","1600","10%"
"t = 1.07882128645588","0.0702444744851528","-0.000667099621862821","-0.00202873126963967","-0.001329734016747","0.0178905899305844","0.0183696596220297","0.0741421459241245","-0.00108876081597584","-2.24283776201132e-05","-0.00198243841984642","0.0200924421117358","0.0189245800355158","0.00137799903523803","0.000827238331481843","-0.00157956827987955","0.000576434342571595","0.0430545411085868","0.0450067438124524","1600","10%"
"t = 1.09225567133663","0.0688271117746148","-0.000654217317620964","-0.00212746915987082","-0.00147017368440357","0.0182363342497563","0.0186726962150391","0.072704913225928","-0.00108014649950689","-0.000250001047966427","-0.00213807926634429","0.0203801639595844","0.0192777859296971","0.00133832712434454","0.000933974859842487","-0.00153192735226601","0.000686408039065847","0.042998201543228","0.0450016335644804","1600","10%"
"t = 1.10569005621739","0.0673032011355273","-0.000634049082062269","-0.00224115125417509","-0.00162262399639549","0.0184821254677074","0.0188770376418076","0.0711373383185746","-0.00106260773298863","-0.00049618446509078","-0.00229422462856271","0.0205563943730641","0.0195297855006797","0.0012401065664855","0.000973572242575594","-0.00153915858153713","0.000736931218113354","0.0429016416278481","0.0449536446089798","1600","10%"
"t = 1.11912444109815","0.0656780758674041","-0.000612452393781559","-0.00246549501962681","-0.00192607155174123","0.0186523198198383","0.0189774288545343","0.0694462480726401","-0.00104111892198075","-0.00086872114543095","-0.00261529536187281","0.0206407433457353","0.0196648275865575","0.00110830526736519","0.000985215299717421","-0.00159114155127563","0.00074305696611159","0.0427045063837965","0.044804353765033","1600","10%"
"t = 1.1325588259789","0.0639306185736883","-0.000590526928360693","-0.002048120878211","-0.00158577581166579","0.0195326481136842","0.0197827240016268","0.0676101695859715","-0.00101543616276556","-0.00058304983145027","-0.00224887757479166","0.0214516954837493","0.0205400050796819","0.0011158522329589","0.0011338381408197","-0.00147414132098873","0.000903623094808842","0.042636343868346","0.044768311709634","1600","10%"
"t = 1.14599321085966","0.0621329784266963","-0.00057162804375521","-0.00217066064089572","-0.00176430646168019","0.0198473999422151","0.0200419922869481","0.0657045596668037","-0.000992670437024055","-0.00085736546168473","-0.00242508501326442","0.0216733129559859","0.0208435417250487","0.000817951421943496","0.000972718076837449","-0.0016741738574831","0.000749601306770883","0.0422640129399431","0.0444310221157152","1600","10%"
"t = 1.15942759574041","0.06024543844282","-0.000553908060965588","-0.00209914949538683","-0.0017839571020866","0.0202751309827615","0.0203874194922955","0.0636894100589222","-0.000969122830997419","-0.000942562990715335","-0.00244165173277612","0.0219984079344969","0.0212264445792205","0.000581044423238113","0.00086234773953163","-0.00181998339242086","0.000645180125236853","0.0419074214186864","0.0441056786671443","1600","10%"
"t = 1.17286198062117","0.0582658686645011","-0.000537280711919959","-0.00088349968151384","-0.000656147691003586","0.0216100989220263","0.0216534564399239","0.0615628675992382","-0.000945480480809561","0.000163556954967524","-0.00123584492948093","0.0232619351299311","0.022575293465905","0.000449848159644712","0.000849499128890979","-0.00184979868219787","0.000629943999532174","0.0416609456845706","0.0438684896506207","1600","10%"
"t = 1.18629636550192","0.0562070746801588","-0.00051611193628341","-0.000304864794072778","-0.000127365632980653","0.022368438146276","0.0223653901439412","0.0593393952738629","-0.000913965980066449","0.00060343485056046","-0.000654560983391469","0.0239192806878555","0.0233452843220033","0.000398610312588606","0.000913181615759327","-0.0018045548961831","0.000696840072972872","0.0414607168446106","0.0436838415983217","1600","10%"
"t = 1.19973075038268","0.0540972066312308","-0.000495379320549284","0.000263376370650909","0.000372994726716166","0.0232354957004578","0.0231756921451485","0.0570497145548101","-0.000883055968233911","0.00102583408334382","-0.000116314646470115","0.0246814521150537","0.0242027514819766","0.000319127512687318","0.000938073480441636","-0.00179633605643383","0.000724296365201067","0.0411494484142659","0.0433826940973287","1600","10%"
"t = 1.21316513526343","0.0519398891163548","-0.000482587074682534","-1.56157279826819e-05","2.29281766782378e-05","0.0231028751318662","0.0229778103145911","0.0546989795768915","-0.000859282000749499","0.000562075184456658","-0.000473258741158424","0.024399553048869","0.0240081027569305","0.000176190565052743","0.000891841166185061","-0.00186503400705249","0.000686881577582647","0.0407914693802181","0.0430500137187898","1600","10%"
"t = 1.22659952014419","0.049734605266681","-0.000464241096877886","0.000533921108424863","0.000449729936875842","0.0239449682324906","0.0237046005646137","0.0522880109778417","-0.000828903701589022","0.000968181926196212","-5.73603641055073e-06","0.0251308224365801","0.0247731615491422","0.00010588578777143","0.000916446121812153","-0.00183459232110811","0.000728681701801443","0.040464481185246","0.0427264538214359","1600","10%"
"t = 1.24003390502494","0.0474955140904897","-0.000437494719949874","0.000547889016124474","0.000383754682926727","0.0242407105409537","0.0239314540908692","0.0498327212848657","-0.000787462166985185","0.000806133942686837","-6.89907996344432e-05","0.0252851983292873","0.0250079566257412","7.978589351984e-05","0.00097490213273661","-0.0018027387968637","0.000780487332782846","0.0401658440514439","0.042438919488744","1600","10%"
"t = 1.2534682899057","0.0452323642855908","-0.000429236822853789","0.000170311734395825","-9.41741144968928e-05","0.0239545171532686","0.0235568853539511","0.0473457992121624","-0.000765653553604632","0.000234486283951795","-0.000569284920253248","0.024834289692036","0.0246135377461173","-3.16405307750826e-05","0.000941479568366555","-0.00186258599031223","0.00074505830500467","0.0397163895048389","0.0420076988713277","1600","10%"
"t = 1.26690267478645","0.0429514554140846","-0.000447165050640707","0.000539331773286134","0.000173335661765699","0.0245038069344991","0.0240239519022322","0.0448346423521724","-0.0007711932587681","0.000452937191233684","-0.000273047847831184","0.025258186091932","0.0250984318510174","-0.00025005406244033","0.000785689450851313","-0.00201096072224686","0.000600256572816283","0.0391952087724397","0.0414827517414188","1600","10%"
"t = 1.28033705966721","0.0406521016312759","-0.000419701797727105","0.000656172727505049","0.00023770966320202","0.0248388873748703","0.0243177445541533","0.0422981697556099","-0.000727608394815305","0.00040330450400937","-0.000192056360119647","0.0254562036485614","0.0254011518564241","-0.000243961975528614","0.00086331435186376","-0.0019362542414402","0.000680156503900184","0.0388204370182809","0.0411044086463295","1600","10%"
"t = 1.29377144454796","0.0383487385399991","-0.000413418468323213","0.000459859107926187","-1.79279294373802e-05","0.0247429922699516","0.024164242211594","0.0397547144482634","-0.000706111359186903","3.23620166488552e-05","-0.00044390762749525","0.0252020482110595","0.0252332386520858","-0.000313492707810284","0.000842083167348431","-0.00194865191604001","0.000675206698535966","0.0384022440391971","0.0406892797600852","1600","10%"
"t = 1.30720582942872","0.0360411149516286","-0.000411193188412859","0.000600674905967864","3.05804463853685e-05","0.0249967388170421","0.0243457924112898","0.0372048453794838","-0.000687621755850442","1.39770524868028e-05","-0.000379771321547734","0.0253130891826924","0.0254114600967542","-0.000393916887036643","0.000812029360535269","-0.0019605916512914","0.000663178909638718","0.0379577049315564","0.0402389269245297","1600","10%"
"t = 1.32064021430947","0.0337445850897806","-0.000393080041579651","0.000881527081610212","0.000241549693086815","0.0254964691664535","0.0247989544245497","0.0346647904201231","-0.00065167891631852","0.000151915955061117","-0.000137866317863008","0.0256884243838588","0.0258740235413278","-0.000428249898059171","0.000823821101724744","-0.0019604039012045","0.000654875491134823","0.0375228733323052","0.039787471812728","1600","10%"
"t = 1.33407459919023","0.0314581108730317","-0.000375684270147786","0.000638199303934028","-5.32211069482273e-05","0.0253589504193808","0.0246256057642904","0.0321356354070997","-0.000616557244356733","-0.000263313250182262","-0.000434224141799118","0.0253958231497603","0.0256791212697645","-0.000440326582064173","0.000842419944774016","-0.001919057019011","0.00069678547552573","0.0371165700277865","0.0393754467355598","1600","10%"
"t = 1.34750898407098","0.0291791577479832","-0.000410531712377934","0.000635120071321453","-0.00011260874999674","0.0253996213977171","0.0246240291913044","0.0296165319374926","-0.000637270790597593","-0.000417802242286173","-0.000481734251030571","0.0252946965429108","0.0256612447885512","-0.000626074085858711","0.000688523692368679","-0.00206231452257926","0.000546302501283489","0.0364989297242302","0.0387457253343378","1600","10%"
"t = 1.36094336895174","0.0269194436188021","-0.000439751957315826","0.000757186815345572","-8.00687158425047e-05","0.0255552023481373","0.0247020582597674","0.0271193846964648","-0.000652362697497926","-0.000425734617426438","-0.00042502824018632","0.0253222014063005","0.025728326479943","-0.00075273996191733","0.000579241328814322","-0.00214189654073052","0.000452462045465217","0.0359544089326259","0.0381841732130833","1600","10%"
"t = 1.37437775383249","0.0246923522962923","-0.000439304937814003","0.000536419382555885","-0.000336558945337548","0.0254103281920984","0.0245276484690367","0.0246583046890832","-0.000634132931540958","-0.000787732193644029","-0.000665102875414586","0.025043090109066","0.0255392682355639","-0.000800487498253765","0.000540969413305572","-0.00216366291378677","0.000419634310645615","0.0354885202930564","0.0377029179623341","1600","10%"
"t = 1.38781213871325","0.0225104319000563","-0.000373324973634406","0.00044337882250549","-0.000505519061352088","0.0253239348170322","0.0243779731201237","0.0222469465121583","-0.000546322816786355","-0.00101887188127761","-0.000821290784193507","0.0248210336810369","0.0253669901784967","-0.000650903473223315","0.000703660289953712","-0.00197405436927841","0.000597600541390684","0.0351541203504366","0.0373533209577076","1600","10%"
"t = 1.401246523594","0.0203495374286668","-0.000361074849844044","0.000388961361136564","-0.000620048858700049","0.0252382807481837","0.0242514043687024","0.0198634346928641","-0.000516107584844862","-0.00118967698499268","-0.000908216246730982","0.0246155371719361","0.0252283174401173","-0.000653647283647749","0.00070705460251043","-0.00194575865499211","0.000607221782657141","0.0347205463998406","0.036899202866166","1600","10%"
"t = 1.41468090847476","0.0182285935997766","-0.000344960248528429","0.000499532473308046","-0.000592987782202684","0.0252700884189153","0.024221621202054","0.0175265643911553","-0.000482725200650659","-0.00119828561720294","-0.000861219823756592","0.024524935005278","0.0251788706810591","-0.000642503964059894","0.000711846381388393","-0.00190793121440788","0.000625907470334065","0.034266429511758","0.0364242353077905","1600","10%"
"t = 1.42811529335551","0.0161424479198555","-0.000344818258270812","0.000567044765900379","-0.000572052773670592","0.0252183945361699","0.0241383054107362","0.0152321228052201","-0.000467245711333846","-0.00123815906656808","-0.000816128539252357","0.0243606629718694","0.0250792831945502","-0.000661087990822871","0.000691921426621417","-0.00189823647573859","0.000612164333159092","0.0337749754208315","0.0359083756223539","1600","10%"
"t = 1.44154967823627","0.0140793961690351","-0.000393468443778944","0.000507065673131744","-0.000668279214109906","0.0251961496912188","0.0240899917001352","0.0129687348760539","-0.000502108592854341","-0.00140111948443939","-0.000890659566378068","0.0242355103739817","0.0250131367613849","-0.000799133670097704","0.000539539451856494","-0.00201303687679927","0.000472934516626844","0.0331743509058822","0.035279463513941","1600","10%"
"t = 1.45498406311702","0.0120879478054039","-0.000367144636878599","0.000414873306839457","-0.000804326596683919","0.0250608331517573","0.023922037663644","0.0107853436029708","-0.000458315210346221","-0.00159776672013964","-0.00100416040048615","0.0239927897891171","0.0248274346392636","-0.000748842453755485","0.000574620476942681","-0.00196168660548333","0.000502399471985063","0.032716951577577","0.0347975652337468","1600","10%"
"t = 1.46841844799778","0.0101330043495731","-0.000364774079082616","0.000594653016488885","-0.00064257467808037","0.0250869504584422","0.0239421080598969","0.00864723849496209","-0.000441626472966119","-0.00149473768374775","-0.00081200752189786","0.0239306447446551","0.0248310528369558","-0.000746118189548461","0.000560581995207043","-0.00192168101635038","0.000509462696116764","0.0322488873115649","0.0342970795028156","1600","10%"
"t = 1.48185283287854","0.0082567422924732","-0.000295833685496266","0.000663306593527846","-0.000594452965557354","0.0250808284208738","0.0239313040137806","0.00659700080423878","-0.000354880957011756","-0.00150682585087032","-0.000734951140853931","0.0238345066628666","0.0248046890376567","-0.000585035758146513","0.000697680983427424","-0.0017445999662734","0.000655855175630214","0.0319143378382507","0.0339307849069211","1600","10%"
"t = 1.49528721775929","0.00640447943304869","-0.000285901883895749","0.000518051128800024","-0.000817154762031431","0.0248301262599678","0.0236256525014536","0.00458084048814413","-0.000331569333589626","-0.00174240830635878","-0.000938882860930112","0.0234876567770631","0.0244789110090357","-0.000555576044895595","0.000701495862264987","-0.00171387973775978","0.000664136816278425","0.031435232211032","0.0334274815232241","1600","10%"
"t = 1.50872160264005","0.00460160279782294","-0.000275254702025007","0.000781269955809824","-0.000602087407180225","0.0249628511477407","0.0237248123840173","0.00262373972304356","-0.000307478741618324","-0.0015391139366572","-0.000694839578021481","0.0235461650524204","0.0245609955133031","-0.000512911526569298","0.000712120125685046","-0.00165877323240538","0.000684352519793854","0.0310061644492552","0.0329639538112169","1600","10%"
"t = 1.5221559875208","0.00286271167952964","-0.000252819572802381","0.000692329422360605","-0.000732222225801345","0.0248014166446565","0.0235283392104311","0.000740285082144508","-0.000270583980050225","-0.00168386769790485","-0.000797479672649645","0.0233155956866877","0.0243473114538513","-0.000472635814197519","0.000714697570069039","-0.00161972946426956","0.000691433545572132","0.0305764685088306","0.0325021287670446","1600","10%"
"t = 1.53559037240156","0.00116584966112778","-0.000239572419254941","0.000704444690463629","-0.00073222206023947","0.0247348685574855","0.0234596824502577","-0.00109137376702254","-0.00024296222158841","-0.00173275521954657","-0.00076990839738286","0.023181241141338","0.024260673171946","-0.00044510326833818","0.000708464367109191","-0.00157426446365868","0.000704540048373138","0.0301479160986994","0.0320395177029098","1600","10%"
"t = 1.54902475728231","-0.000479031563762505","-0.000228516288859125","0.00110892367724872","-0.000351547797606436","0.0249583301668405","0.0236687921872782","-0.00286102629162497","-0.000220101504724864","-0.00136264049094771","-0.000362489654602537","0.023353310869544","0.0244475039888176","-0.00039569621669451","0.000721441482929964","-0.00152424288197878","0.000711897714620454","0.0297149906974213","0.0315656797551748","1600","10%"
"t = 1.56245914216307","-0.00209755750509219","-0.000273415109019285","0.00136704080530649","-8.46324979448915e-05","0.0249715018087268","0.0236915937217624","-0.00459505458008329","-0.000256970009511703","-0.00113001232080003","-7.22673991697877e-05","0.0233178512329118","0.0244455611097236","-0.000456073529329262","0.000625763412139776","-0.00159058414456352","0.000600509140165417","0.0291984905898554","0.0310088246963864","1600","10%"
"t = 1.57589352704382","-0.00360625774094782","-0.00020097855181745","0.00134146596298959","-0.0001291713691948","0.0247650454788267","0.0234735970589069","-0.00620852849623317","-0.000170357408476366","-0.00120190388359378","-9.03460366685315e-05","0.023051490698902","0.0242129004907497","-0.000297251529264269","0.00074324896687736","-0.00142700987238117","0.000731686633068677","0.0288893505967797","0.0306689819612275","1600","10%"
"t = 1.58932791192458","-0.00508112798791941","-0.000179231162475002","0.00169862432474104","0.000244645956166308","0.0248886608939423","0.0236180363317834","-0.0077783169999808","-0.000137269942337049","-0.000859091263479126","0.000311211649444868","0.0231405329267572","0.0243361109682724","-0.000252030948556106","0.000744983659354464","-0.00138011420628813","0.000732708708073808","0.0284713726131006","0.030208306655209","1600","10%"
"t = 1.60276229680533","-0.00649546474701387","-0.000137520162658494","0.00164058595226127","0.000144847955986874","0.0246285278541284","0.0233294313722561","-0.00927801573565678","-8.43088047356703e-05","-0.000944903554520719","0.000241184853817295","0.0228369223078635","0.0240356186517562","-0.000153870311131071","0.000801721391887014","-0.00128128508932898","0.000799116092416974","0.0280972434984386","0.029803390297972","1600","10%"
"t = 1.61619668168609","-0.00785811803100362","-0.000103486187478229","0.00148037540722121","-7.86942762765802e-06","0.0242579476872309","0.0229679079397013","-0.0107165071024709","-3.98504634951697e-05","-0.00112754654180274","0.000115644006225055","0.022424448885367","0.0236599876671535","-8.08403784211468e-05","0.000832502658035631","-0.00120872534427243","0.000836483771175709","0.0276945821950652","0.0293691948959545","1600","10%"
"t = 1.62963106656684","-0.00917551022019158","-8.74306546143232e-05","0.00161353598626671","0.000146515152283597","0.0241587467228588","0.0228930680831184","-0.0121006897889538","-1.45261069277677e-05","-0.00100516426375262","0.000288468123490389","0.0222932429441358","0.0235600233033437","-2.2594117879783e-05","0.000837840772931162","-0.00115847991612016","0.000844634362631244","0.0272554673904545","0.0288919123725383","1600","10%"
"t = 1.6430654514476","-0.0104587933538345","-9.8167600027821e-05","0.00121858839814601","-0.000272281886228348","0.0236477978933418","0.0223640025899934","-0.013442669027191","-1.84173942531935e-05","-0.00143438098486681","-0.000102984757739563","0.0217395167872465","0.0230203634287586","-1.65513857231795e-05","0.000808346303735932","-0.00114712876367584","0.000830868155764134","0.0268262138216014","0.0284371834447291","1600","10%"
"t = 1.65649983632835","-0.0116605198514674","-6.10386769552427e-05","0.00107483404899916","-0.000425863926830403","0.02322881041133","0.0219406381622157","-0.0146930584958886","2.86393433108861e-05","-0.00159383530611177","-0.000228578961410206","0.0212868070643027","0.0225901586201475","5.47888172797548e-05","0.000825932319007123","-0.00107824533806037","0.000867719674066978","0.0264572887775036","0.0280406794710883","1600","10%"
"t = 1.66993422120911","-0.0128164017493589","-3.49450773196155e-05","0.0011519814747077","-0.000361479364796663","0.0230564549846858","0.0217594850510749","-0.0158897673890147","6.21917349693407e-05","-0.00152213641713369","-0.00014314554125386","0.0210927403338545","0.0223924376392766","0.000143160849286768","0.000862151411406592","-0.00100644510165064","0.000902175407673304","0.0260786904371979","0.0276281815663211","1600","10%"
"t = 1.68336860608986","-0.0139465637027717","-4.65331412984773e-05","0.00118778428051335","-0.000327464512394475","0.0228068587505528","0.0215173010485291","-0.0170533839821281","5.67806288445524e-05","-0.00148655964388586","-8.90456835738822e-05","0.0208228164034504","0.022134403268635","0.000141976890660306","0.00081664905917365","-0.00101522780418789","0.00085676134325593","0.0256298915309568","0.0271469417550779","1600","10%"
"t = 1.69680299097062","-0.0149802906472175","2.42726781818194e-05","0.00109547865832491","-0.000428141772678732","0.022517510540167","0.0212279664192314","-0.018111527719883","0.000135299005693272","-0.00157752313572497","-0.000152168135907249","0.0205185996557374","0.0218436541692153","0.000280762088130522","0.000910762198950759","-0.000845477784985583","0.000993613377552094","0.0253252533594888","0.026811877768038","1600","10%"
"t = 1.71023737585137","-0.0160055003370554","2.32801234317773e-05","0.00118127953502972","-0.000318072353533524","0.0224106691472176","0.0211507938951276","-0.0191551720443546","0.000139438610785274","-0.00148081857438044","-2.60863978745319e-05","0.0204034242530087","0.0217465816004705","0.000310341405893398","0.00088824805302686","-0.000846245799922719","0.000952095232971305","0.0249061223668751","0.0263555369618861","1600","10%"
"t = 1.72367176073213","-0.0169695557241245","5.03016957835448e-05","0.00112087982335443","-0.000368451654704657","0.0221381909648802","0.0209015701639934","-0.0201296972579035","0.000172462454074723","-0.00153439965443918","-4.71335100764404e-05","0.0201237589731872","0.0214894689715743","0.000362504509837152","0.000899278053446973","-0.000799597950798951","0.00096467828260263","0.0245265102190966","0.0259434075319069","1600","10%"
"t = 1.73710614561288","-0.0178722308287834","9.96788656940106e-05","0.00126862575778881","-0.000212902475756999","0.0219569171100681","0.0207256323657846","-0.0210353355275552","0.000227991041464243","-0.0013712176372149","0.000135444922176714","0.0199369266538118","0.0213099430982226","0.000452936143370278","0.000942006104247817","-0.000697164287627076","0.00102902072194114","0.0242169162644523","0.0256022002530715","1600","10%"
"t = 1.75054053049364","-0.0187110090648792","0.000170173385889332","0.00158176315535789","0.000126414747151838","0.0219321981690602","0.0207289532240199","-0.021870423124594","0.000303932285747423","-0.00103037614165606","0.000489302774970689","0.0199168827253833","0.0212929809085639","0.000589954874142396","0.00102665937430104","-0.00058891569405628","0.00109379343483754","0.0239072162414831","0.025255083977497","1600","10%"
"t = 1.76397491537439","-0.0196089340993303","9.91079523382928e-05","0.00172292192585184","0.000286540422118538","0.0218393934271702","0.0206551655343544","-0.0227616025630842","0.000235142636516052","-0.000859981546188835","0.000650440251152413","0.0198308681256701","0.0211865724683236","0.000487264822262876","0.000884892693872806","-0.000705665914909923","0.00093450994284274","0.023406521115338","0.0247168951700121","1600","10%"
"t = 1.77740930025515","-0.0203862541246767","0.000139336881110811","0.00172462562070967","0.000285049032603584","0.0216609676096657","0.0204829701407777","-0.0235242781981232","0.000280140700189474","-0.000834211849665919","0.000666803039631438","0.0196598724313224","0.0209965061252626","0.000572850542910001","0.000921568427259001","-0.000628164690272899","0.000976734972148707","0.0230776441926087","0.0243547789952953","1600","10%"
"t = 1.79084368513591","-0.0211311158774631","0.000164701095284499","0.00189250045800825","0.000468156504970951","0.0216339047187828","0.0204754784758942","-0.0242488379821811","0.00030899322293827","-0.000642041105496538","0.000866073248931295","0.0196398604775467","0.0209694607588578","0.000614870257721172","0.000926282118505069","-0.000597011422112823","0.000970306876044136","0.0226904717801393","0.023932698195786","1600","10%"
"t = 1.80427807001666","-0.021848447304225","0.000169174366986675","0.00198729113797955","0.000578324215649391","0.0214843285391427","0.0203494778976133","-0.0249416921825796","0.000316150596559748","-0.000522949122456008","0.000994182436600023","0.0194983001981011","0.020828244081685","0.000648475363282859","0.000914309764741367","-0.000566294999256047","0.000965417468743412","0.0223412470450223","0.0235511328659586","1600","10%"
"t = 1.81771245489742","-0.0225424023875378","0.0001546620946416","0.00186565688783107","0.000466168526743867","0.0211400775097878","0.0200137798908199","-0.0256066486375245","0.000303662218878104","-0.000624126064954607","0.000908096916634404","0.0191596009538768","0.0204958518488267","0.000652435568819215","0.000881556756819315","-0.000553476850331326","0.00094867419827654","0.0219748622370873","0.0231592573759713","1600","10%"
"t = 1.83114683977817","-0.0231347121257906","0.000222638331900377","0.00194874595591508","0.000581397683051492","0.0209701193657438","0.0198780777079391","-0.0261628825463259","0.000374575580727168","-0.000509800731390965","0.00103510684144643","0.0190035460911794","0.0203416350509599","0.000773218950731466","0.000958680393004333","-0.000439330956730401","0.00102685820357442","0.0217044931257728","0.0228569871585713","1600","10%"
"t = 1.84458122465893","-0.0237496247901897","0.000214531213142401","0.0018661090928495","0.000482692011901884","0.0206635458126568","0.0195654516647085","-0.0267400200572403","0.000368174987477333","-0.000564980215882008","0.000952488009402064","0.0187088118200774","0.0200190786567051","0.000783970375001846","0.00092853450429923","-0.000447013973610113","0.000990128444782189","0.0213310117093093","0.0224572688290287","1600","10%"
"t = 1.85801560953968","-0.0242879252175213","0.000255441407366125","0.0019296958892246","0.000560055047522639","0.0204664500775968","0.0193823664263577","-0.0272351953566015","0.000410896368163504","-0.000463664730214248","0.00103116551668246","0.018528342738899","0.019814602395055","0.000874666380583668","0.000978690312291043","-0.000372343641828622","0.00102958596306032","0.0210269951788926","0.022123671502346","1600","10%"
"t = 1.87144999442044","-0.0248197804953464","0.000271751800402951","0.00178244114076518","0.000425839570441987","0.0201040558388105","0.0190394647067881","-0.0277209662755738","0.00042856366659106","-0.000586243612961373","0.000919853391316132","0.0181772153370916","0.0194702699074726","0.000906297749658183","0.000978511708801113","-0.000320726165251105","0.00105439482955316","0.0207044716308646","0.0217770690253844","1600","10%"
"t = 1.88488437930119","-0.0253279071415617","0.000265761115359531","0.00155851636436952","0.000183761200673183","0.0197326299353774","0.0186561964776923","-0.0281796715492401","0.000423426166322614","-0.000779695399809684","0.000712964009638828","0.0178221400495229","0.0190966502988335","0.000918881422192982","0.000954736645370144","-0.000310526232132804","0.00104093839305175","0.0203783307578287","0.0214296374655564","1600","10%"
"t = 1.89831876418195","-0.0258150883763056","0.000247115766325397","0.00143061757409403","8.57915447503833e-05","0.019388533020985","0.0183420229017938","-0.0286154440129984","0.000405286471096656","-0.000876710682587383","0.00063063174853695","0.0174945533967328","0.0187731270082044","0.000916387844671206","0.000914497717739748","-0.000304086497557744","0.00101899794057183","0.0200338603826436","0.0210599800996689","1600","10%"
"t = 1.9117531490627","-0.0262486393761469","0.000250916135884421","0.00140569631620396","5.76537551545507e-05","0.0190965902742309","0.0180457496972026","-0.0289926544407219","0.000409535550839337","-0.000865877715970578","0.000623889791814373","0.0172217861442947","0.018478820922119","0.000930735559677958","0.000891129514781976","-0.000284817267131325","0.00101102768495576","0.0197070033584604","0.0207108066908032","1600","10%"
"t = 1.92518753394346","-0.0266600006487906","0.000257899637286617","0.00134252728673852","1.33309121548969e-05","0.0188045390947847","0.0177721679150417","-0.0293464079595498","0.000416789337709213","-0.000891217881826094","0.000589095984665206","0.0169509190305164","0.0181960832677095","0.000961109847444775","0.000887935436537345","-0.000273414881223684","0.000992776751253783","0.0193874991631183","0.020366383150694","1600","10%"
"t = 1.93862191882421","-0.0270635753478495","0.000236982647369217","0.0012007260363267","-0.000122100031621052","0.0184982168375652","0.017471403795139","-0.029690708986604","0.000396189973227735","-0.000998714614335541","0.000471552043466725","0.0166655869329374","0.0178885694291012","0.00095248335085258","0.000848300780054715","-0.000270890381983121","0.00096993820927063","0.0190635321520423","0.0200196149338888","1600","10%"
"t = 1.95205630370497","-0.0274181441717704","0.000237648331794476","0.00116137270347152","-0.000141177383088462","0.0182520390821499","0.0172443199353907","-0.0299827437083806","0.000396650046756005","-0.00100184401125353","0.000473522070323095","0.0164423412677337","0.017663515737077","0.000966394622182727","0.000833164074361828","-0.000266409577422408","0.000948115733802009","0.0187580725105777","0.0196910430094851","1600","10%"
"t = 1.96549068858572","-0.0277303686455778","0.000255070237232329","0.000921199757707796","-0.000384601527562682","0.0177682073302076","0.0167608256197642","-0.0302296784805718","0.000413901421409118","-0.00120657953835109","0.000269255558414376","0.0159827738646974","0.0172037375203893","0.00101043565699649","0.000845004630097368","-0.000200713863006738","0.000993540254940382","0.0185154104872413","0.0194317602678741","1600","10%"
"t = 1.97892507346648","-0.0280170841822599","0.000268094932954888","0.00119791443964477","-9.67117146033978e-05","0.0177342571200322","0.016731006772555","-0.0304492113811178","0.000426625765022921","-0.000887518473881435","0.000551122136006773","0.0159735101920071","0.0171577420909641","0.00104678711118537","0.00085193226035273","-0.000174407929886378","0.000987655282297315","0.0182405134147915","0.0191316687382339","1600","10%"
