"","ame.cox","ame.po","ame.kmdr.clog","ame.kmdr.logit","ame.dr.ig.clog","ame.mdr.ig.logit","me.cox.x = 0.5","me.po.x = 0.5","me.kmdr.clog.x = 0.5","me.kmdr.logit.x = 0.5","me.dr.ig.clog.x = 0.5","me.dr.ig.logit.x = 0.5","cdf.cox.x = 0.5","cdf.po.x = 0.5","cdf.kmdr.clog.x = 0.5","cdf.kmdr.logit.x = 0.5","cdf.dr.ig.clog.x = 0.5","cdf.dr.ig.logit.x = 0.5","n","cens.level"
"t = 0.237043780897122","0.243296752056298","0.195001582028956","0.000720856455840491","0.00260100941169357","0.00103081105099868","0.00288746432178565","0.22543843057818","0.178140527512351","0.0017612855269915","-0.000642561861225214","0.00197260259289141","-0.000426104666310118","0.00885052820463505","0.0108990237641195","-0.000407598126834466","0.000119530559139585","-0.00042407736613413","0.00010139054257963","1600","10%"
"t = 0.247302270059656","0.251124338035799","0.199561798383917","0.000469902156373385","0.00235039837711634","0.000785641051068827","0.00264166541470118","0.234797427135388","0.184267611786984","0.00155622495705981","-0.0008982271141634","0.00178057904794927","-0.000669264160903166","0.00831881588838334","0.0105204672486432","-0.000453868131690815","0.000116848741034137","-0.00047268881958004","9.61852675960398e-05","1600","10%"
"t = 0.257560759222191","0.258497848389212","0.203658050126822","0.000604891466258438","0.00245922352801456","0.00133594337836482","0.00314541244904609","0.243647392965062","0.189871677648646","0.00158521951339781","-0.000878318565270471","0.00167675369562882","-0.000738646043938685","0.00762488941445479","0.0100477126605569","-0.000499331414768302","0.000111499938738552","0.00134219339716357","0.0019553120619992","1600","10%"
"t = 0.267819248384725","0.265584119865351","0.207314084521191","0.00113539903281923","0.00294595261369474","0.00261867696400721","0.00437095260617552","0.252144773658141","0.194967209590946","0.00190350163397591","-0.000526167145551164","0.00220498906149234","-9.82619088290463e-05","0.00704519293418193","0.00962981663222526","-0.00038826296969918","0.000258325409360412","0.00384976637334357","0.00450142092661356","1600","10%"
"t = 0.278077737547259","0.272249519325767","0.210496962112201","0.000966812029277848","0.0027478577347758","0.00301115753871736","0.00470947831559485","0.26015058961871","0.199513895439574","0.00168181020207457","-0.000710569592338379","0.00222424822040763","6.49040349318861e-06","0.00640368554263927","0.00915255360102601","-0.000404508679535561","0.000278237310749468","0.00616016803748681","0.00684869192595567","1600","10%"
"t = 0.288336226709793","0.278489703655564","0.213181477612307","0.000725530884448751","0.00245231300569184","0.00324936855870232","0.00488033851210553","0.267654972523582","0.203480758812888","0.00141832813168708","-0.000950756752081859","0.00224069780547664","9.37540938943133e-05","0.00573218464684155","0.0086466112774959","-0.000434646378954155","0.000281010617313859","0.00844547912791096","0.00916762558229517","1600","10%"
"t = 0.298594715872328","0.284366890517177","0.215409477365066","0.00117755282019337","0.00283428015608369","0.00406040792875394","0.00561290944536072","0.274716314474137","0.206905830651051","0.00173018396245315","-0.00055617047926069","0.00286547579082306","0.000829353295726941","0.00513139275933518","0.00822250617651036","-0.000262295440646809","0.000478336036429975","0.0107934948696333","0.0115405063754814","1600","10%"
"t = 0.308853205034862","0.289753189288333","0.217128748173085","0.000925613771301288","0.00253715884195729","0.00434032476431203","0.00583095793104546","0.281204264999913","0.209734090909177","0.0014885160673446","-0.000724190665265255","0.00312289450494866","0.00118947548414084","0.00442917984231794","0.00769096435290713","-0.000294231213464578","0.00047220734856105","0.0129424098781312","0.0137131317004272","1600","10%"
"t = 0.319111694197396","0.294628177053007","0.218314623737051","0.000564099304742059","0.00210567415283902","0.00475583686210096","0.00616283485060347","0.287098119119067","0.211939594909527","0.00113434528988892","-0.00100980861161114","0.00353621688297557","0.00171328834749625","0.0036433488696143","0.00707438183735974","-0.000393006212180324","0.000394778934593883","0.01494993853433","0.0157370372943979","1600","10%"
"t = 0.329370183359931","0.299155213072788","0.21901564165999","0.000379142400454384","0.0018466094579084","0.00503061260338162","0.00636082370423752","0.292561396666484","0.213570965737073","0.00089441031820557","-0.00114771691759808","0.00385029670922108","0.0021475590649312","0.00303941939293829","0.00665091656594827","-0.000241622301908128","0.000561889174470093","0.0170685491601137","0.0178678649792209","1600","10%"
"t = 0.339628672522465","0.303118638916019","0.219167644576857","0.000309441595549612","0.00169934020633235","0.00553027556694795","0.00678204107674959","0.297379587712479","0.214564924823564","0.000773746884126296","-0.00115104343091199","0.00441923569561357","0.00284798348024572","0.00230129603554719","0.00609807382425932","-0.000222083189570686","0.000591180298736682","0.0189659368445018","0.0197702868160361","1600","10%"
"t = 0.349887161684999","0.306597331641898","0.218798497598516","0.000477697059614805","0.0017850488882145","0.00616085738969952","0.00732784080152672","0.301634082813712","0.214951451988847","0.000893380695172605","-0.000903859592260845","0.0051330203055164","0.00369207610854809","0.00157212962774915","0.00555571411952126","-0.000189549158427916","0.00062655158921857","0.020851610180606","0.0216546993359832","1600","10%"
"t = 0.360145650847534","0.309685272323107","0.217929289798809","0.000416939368804426","0.00163162581898567","0.00652974389068243","0.00760535729883242","0.30542298677446","0.214754589777612","0.000780833320754631","-0.000894919660583411","0.00559455428509473","0.00427442423005298","0.0010079555404508","0.00517251612536658","1.08828389819698e-05","0.000826387986037259","0.0227964768564198","0.0235947380248258","1600","10%"
"t = 0.370404140010068","0.312207724539962","0.21651562488845","0.000299190055203312","0.00142686278932145","0.00672280279635896","0.00771337969781785","0.308574117155953","0.213933467278462","0.000618746123793745","-0.000924309099601373","0.00589171126855349","0.00469307283607239","0.000348819420559491","0.00469782361412814","0.00010154599196945","0.000911185862814773","0.0245769426023636","0.0253660185533085","1600","10%"
"t = 0.380662629172602","0.314126675032404","0.214563233916125","0.000182277804152935","0.00121930672217538","0.0069854558459531","0.00788859512885919","0.311053950896158","0.212497904422292","0.000475366093835747","-0.000945032602262071","0.0062620041163838","0.00517578253959437","-0.000483151202636186","0.00405527586294079","1.85010783363826e-06","0.00080078538703629","0.02611822575642","0.0268929493176583","1600","10%"
"t = 0.390921118335136","0.315550881672736","0.212074121054276","-8.17122816916578e-06","0.000933414001820387","0.00701590627497512","0.00782944735969002","0.312976264350166","0.210454578334755","0.000249253700801351","-0.0010484776529072","0.00639326933667715","0.00541202027410348","-0.00125957009636708","0.00346273838541406","-5.74099700042124e-05","0.000725702984440759","0.0276301016371916","0.0283864566887776","1600","10%"
"t = 0.401179607497671","0.316452814668857","0.209056811108567","-0.000586699012358535","0.000275138190956675","0.00663729682860093","0.00737673720836989","0.314319145755529","0.207817187958744","-0.000354080129248559","-0.0015283397549563","0.00611209306892009","0.00523324618227318","-0.00204346421305712","0.00285385328296527","-0.000165459215741368","0.000600141692213056","0.0290291981681125","0.0297661937226755","1600","10%"
"t = 0.411438096660205","0.316777071395202","0.205508047488443","-0.000417862134130215","0.000354959792023805","0.00685080606855185","0.00750761295469356","0.315031378786915","0.204587742890662","-0.000220285126372885","-0.00126901017821699","0.00641003189298349","0.00562940950923843","-0.00292881361786603","0.00215221267746532","-0.000354161280384074","0.000384166064368205","0.0302249923091391","0.0309338872348084","1600","10%"
"t = 0.421696585822739","0.316711019335208","0.201462701860351","-0.000286365004208475","0.000403371642616493","0.00700748392728579","0.00758624391129693","0.315309179276787","0.200806976436891","-0.000131807416725175","-0.00104928113463912","0.00663489892459023","0.00595274751041465","-0.00353595917283884","0.00172599499199831","-0.000272576287106124","0.000433837872760782","0.0316300166993006","0.0323068778729085","1600","10%"
"t = 0.431955074985274","0.316127753758774","0.196912616145596","-0.000186833924313159","0.000416250265226528","0.00752556302970284","0.00802142099822143","0.315030073921979","0.196472216206083","-6.89139900878318e-05","-0.00086903244500947","0.0072113528770971","0.00662036336915358","-0.00413226233804904","0.00130862863083001","-0.000210548928561344","0.000459765956099556","0.033006714455806","0.0336444907149264","1600","10%"
"t = 0.442213564147808","0.314978389873219","0.191849718489453","-8.96443681856819e-06","0.000513381640347553","0.00780850815083852","0.00823394730066885","0.314149329741566","0.191581035364815","8.2759417897123e-05","-0.00061171086821618","0.00754994251720542","0.00704640827778913","-0.00480467075001127","0.000808735979895925","-0.000246980531209496","0.000384343720562261","0.0342874163687698","0.0348847588268867","1600","10%"
"t = 0.452472053310342","0.313306949673529","0.186304360316086","-0.000355227558336536","8.31974407072385e-05","0.00767059934965829","0.00802504475744934","0.312717769240033","0.186169399279673","-0.000285583383577348","-0.000891137044749963","0.00746110982342136","0.0070281766634559","-0.00549758678559481","0.000283712766730404","-0.000363175117697962","0.000227477161070311","0.0353439040122073","0.0358994539503203","1600","10%"
"t = 0.462730542472877","0.311192587455882","0.180292214616418","-0.000414031376601653","-4.65509228962767e-05","0.00777084564650682","0.00806282271637686","0.310821697752654","0.180258543073061","-0.000365316891798918","-0.000884577013693481","0.00760056528806649","0.00723090690886276","-0.00602308881124974","-7.48702233403683e-05","-0.000321537290281007","0.000225789900387747","0.0364792037682692","0.0369913094198647","1600","10%"
"t = 0.472989031635411","0.308604048540259","0.173810358285503","-6.29312322177491e-05","0.000236897509419461","0.0080857868359171","0.00832007207688829","0.308434337956389","0.173850571852947","-3.62132630800086e-05","-0.000475082556465044","0.00794714428374433","0.00763532386126325","-0.00646459071684023","-0.000356033308216827","-0.000219380588958539","0.000280317384746078","0.0376342153657054","0.0381000655860859","1600","10%"
"t = 0.483247520797945","0.305486681818208","0.166871432653334","-0.000174936839877052","6.21691371118212e-05","0.00800706853483746","0.00819005757727523","0.305504416328532","0.166962954665266","-0.000164640154745512","-0.000537776809148817","0.00789383660191503","0.00763419500600241","-0.00695247119658594","-0.00068051669736152","-0.000194237082589544","0.000259147680754124","0.0386787085693033","0.0390983134156012","1600","10%"
"t = 0.493506009960479","0.301869832520339","0.159485077773931","-0.000296896074927454","-0.000100924759125492","0.00761937554991634","0.00777052418358917","0.302065056539167","0.159609818283331","-0.000299513337512049","-0.000600978143553905","0.00752573593160965","0.00731674013240556","-0.00743218845779263","-0.0010123563371714","-0.000225416685983451","0.000181582319235134","0.0396223228086482","0.0399990688782334","1600","10%"
"t = 0.503764499123014","0.297775900716974","0.15166683899367","-0.000735386476500851","-0.000584299146710454","0.00680230961335107","0.00691378843119191","0.298143107364913","0.151810868389188","-0.000750214584962105","-0.0010019187461655","0.00672246195601272","0.0065447946637012","-0.00787177142455088","-0.00131389450301286","-0.000251539631626649","0.000111458434007416","0.0404550532800687","0.0407904819999592","1600","10%"
"t = 0.514022988285548","0.293252561550621","0.143459510937875","-0.000980441852661514","-0.000862419264700777","0.00612068486483245","0.0062077605554364","0.293791882972642","0.143612976823068","-0.00100619054264075","-0.00120611436059989","0.00604993984553862","0.00590925438759743","-0.00822988698206989","-0.00153256310482827","-0.000211963707078209","0.000106173899833845","0.0412628603914093","0.0415572461558631","1600","10%"
"t = 0.524281477448082","0.288285201067297","0.134860915061465","-0.0010167337416101","-0.000929252798193362","0.00568491578254928","0.00574831667994827","0.28899811454991","0.135016858773516","-0.00104812740619035","-0.00120810590207672","0.00562344899394744","0.00551215090337124","-0.00852039706711562","-0.0017048754513629","-0.000164682576972694","0.00010944454718283","0.0421005538152933","0.0423535009110346","1600","10%"
"t = 0.534539966610617","0.282877235166124","0.125902107766649","-0.000881857861077789","-0.000821575804363528","0.00529836232076801","0.00533917635961111","0.283767395798495","0.126056522995128","-0.000917863635168457","-0.00104696585430019","0.00524274528253117","0.00515026944238903","-0.00880910717110335","-0.00187075818839352","-0.000125758709488676","0.000106869312353343","0.0428256940426117","0.043040752487841","1600","10%"
"t = 0.544798455773151","0.277051687317994","0.116599752455175","-0.000986399366444877","-0.000951170231597124","0.0044501109403986","0.00447050932469604","0.278124470666294","0.116750530259807","-0.00102275662589946","-0.00112555676590904","0.00440136410393817","0.00432426751326312","-0.00905076528320366","-0.00200659971543591","-9.31094924980018e-05","9.99856116202791e-05","0.0435034929290721","0.0436832971048846","1600","10%"
"t = 0.555056944935685","0.270829869819905","0.106977834837072","-0.000668936824515038","-0.000648418569109711","0.00423291590992644","0.00424416735633808","0.272092751518295","0.10712490925491","-0.000702744779787185","-0.0007783967193461","0.00419227311277213","0.00413587764696766","-0.00924674599060852","-0.00210338167557899","-2.62714999876106e-05","0.000128665258136694","0.0441137797070568","0.0442586537964046","1600","10%"
"t = 0.56531543409822","0.264190400598568","0.0970560277552386","-0.000978506134637471","-0.00097274900032285","0.00329821385421992","0.00329614431893395","0.265649250992933","0.0972003892564545","-0.00100978024790284","-0.00107038179730301","0.00326340540419635","0.00321512371305107","-0.00951538408905096","-0.00228853295882405","-9.8240965901841e-05","2.67492889602377e-05","0.0446207191646144","0.0447384841314426","1600","10%"
"t = 0.575573923260754","0.257238480589845","0.0868705621222258","-0.000555757119307955","-0.00056155983142181","0.00275154469372031","0.00273815653861282","0.258903255401478","0.0870139175895372","-0.000581517612185929","-0.000629883590686771","0.00272379004605933","0.00268033197727218","-0.00960243996831192","-0.00230803760716456","-3.24900675673317e-05","6.66014090490369e-05","0.0452024716867217","0.0452981966445844","1600","10%"
"t = 0.585832412423288","0.249950371378168","0.0764399797922332","-0.000379694749055928","-0.00039831989177119","0.00194025809747663","0.00191590482775271","0.251829168181955","0.0765840819564186","-0.00039894549126768","-0.000442955662815886","0.00192019214705819","0.00187771557227111","-0.00962470159448144","-0.00227306572059674","0.000104046472750347","0.000184067921626718","0.045759315593074","0.0458377940421595","1600","10%"
"t = 0.596090901585822","0.242333245562958","0.0657937760490108","-0.000303771819272509","-0.000324761621976696","0.00111531809110699","0.00109260666443211","0.244433007808526","0.0659402104843555","-0.000313844209315179","-0.000346723113602692","0.00110528667471523","0.00107419237888449","-0.00966205923144821","-0.00225643839527519","0.000156850999670268","0.000226443952685577","0.0462227576311565","0.0462917720636855","1600","10%"
"t = 0.606349390748357","0.23438225317234","0.0549504892477917","-0.000208477330368892","-0.000235412168617809","0.000276947449286094","0.000248219745649833","0.236705413444741","0.055099804669716","-0.000208218857897754","-0.000236028334850906","0.000277923794009715","0.000248635230409997","-0.00975985788603925","-0.00232291741501257","0.000129214698887343","0.000195784707017336","0.0466034168239627","0.0466694210793148","1600","10%"
"t = 0.616607879910891","0.226222421489447","0.0439491311652914","3.90106038498989e-05","1.52004785417652e-05","-0.000571572823223286","-0.000596827639400826","0.228777817803884","0.0441008360963702","5.1999609495532e-05","3.81158141812411e-05","-0.00055805722468644","-0.000577010031631908","-0.00960053479891773","-0.00214041255801352","0.000326067690446508","0.00039848038091797","0.0470908584914036","0.0471612498081827","1600","10%"
"t = 0.626866369073425","0.217753306569834","0.0328039643980946","0.000176570470701007","0.000156734394194703","-0.0016156461990281","-0.00163771255250147","0.220536280881921","0.0329557270452223","0.000204133054770736","0.000205185703111587","-0.00158859957255538","-0.00159795952841834","-0.00957541211172485","-0.00211082561469354","0.000354513681577689","0.000443474161760995","0.0473621557732513","0.0474468191138518","1600","10%"
"t = 0.63712485823596","0.209037063540728","0.0215515040726834","0.000317110303826455","0.000294366936829592","-0.00250421296882306","-0.00252606149632261","0.212043737898657","0.021699160119506","0.000359007251261643","0.000368086080262959","-0.00246480071675296","-0.00246828564510346","-0.00960917865499206","-0.0021554406209492","0.000302062396359277","0.000415265548111199","0.047534607426272","0.0476410714281492","1600","10%"
"t = 0.647383347398494","0.200142870425845","0.0102219545118263","0.000353304858874569","0.000325890989838506","-0.00350328595763284","-0.0035267048958277","0.203371021725656","0.0103589899764713","0.000412141266805972","0.000428650604079283","-0.00345087500274417","-0.00345065424082197","-0.00952876981583049","-0.00209874951325537","0.000354999812870047","0.000503234452733063","0.0477399837507722","0.0478776711612366","1600","10%"
"t = 0.657641836561028","0.191033269313083","-0.00116136670654662","6.7634703022189e-05","3.20826101313799e-05","-0.00495782929271983","-0.0049815041788621","0.194470171583764","-0.00104417233824955","0.000144791411477453","0.000166900996489506","-0.00489255707748657","-0.00488756910462682","-0.00957431826521591","-0.00219003124208725","0.000239396793475205","0.000433129952817633","0.0477467445445597","0.0479250605637248","1600","10%"
"t = 0.667900325723563","0.181794477416463","-0.0125689603605563","-5.24912661391207e-05","-9.24675841430889e-05","-0.00627205717934505","-0.00629551643899978","0.185429985730473","-0.0124834229600824","4.2777471712252e-05","7.65883297005067e-05","-0.00619624311719297","-0.00618584618354825","-0.00944704348682998","-0.00211827519893579","0.000281695036516041","0.000533325856643657","0.0477997276166639","0.048029431275304","1600","10%"
"t = 0.678158814886097","0.172409176717891","-0.0239712384500223","-0.000349619198251435","-0.000409016023088393","-0.00776184687342689","-0.00779130132086826","0.176226648467992","-0.0239319823381896","-0.000236245810159959","-0.000205099715603566","-0.00767829950998547","-0.00767092705430881","-0.00940239747617493","-0.00214813234731895","0.000214119816497286","0.000533266201886847","0.0477742795177675","0.0480639464032014","1600","10%"
"t = 0.688417304048631","0.16292783696019","-0.0353416436019922","-0.000874413939304353","-0.000945227997721267","-0.00953858027900052","-0.00957625874829456","0.166907652488283","-0.0353663502109622","-0.00074393585025455","-0.000707628047017672","-0.00945144391360781","-0.00945207763034452","-0.00929750604319804","-0.0021326299283166","0.000190114608107064","0.000587889962041326","0.0477511709099343","0.0481099244353886","1600","10%"
"t = 0.698675793211165","0.153368543105046","-0.0466524413694097","-0.000892316606310237","-0.000960985826454676","-0.0110334396444137","-0.011060637856103","0.157487554074835","-0.0467617981037477","-0.00074445397972038","-0.000689749875668878","-0.0109484235016167","-0.0109420521333748","-0.00917014529862196","-0.0021102309546426","0.000197529298165183","0.000687585021856187","0.0476972293201093","0.04813593351654","1600","10%"
"t = 0.7089342823737","0.143760333000597","-0.0578791475813324","-0.000997682512662472","-0.00107213205233408","-0.01258801803216","-0.012608762309315","0.147992557862353","-0.0580967405554413","-0.000830456434528041","-0.000767861504024303","-0.0125110555313599","-0.012508027944818","-0.00895134173460128","-0.00201529541163415","0.000232340799658247","0.000828276116344353","0.0476095808315544","0.0481388250192218","1600","10%"
"t = 0.719192771536234","0.134107463619372","-0.0689943679378635","-0.0010354453473495","-0.00111292664810676","-0.0139670132018387","-0.0139821332879129","0.138419761231168","-0.0693467935383566","-0.000848949237015102","-0.000780021922588195","-0.0139036889525265","-0.0139120841562175","-0.00879640290861091","-0.0020008124903686","0.000231998440462841","0.00094675092065204","0.0474416197178385","0.0480734298498016","1600","10%"
"t = 0.729451260698768","0.124444348593791","-0.0799738294614136","-0.00106215599667731","-0.00113585930119857","-0.015557052558919","-0.0155625763666473","0.128801943848364","-0.0804903366453196","-0.00085795464697489","-0.000783270273109955","-0.015518082483047","-0.0155446171418393","-0.00864088887595277","-0.00199370108040788","0.00021292445438005","0.0010591942972578","0.0472724595504498","0.0480154522439836","1600","10%"
"t = 0.739709749861303","0.114802305061483","-0.0907961451143964","-0.000792497834798409","-0.000873693575235776","-0.0167801560039992","-0.0167756400528673","0.119168736388816","-0.0915084940393614","-0.000559826985040036","-0.000502344678179305","-0.0167630037749399","-0.0168234976369273","-0.008318570375098","-0.00185255048952182","0.000351036998420237","0.00134681607121208","0.047235179397446","0.0481066187490106","1600","10%"
"t = 0.749968239023837","0.105184135024371","-0.101435070650798","-0.00047821886121364","-0.000556326504229125","-0.0179107518801096","-0.0178933358022332","0.1095159797925","-0.102377301251418","-0.000220062818516704","-0.000184312747813867","-0.0179282331498817","-0.018036799035525","-0.00815452703212969","-0.00187936270095137","0.000330700701212978","0.00148859339900033","0.0469758010379029","0.0479855876721628","1600","10%"
"t = 0.760226728186371","0.0956262898948927","-0.111865786722417","-0.000629595765669173","-0.000697821769190826","-0.0194892241254034","-0.0194540559543802","0.0998803804474786","-0.113073695207423","-0.000349777904351356","-0.000346824974117765","-0.0195531022231073","-0.0197242087437534","-0.0079358815594044","-0.00185758932597551","0.00037445554474642","0.00170277519056737","0.0467367609932598","0.0478917996468777","1600","10%"
"t = 0.770485217348906","0.0861482256261985","-0.122070776167003","-0.000479656281377577","-0.000529013243823194","-0.0208484313423885","-0.0207866470319997","0.0902779390951373","-0.12358200620109","-0.00017732858183556","-0.000224068778647649","-0.0209710378593146","-0.0212234353461598","-0.00773639687936947","-0.00188494580902875","0.00038268405718016","0.00189686734035969","0.0464114963079276","0.0477233649005991","1600","10%"
"t = 0.78074370651144","0.07676707391273","-0.132021769248268","-0.000636201753162908","-0.000640238764244545","-0.0225359527709361","-0.0224317341489301","0.0807208940792832","-0.133874954221086","-0.0003109210056572","-0.000407274114237621","-0.0227337671178611","-0.0230777819935972","-0.0076654275979823","-0.00204559490284804","0.000274147795940715","0.0019836814519262","0.0459880898214627","0.0474619757206945","1600","10%"
"t = 0.791002195673974","0.0675057114045075","-0.141710993249378","-0.000546210970755043","-0.000485237658882661","-0.0240024369842381","-0.0238318591036297","0.0712356662828854","-0.143945721161996","-0.000197919835098716","-0.000359577526213042","-0.0242873488108379","-0.024734321949463","-0.00748005238469074","-0.00210625128622328","0.000289581762800123","0.00220886933016374","0.045675246115863","0.0473229807552576","1600","10%"
"t = 0.801260684836508","0.0583796427737939","-0.151128165030034","-0.00075162211108662","-0.000627422205777584","-0.0257344095701413","-0.0254929968914605","0.0618375552738279","-0.153784325258401","-0.000394443966575719","-0.000662583957705138","-0.0261297424294084","-0.0267110212184036","-0.00724038638203056","-0.00213337726315794","0.000376269481424502","0.00251042803263051","0.0453777870117319","0.0472030539709801","1600","10%"
"t = 0.811519173999043","0.0494112724538607","-0.160237241240759","-0.000539531985663511","-0.000326452833113882","-0.0270490607913509","-0.026721253171719","0.0525437509320874","-0.163354243090704","-0.0001482093671853","-0.000546150873928919","-0.0275520314178134","-0.028303396034976","-0.00713664772204876","-0.00230427502234678","0.000325041564457941","0.00269451986314516","0.0449393271358977","0.0469580022697814","1600","10%"
"t = 0.821777663161577","0.0406097945106252","-0.169041275626038","-0.000382869927606711","-8.21328700139367e-05","-0.0284680633887596","-0.0280509428985993","0.0433660086788298","-0.172658046912703","3.53958316442989e-05","-0.000547653464395119","-0.0291061831847228","-0.0300692484673108","-0.00698078797679305","-0.00243642175944968","0.000340801336590378","0.00295299769811892","0.044514378465216","0.0467291045999847","1600","10%"
"t = 0.832036152324111","0.031992325386211","-0.177518360833306","-0.000585631959711799","-0.000134198941603199","-0.0301268737580419","-0.0295674709526424","0.0343217413904887","-0.181672476264853","-0.000156103518653872","-0.000911766263815573","-0.0309247736322585","-0.0320915681662233","-0.00684928009366186","-0.00261216396647792","0.000334006209675083","0.00319232116075953","0.0440621078343667","0.0464756373967061","1600","10%"
"t = 0.842294641486646","0.0235869125964096","-0.185645763034462","-0.00108334707641408","-0.000477624619573729","-0.0320603927838287","-0.0313627456684277","0.0254392878108555","-0.190372935265338","-0.00067768377591689","-0.00165482595260787","-0.0330585925941372","-0.0344750867348049","-0.00683587846005458","-0.0029063331552165","0.000237663187603056","0.00333807609115045","0.043504688250571","0.046111525991018","1600","10%"
"t = 0.85255313064918","0.0153904746860269","-0.193429974015643","-0.0015512931944878","-0.000801508085167815","-0.0338056124532584","-0.0329657254260094","0.0167195940560924","-0.198763810295606","-0.00116320748513736","-0.00244225894156799","-0.0350091510065308","-0.0367368513354501","-0.00679634522587968","-0.00317738055256154","0.000200940013576065","0.00355188954160199","0.0429527134705365","0.0457623670138583","1600","10%"
"t = 0.862811619811714","0.00741049925119374","-0.200874571248168","-0.0015548513373175","-0.000598866843717437","-0.0351955637820733","-0.0341686321225863","0.00817304654680553","-0.206846075677654","-0.00115809118889548","-0.00276066917892278","-0.0366087660191962","-0.0386756712330973","-0.00672942350342542","-0.00344599729276622","0.000177541583914662","0.00379732354678406","0.0423985634062039","0.045421848442328","1600","10%"
"t = 0.873070108974249","-0.000320084497193304","-0.207946443308591","-0.00119399774234923","-1.28436070793541e-05","-0.0361803716734644","-0.0349396231067506","-0.00016526115056655","-0.214582835269942","-0.000754421843889207","-0.00275168402332213","-0.037788211670061","-0.0402511770470427","-0.00675728002320031","-0.00381052580275148","0.000114437255496245","0.00402013940150492","0.0417871059457444","0.045038825356243","1600","10%"
"t = 0.883328598136783","-0.00782781041685146","-0.214679482531531","-0.00133175479861432","0.00012734080581588","-0.0376476126337454","-0.0361632963520157","-0.0083177137955408","-0.222004558921161","-0.000901393291201294","-0.0033085454388807","-0.0395099503853285","-0.0423817697911019","-0.0067009096541384","-0.00410186145969679","0.000115776607616214","0.00429677672912643","0.0412073973767969","0.0446736959289934","1600","10%"
"t = 0.893587087299317","-0.0150921010348078","-0.221043018707906","-0.00119787694007474","0.000590500415565191","-0.0388850446054149","-0.0371145581710493","-0.016259870329033","-0.229075968956461","-0.000755545695827122","-0.00362684724022836","-0.0410091753366744","-0.0443318983061199","-0.00663275353019645","-0.00438843452645057","0.000164025581870989","0.00463312935404481","0.0406474241924554","0.04433543840683","1600","10%"
"t = 0.903845576461852","-0.0220701218059492","-0.227023681434563","-0.000987810636687657","0.001141180917581","-0.0400703809180725","-0.0379983092113512","-0.0239453780003809","-0.235778842100948","-0.00052679901135015","-0.00394813890377756","-0.0424662384627412","-0.0463008248888643","-0.00673979769133696","-0.00484537524900294","7.27533896471342e-05","0.00483236090824852","0.0399839014494695","0.0438932531014489","1600","10%"
"t = 0.914104065624386","-0.0288310018115236","-0.232640680541226","-0.00120441163254436","0.00131986311542387","-0.0414413470555679","-0.0390328798945973","-0.0314362913582798","-0.242127246310117","-0.000757675701335434","-0.00475886318824526","-0.0441341602681319","-0.0485188714936182","-0.00667617144570512","-0.00515785888598402","0.000157270028254437","0.00519800283975461","0.0394397688884272","0.0435645718400167","1600","10%"
"t = 0.92436255478692","-0.0353001477991086","-0.237884845631054","-0.00137878584290177","0.00154279604376525","-0.0427496627805948","-0.0399983749829925","-0.0386527048719243","-0.248106580848826","-0.000953132276281803","-0.00562588978019759","-0.0457618617381518","-0.0507586683112689","-0.00673332570075265","-0.00558164911165473","0.000141734617308071","0.00545944746228708","0.0387828347180473","0.0431168563465339","1600","10%"
"t = 0.934621043949454","-0.0414698711238382","-0.242755054447255","-0.00121003316140752","0.00211416657438829","-0.0438183745108019","-0.0407079308546463","-0.0455803319471311","-0.253709878895072","-0.000769802500124863","-0.00623397939245038","-0.0471417947657411","-0.0528294199634823","-0.00694326609040435","-0.0061616375930196","9.08187365400434e-08","0.00560024092823868","0.0380356956674778","0.0425804483688876","1600","10%"
"t = 0.944879533111989","-0.0474271118922506","-0.247276191676859","-0.000975329427666298","0.00281396328029069","-0.0446034444892067","-0.0410964099697127","-0.0523017833788635","-0.258955727080911","-0.000516632733154882","-0.0068407758315588","-0.048229885643","-0.0546900301936283","-0.0069970855186796","-0.00659977880734472","6.23811195664901e-05","0.00594793278797439","0.0374220251440406","0.04218292547307","1600","10%"
"t = 0.955138022274523","-0.0530984250645322","-0.251445329999008","-0.00116000938861899","0.00317778197044563","-0.0458075739301418","-0.0418549401847294","-0.0587366269910376","-0.263835036916058","-0.000738502645790624","-0.00789897244497075","-0.0497949042942207","-0.0569988799347731","-0.00712807553782357","-0.00710423992564038","2.75937383666101e-05","0.00618094148119185","0.0367045956862538","0.0416600599330093","1600","10%"
"t = 0.965396511437057","-0.058547722542613","-0.255265932065506","-0.00102696200208676","0.00384569454483449","-0.0466792002646366","-0.0422780555044227","-0.0649419109293277","-0.268344442818956","-0.000583713476881284","-0.00877788263029726","-0.0509964814017349","-0.0590904532770654","-0.00714087861478515","-0.00750845596632013","0.000156876887706185","0.00658195599071905","0.0361597712123168","0.0413129849291849","1600","10%"
"t = 0.975655000599592","-0.0637173502272808","-0.258744483502596","-0.00105535965299254","0.00439210085761455","-0.0476386335289643","-0.0427503090835438","-0.0708523610168009","-0.272483883244645","-0.000623331994567197","-0.0098721647935417","-0.0523146134231186","-0.0612909969252461","-0.00722836398775372","-0.00797885890732169","0.000237979703326281","0.00691891493683375","0.0355295813421156","0.0408668196967557","1600","10%"
"t = 0.985913489762126","-0.0685557354388236","-0.261850094758828","-0.000915143449250903","0.00518720414762856","-0.0483369437473676","-0.0429114612088263","-0.0764063944715725","-0.276215217255998","-0.000468640555381282","-0.0108094598133819","-0.0533512760570262","-0.0632536146740779","-0.00750939844430758","-0.00862058290309355","0.00015992975616322","0.00709876647383319","0.034768985593714","0.040290946569325","1600","10%"
"t = 0.99617197892466","-0.073211314490466","-0.264657267130834","-0.000912384630716906","0.00593704608292359","-0.049214486591244","-0.0431706303357921","-0.0817507832062496","-0.279606802967038","-0.000472578456171584","-0.011921528616041","-0.05459538440694","-0.0654062526485932","-0.00762447715290936","-0.00911698400659876","0.000246874166041008","0.00743537064890751","0.0341710060834643","0.0398671686286098","1600","10%"
"t = 1.00643046808719","-0.0775852670836194","-0.267133509038414","-0.000683345855249104","0.00688394717696172","-0.049700866475933","-0.0430816061927228","-0.0867757706820198","-0.282619074936739","-0.000229878942167167","-0.0129506723015491","-0.0554182564096393","-0.067307389309265","-0.00782373195327968","-0.00969084367860047","0.000298087562454102","0.00772431702001093","0.0335480749455662","0.0394107598995976","1600","10%"
"t = 1.01668895724973","-0.0816991332307183","-0.269299907877614","-0.000506581652446725","0.00780342602844008","-0.0503276003409806","-0.0430984369350707","-0.0914965305181674","-0.285266420998646","-5.38576464563191e-05","-0.0141010590830206","-0.0564029695571718","-0.0693583477602502","-0.00806276487719784","-0.010303097653821","0.000309218051084094","0.00795808600250852","0.0328570191389143","0.0388703100074781","1600","10%"
"t = 1.02694744641226","-0.0856129979150862","-0.2711949366613","-0.000662705452694651","0.0083460402883394","-0.051212660533206","-0.0434251172623018","-0.0959684993845636","-0.287581099166366","-0.000247924088946018","-0.0157332629291446","-0.0576716158746042","-0.0717580152488711","-0.00824907937704649","-0.0108576277960041","0.000399702171715545","0.00823460368637475","0.0322448754471485","0.0383761527646199","1600","10%"
"t = 1.0372059355748","-0.0892731796743868","-0.272782430002169","-0.000714555997989823","0.00906562247283977","-0.0519974954255321","-0.0436087774163159","-0.100127181195074","-0.289520272850761","-0.000338614158772283","-0.0172553199471678","-0.058833818605064","-0.0740399056987664","-0.00846394512949428","-0.0114383060846694","0.000445385649138248","0.00846337387493909","0.0315782200008244","0.0378209203412659","1600","10%"
"t = 1.04746442473733","-0.0926851036514091","-0.274099726148698","-0.000540950847050146","0.0100965335038049","-0.0525317612518251","-0.0434719389947835","-0.103972540793178","-0.291115451967816","-0.000160598689240293","-0.0185848959090634","-0.0597146692707449","-0.0760897212762437","-0.00874200704702658","-0.0120756107241812","0.000497565268095144","0.00869596734296496","0.0309167585751398","0.0372684764793244","1600","10%"
"t = 1.05772291389987","-0.095848978650108","-0.275130454012575","-0.000529681123149944","0.0109725340163502","-0.0530323765234722","-0.0432871414265948","-0.107497165301402","-0.292344305722433","-0.000184874825087641","-0.0201103649494108","-0.0605592613153657","-0.0780924321449509","-0.00907245257436295","-0.0127541622949979","0.000480445979547284","0.00883134264381824","0.0301819395090815","0.03662581128544","1600","10%"
"t = 1.0679814030624","-0.0987455848441436","-0.275907532788183","-0.00039222219791369","0.0119589292213809","-0.0534528696647848","-0.0430445272862447","-0.110676519491515","-0.29323445256246","-6.60181449264817e-05","-0.0215947183940743","-0.0613061992403676","-0.0800573338978187","-0.00951296288399593","-0.0135194445996631","0.000396005058912304","0.00887889300042959","0.0293990335012629","0.0359154223645608","1600","10%"
"t = 1.07823989222493","-0.10146015371526","-0.276448761566521","-0.000400564616095169","0.0128145857098606","-0.0539838719417622","-0.0429047684678169","-0.113590680465463","-0.293798650092129","-0.00012211757460755","-0.0232243956235568","-0.0621690362387862","-0.0821054781876879","-0.00990228654741546","-0.0142416695649967","0.000343191361923693","0.00893628397621738","0.0286864953341487","0.0352570400632038","1600","10%"
"t = 1.08849838138747","-0.103995585246574","-0.276768819158454","-3.62905337874779e-05","0.0140127244704894","-0.054109226720344","-0.0423894235844465","-0.116240213804062","-0.29404706235918","0.000234219644457544","-0.0246106513132856","-0.0625867989118621","-0.0838340276953261","-0.0102642489884281","-0.0149288321720407","0.000365301168750794","0.0090556871550963","0.0280263018551764","0.0346413147487181","1600","10%"
"t = 1.09875687055","-0.10632495202552","-0.276862440194049","-7.50256121774319e-05","0.014817975753695","-0.0545352255494959","-0.0421659672813724","-0.118589131151947","-0.293970072522194","0.000127501988369537","-0.0263663835391309","-0.0633170745006808","-0.0857695743188908","-0.0106416966684022","-0.0156228989194689","0.000340167234039359","0.00909372532165057","0.0273090626154805","0.0339425079897466","1600","10%"
"t = 1.10901535971254","-0.108490090332815","-0.276769863985129","-0.000145035189446036","0.0157072499712609","-0.0550382779252839","-0.0419664698301913","-0.120679301907574","-0.293604410743977","-2.44150062588766e-05","-0.0281046343206482","-0.0641173159267304","-0.0877178535345548","-0.0110106316996725","-0.0162971693765535","0.000346999868255717","0.00915937779912132","0.0266497723054567","0.033291210737434","1600","10%"
"t = 1.11927384887507","-0.110460971633315","-0.27648116871728","-0.000200520674536233","0.0166285542629878","-0.0554621808688689","-0.0416510613975452","-0.122473783272368","-0.292936879780279","-0.000143158731005084","-0.0298257556796788","-0.0648068808426026","-0.0895489243448742","-0.0114102831093286","-0.0169960103154541","0.00032312697205744","0.00917460730304862","0.0259764329416597","0.0326148112631063","1600","10%"
"t = 1.12953233803761","-0.112251589293669","-0.276006491897689","-0.000143469930432015","0.0175448030230723","-0.0557757660696368","-0.0413181070936008","-0.123981795176501","-0.291975000120222","-0.000134826086147193","-0.0314895741571832","-0.0653388989040668","-0.0912354530289773","-0.0118217893904292","-0.0176971835379954","0.000307149678053592","0.00916659629922779","0.0252731484934421","0.0318862200090856","1600","10%"
"t = 1.13979082720014","-0.113938124907997","-0.275383296825026","5.46644929707077e-06","0.0186887723724222","-0.0560211988390727","-0.0408325620440616","-0.125284470332103","-0.29075412918724","-4.27100033354855e-05","-0.0330419195822068","-0.0657995233713752","-0.0928201382463412","-0.0121560747413316","-0.0183146469610316","0.000372974372646171","0.00923922343715488","0.0246688779491441","0.0312512319843185","1600","10%"
"t = 1.15004931636267","-0.115391296842024","-0.274586697680228","0.000166137497784285","0.0198416291140042","-0.0561131186748368","-0.0401880243748361","-0.126239551253703","-0.289247743442375","5.921193115309e-05","-0.034517240099535","-0.0660607182732112","-0.0941732677506056","-0.0126076845932127","-0.0190343744967903","0.000325754419031242","0.00918140221756529","0.0239638704707706","0.0305066056489589","1600","10%"
"t = 1.16030780552521","-0.116675506584295","-0.273642075997892","0.000394479058956713","0.020885335208382","-0.0561491354517062","-0.0396321834963258","-0.126913515117361","-0.287480205327818","0.000243062594668935","-0.0359951680644838","-0.0662241496247598","-0.0954430497366628","-0.0131002994168728","-0.019784446827192","0.000239149433396429","0.0090375160040049","0.0232211536968848","0.029690535999121","1600","10%"
"t = 1.17056629468774","-0.117853104876783","-0.272565806899139","0.0003047262483755","0.0216410468191217","-0.056415555370611","-0.0392903815147849","-0.12737062650217","-0.285467432244893","7.52386321176451e-05","-0.0376206906745104","-0.0665896104737451","-0.0967522003725292","-0.013534581881036","-0.0204687920474205","0.000188124342542642","0.00891298988293544","0.0225175730559459","0.0289028079518739","1600","10%"
"t = 1.18082478385028","-0.118953942300162","-0.271374288153667","0.000488513090701938","0.0228142342618294","-0.0564120916260358","-0.0385618733269605","-0.127643305257328","-0.283225975991014","0.000146343056880746","-0.0391023413436314","-0.0667045331628219","-0.0978856700937547","-0.0139018709636302","-0.0210793058315206","0.000257307408177524","0.00890524118203921","0.0219107821971822","0.0282092693551749","1600","10%"
"t = 1.19108327301281","-0.119939323590014","-0.270062211194903","0.000511295796642021","0.0236734130285906","-0.0565693268193982","-0.0381204371726403","-0.127688172716188","-0.280751056707288","6.40314467950002e-05","-0.0406780724424737","-0.0669357902804236","-0.099062003637559","-0.0142538257004174","-0.0216639762204451","0.000296894283489941","0.00882870120012927","0.0213150682658239","0.027497196036506","1600","10%"
"t = 1.20134176217535","-0.120783095540872","-0.268641004835961","0.000482034099056942","0.0244943088406129","-0.0566870247996791","-0.0376190095374256","-0.127477861982162","-0.278055256380317","-7.55019392111896e-05","-0.0421808279320512","-0.0670730495110853","-0.10003702512646","-0.0146382365153798","-0.0222706198238172","0.000299596519839695","0.00870633004566152","0.0206763566001649","0.0267415756354603","1600","10%"
"t = 1.21160025133788","-0.121500249239823","-0.267132087552266","0.000324318632142688","0.0251194063091944","-0.0569262073828979","-0.0373138703154779","-0.127031213310199","-0.275161736579112","-0.000316058326371177","-0.0436382150527025","-0.0672620821080721","-0.100950962583651","-0.0150470333667885","-0.0228841220391237","0.000240528314465364","0.0085063971972105","0.0200141547719399","0.0259479150368222","1600","10%"
"t = 1.22185874050041","-0.122152199741317","-0.265536600095884","0.000362581646559795","0.0259490491846843","-0.0569173922828722","-0.0367356425786127","-0.126413084877772","-0.27207366432645","-0.000391781821518183","-0.044947629517777","-0.0672240842776289","-0.101670285424372","-0.0153983341305735","-0.0234388079048851","0.000256996928030144","0.00836058737380958","0.0194359202678918","0.0252247416420936","1600","10%"
"t = 1.23211722966295","-0.122722951646147","-0.26387671805987","0.000355748309941509","0.026722727798963","-0.0570028866824039","-0.0362882440783638","-0.125610303365992","-0.268815871220034","-0.000530109159029973","-0.0462562054454878","-0.0672401578950092","-0.102348888791654","-0.015745064725462","-0.0239729237558228","0.000299044358882686","0.00822782627171633","0.0188622102461663","0.0244962847103948","1600","10%"
"t = 1.24237571882548","-0.123180585311272","-0.262143024647793","0.00029113307091498","0.0273587106904124","-0.0571441823476368","-0.0359476480713997","-0.124589487090991","-0.265382057038085","-0.000673669814290164","-0.0473895803525688","-0.0672064789492787","-0.102816515286409","-0.0161099059939877","-0.0245263535342353","0.000231808386672846","0.00797007145423011","0.0182033267696989","0.0236779931375017","1600","10%"
"t = 1.25263420798802","-0.123543780365669","-0.260336234646698","0.000544048320970339","0.0283768369069434","-0.0569132665348134","-0.0351758969038046","-0.123371365164195","-0.261776292893108","-0.000574248045681101","-0.0483684764017549","-0.0668514454648561","-0.103060566702101","-0.0164739363348757","-0.0250545171910631","0.000269721756937344","0.00780438657482886","0.0176395007959781","0.0229467176059138","1600","10%"
