"","ame.cox","ame.po","ame.kmdr.clog","ame.kmdr.logit","ame.dr.ig.clog","ame.mdr.ig.logit","me.cox.x = 0.5","me.po.x = 0.5","me.kmdr.clog.x = 0.5","me.kmdr.logit.x = 0.5","me.dr.ig.clog.x = 0.5","me.dr.ig.logit.x = 0.5","cdf.cox.x = 0.5","cdf.po.x = 0.5","cdf.kmdr.clog.x = 0.5","cdf.kmdr.logit.x = 0.5","cdf.dr.ig.clog.x = 0.5","cdf.dr.ig.logit.x = 0.5","n","cens.level"
"t = 0.497423894309699","-0.00329023537863145","-0.0670926930423661","0.000428102430508977","0.00273825614505035","0.000428102430508977","0.00273825614505035","-0.00252286376343902","-0.0462752129586149","0.00432060558678184","0.00110378785577547","0.00432060558678184","0.00110378785577547","0.00117844515844322","-0.00945895762946138","-0.000159515804269948","0.000390551124676816","-0.000159515804269948","0.000390551124676816","400","0%"
"t = 0.520605609033673","-0.00293533498332232","-0.0694037778835524","0.000832029933217703","0.00350413046232219","0.000832029933217703","0.00350413046232219","-0.00218709693027656","-0.0497028907880871","0.00469988988190794","0.000942752007543537","0.00469988988190794","0.000942752007543537","0.000999401847205532","-0.0102354263685283","-0.000343631376660896","0.000312162929846908","-0.000343631376660896","0.000312162929846908","400","0%"
"t = 0.543787323757646","-0.00284157256521622","-0.07175060189703","0.000740282941199447","0.00382772419505323","0.000740282941199447","0.00382772419505323","-0.00210433818793787","-0.0535558444055174","0.00457429514314739","0.000222387907959675","0.00457429514314739","0.000222387907959675","0.000922381502399643","-0.0108858993501518","-0.000443950040984673","0.00033621311100053","-0.000443950040984673","0.00033621311100053","400","0%"
"t = 0.56696903848162","-0.00280249184561419","-0.0738587811206645","0.000244473035129838","0.0037695947578458","0.000244473035129838","0.0037695947578458","-0.00207217444364174","-0.0575385845630951","0.00397344928247096","-0.00105941108412188","0.00397344928247096","-0.00105941108412188","0.000888332724692988","-0.0114570935882868","-0.000439267213865099","0.000484442266534734","-0.000439267213865099","0.000484442266534734","400","0%"
"t = 0.590150753205593","-0.00263938837041346","-0.0754973412290178","0.000916101990765063","0.00478377941871883","0.000916101990765063","0.00478377941871883","-0.00193159683803554","-0.0614320775053295","0.00426140254636857","-0.0014809219178597","0.00426140254636857","-0.0014809219178597","0.000762401523483614","-0.0120767722299185","-0.000481637406948756","0.000589938954832878","-0.000481637406948756","0.000589938954832878","400","0%"
"t = 0.613332467929567","-0.00255841884820077","-0.0769123589097139","0.00198132642380012","0.00624087895122408","0.00198132642380012","0.00624087895122408","-0.00188313221580091","-0.0654660656353166","0.00484111972188624","-0.0016091124377055","0.00484111972188624","-0.0016091124377055","0.000712903491704574","-0.0125722973960491","-0.00042430656757013","0.000812147839599269","-0.00042430656757013","0.000812147839599269","400","0%"
"t = 0.63651418265354","-0.00289725877127635","-0.0784661244789765","0.000721150885249391","0.00549830927805858","0.000721150885249391","0.00549830927805858","-0.00225214958107701","-0.0700567329444853","0.00361201668562915","-0.00374237735459401","0.00361201668562915","-0.00374237735459401","0.000899374105411032","-0.0127918735255782","-0.000303024864302307","0.00113313643539896","-0.000303024864302307","0.00113313643539896","400","0%"
"t = 0.659695897377513","-0.00289434324946634","-0.0793122026478327","0.00086549284727767","0.00608246074992063","0.00086549284727767","0.00608246074992063","-0.00229432333473012","-0.0741934923792604","0.00349540054816922","-0.00472141829262008","0.00349540054816922","-0.00472141829262008","0.000914026941427978","-0.0131173211165101","-0.000214669512761402","0.00142527815373241","-0.000214669512761402","0.00142527815373241","400","0%"
"t = 0.682877612101487","-0.00287059511225751","-0.0798073305283212","0.00149716801136432","0.00722652097375188","0.00149716801136432","0.00722652097375188","-0.00232361424616097","-0.0782827123820527","0.00392230747713106","-0.00519373969206588","0.00392230747713106","-0.00519373969206588","0.000889301067873337","-0.0134215639338679","-0.000268798208131189","0.00159267191760658","-0.000268798208131189","0.00159267191760658","400","0%"
"t = 0.70605932682546","-0.0028506108508005","-0.0799805243989089","0.00128140844915805","0.00756701273162357","0.00128140844915805","0.00756701273162357","-0.00236469902073851","-0.0822993480225606","0.0035572321709128","-0.00656500584051203","0.0035572321709128","-0.00656500584051203","0.000897414137714541","-0.013627279622085","-0.000235824308064014","0.00188005561620429","-0.000235824308064014","0.00188005561620429","400","0%"
"t = 0.729241041549434","-0.00298321275808492","-0.0799848419402739","0.000714916213592025","0.00753250826738607","0.000714916213592025","0.00753250826738607","-0.00256843533069876","-0.0864019620976286","0.0029546418668264","-0.00828735141963695","0.0029546418668264","-0.00828735141963695","0.000995946017186435","-0.0136840765291083","-0.000149646496998637","0.00223573482344881","-0.000149646496998637","0.00223573482344881","400","0%"
"t = 0.752422756273407","-0.00243252977820907","-0.0790100442665099","0.000888908810418247","0.00826523956076572","0.000888908810418247","0.00826523956076572","-0.00206313291033833","-0.0894833326952019","0.00295735626685369","-0.00929901576546308","0.00295735626685369","-0.00929901576546308","0.00064893655494044","-0.0141093790945409","-0.000486837055367003","0.00218423110786003","-0.000486837055367003","0.00218423110786003","400","0%"
"t = 0.775604470997381","-0.00268611660253455","-0.0785368725320767","-0.00019874848829376","0.00782840025626978","-0.00019874848829376","0.00782840025626978","-0.00241858885462383","-0.0934664097438506","0.00177894163617041","-0.0116233169488042","0.00177894163617041","-0.0116233169488042","0.000836006636856705","-0.0139387568847509","-0.000383998718549102","0.0026183667464638","-0.000383998718549102","0.0026183667464638","400","0%"
"t = 0.798786185721354","-0.00281019336844259","-0.077647083316648","0.00101458682267138","0.00947240233911952","0.00101458682267138","0.00947240233911952","-0.00264297622249408","-0.0970853091303577","0.00251823713094468","-0.0118960444222953","0.00251823713094468","-0.0118960444222953","0.000958978835077891","-0.013768771628665","-5.29898739515728e-05","0.0032677078215404","-5.29898739515728e-05","0.0032677078215404","400","0%"
"t = 0.821967900445328","-0.00263479267039737","-0.0761928526758363","0.00110389789578886","0.0100841728384247","0.00110389789578886","0.0100841728384247","-0.00256784234427417","-0.10012287305469","0.00237385971441232","-0.0131647330102144","0.00237385971441232","-0.0131647330102144","0.000873987880579365","-0.0137344285169429","-0.00012645357346544","0.00355024588567032","-0.00012645357346544","0.00355024588567032","400","0%"
"t = 0.845149615169301","-0.00275690827916414","-0.0747550234051087","0.000792695314625378","0.0103825532855055","0.000792695314625378","0.0103825532855055","-0.00283433464351825","-0.103263073459068","0.00180898663752964","-0.0148268541849365","0.00180898663752964","-0.0148268541849365","0.00102097501188004","-0.0134011805395719","4.84017620935904e-05","0.00411435826202308","4.84017620935904e-05","0.00411435826202308","400","0%"
"t = 0.868331329893275","-0.00266812469729699","-0.0729132835800832","0.00100924022264243","0.0110914993930508","0.00100924022264243","0.0110914993930508","-0.002866212846323","-0.105863405049924","0.00172657040180569","-0.0160422535042715","0.00172657040180569","-0.0160422535042715","0.00100801292060421","-0.0131634687933704","9.17467758401951e-05","0.00455594990800618","9.17467758401951e-05","0.00455594990800618","400","0%"
"t = 0.891513044617248","-0.00249780424478622","-0.0707728124898518","0.000626054022295822","0.011288209613294","0.000626054022295822","0.011288209613294","-0.00282811962317281","-0.108017233734739","0.00122806966185256","-0.0176718445794487","0.00122806966185256","-0.0176718445794487","0.000946518583986595","-0.0129073260943443","2.48428597415595e-05","0.00492079815264753","2.48428597415595e-05","0.00492079815264753","400","0%"
"t = 0.914694759341222","-0.00222090343145226","-0.0683736733041432","0.00100450265740258","0.0121173357082567","0.00100450265740258","0.0121173357082567","-0.00263309588054615","-0.109698497073434","0.00135964026685453","-0.0185888297004312","0.00135964026685453","-0.0185888297004312","0.000770213748313807","-0.0127148588595826","-0.000125420826503525","0.00520325465127921","-0.000125420826503525","0.00520325465127921","400","0%"
"t = 0.937876474065195","-0.00213013052481595","-0.0659588719873565","0.00197876437756993","0.0134732006143878","0.00197876437756993","0.0134732006143878","-0.00266210657438236","-0.11126592461062","0.00210436739057084","-0.018814578007949","0.00210436739057084","-0.018814578007949","0.000750369693612497","-0.0123052322921572","-1.86767322141328e-05","0.00575440309887989","-1.86767322141328e-05","0.00575440309887989","400","0%"
"t = 0.961058188789168","-0.00201390629173262","-0.0633429963427236","0.00222503914826848","0.0140242786857998","0.00222503914826848","0.0140242786857998","-0.00270132764875682","-0.112386741518531","0.00205413771702804","-0.0200528102397718","0.00205413771702804","-0.0200528102397718","0.000747060628930788","-0.0118202059686331","4.1826135465763e-05","0.00630149620048062","4.1826135465763e-05","0.00630149620048062","400","0%"
"t = 0.984239903513142","-0.00185316465844927","-0.0605607130008425","0.00114476173792634","0.0133978070346033","0.00114476173792634","0.0133978070346033","-0.00267043474672015","-0.113001715291828","0.000780893364670279","-0.0224549540155116","0.000780893364670279","-0.0224549540155116","0.0007009373014064","-0.0113313904654124","-0.000161207026775009","0.00662643434066373","-0.000161207026775009","0.00662643434066373","400","0%"
"t = 1.00742161823712","-0.00169332953711789","-0.0576529886863405","0.000331162050960225","0.0129813281194292","0.000331162050960225","0.0129813281194292","-0.00265430854967279","-0.113183154902519","-0.000344120882204844","-0.0246079130911344","-0.000344120882204844","-0.0246079130911344","0.000641466997667657","-0.0108079992190003","-0.000254969582484698","0.00708549636521344","-0.000254969582484698","0.00708549636521344","400","0%"
"t = 1.03060333296109","-0.0018214522991611","-0.0548608799528402","-0.000393356556012581","0.0125170192353271","-0.000393356556012581","0.0125170192353271","-0.00301397930467152","-0.11327096043204","-0.00148105419603497","-0.026697408143538","-0.00148105419603497","-0.026697408143538","0.000895475012714005","-0.00991394852432377","3.09420155393577e-05","0.00794651955638886","3.09420155393577e-05","0.00794651955638886","400","0%"
"t = 1.05378504768506","-0.0015957195211248","-0.0517205131758656","-1.54798724966029e-05","0.0131006985488496","-1.54798724966029e-05","0.0131006985488496","-0.00293232467474892","-0.112451136738463","-0.00129589016133821","-0.0273119464284721","-0.00129589016133821","-0.0273119464284721","0.000763031790294335","-0.00939204492475286","-7.73100654719373e-05","0.00838837986907376","-7.73100654719373e-05","0.00838837986907376","400","0%"
"t = 1.07696676240904","-0.00148006285730725","-0.0485991861322179","-0.000466904585569134","0.012778769607229","-0.000466904585569134","0.012778769607229","-0.00297513212352636","-0.111298920718423","-0.00208461084677757","-0.0290519990903506","-0.00208461084677757","-0.0290519990903506","0.000738262790717057","-0.00872352604155923","-0.000210795591848188","0.00884691264121956","-0.000210795591848188","0.00884691264121956","400","0%"
"t = 1.10014847713301","-0.00139446334934425","-0.0454416542546807","-8.98091415377155e-05","0.013245748877732","-8.98091415377155e-05","0.013245748877732","-0.00302627941605489","-0.109627370546667","-0.00198520359847649","-0.0295666190101778","-0.00198520359847649","-0.0295666190101778","0.000782829036434974","-0.0079554670926936","-0.000148895620942961","0.00949481193985435","-0.000148895620942961","0.00949481193985435","400","0%"
"t = 1.12333019185698","-0.00133728076861414","-0.042254188374967","-6.12147828004683e-05","0.013306090067435","-6.12147828004683e-05","0.013306090067435","-0.0031498525920552","-0.107508613385388","-0.00231870604559351","-0.0303503012954199","-0.00231870604559351","-0.0303503012954199","0.000869840199442757","-0.00712772453226922","-1.99575918291049e-05","0.010234169078101","-1.99575918291049e-05","0.010234169078101","400","0%"
"t = 1.14651190658096","-0.00116636725495393","-0.0389551711996411","0.000826779291801722","0.0141584267831753","0.000826779291801722","0.0141584267831753","-0.00313068271079592","-0.104765823455765","-0.00160185404698082","-0.0297602187702595","-0.00160185404698082","-0.0297602187702595","0.000810832016200497","-0.00643728241303549","3.07589858385421e-05","0.0108663000113114","3.07589858385421e-05","0.0108663000113114","400","0%"
"t = 1.16969362130493","-0.000978620119309319","-0.035636689336406","0.000786488204273686","0.0140408011868734","0.000786488204273686","0.0140408011868734","-0.00308635229545022","-0.101505149442365","-0.00193865381544997","-0.0302474172654224","-0.00193865381544997","-0.0302474172654224","0.000706112384716746","-0.00578972151036226","-2.93379708768514e-05","0.0114308432771534","-2.93379708768514e-05","0.0114308432771534","400","0%"
"t = 1.1928753360289","-0.000875892161135039","-0.0323691201700717","0.000981885110844263","0.0139899729386493","0.000981885110844263","0.0139899729386493","-0.00314253285207913","-0.0978518825798759","-0.00197038050479473","-0.0304497379420436","-0.00197038050479473","-0.0304497379420436","0.000700723213193418","-0.00503879948063748","-6.85495315953317e-05","0.0120114101621026","-6.85495315953317e-05","0.0120114101621026","400","0%"
"t = 1.21605705075288","-0.000750429105851163","-0.0290880507760556","0.00101480590756393","0.0137289233364466","0.00101480590756393","0.0137289233364466","-0.00318713877629481","-0.0936798808084378","-0.00222493177883376","-0.0306593405469795","-0.00222493177883376","-0.0306593405469795","0.000695882064617975","-0.00428434889735183","-4.57762845330636e-05","0.0126707163811204","-4.57762845330636e-05","0.0126707163811204","400","0%"
"t = 1.23923876547685","-0.000614730769200759","-0.0258198815728469","0.00100997536140209","0.0135016374535025","0.00100997536140209","0.0135016374535025","-0.00316586929034028","-0.0889625846008514","-0.00240470951479892","-0.0303884648029701","-0.00240470951479892","-0.0303884648029701","0.000673744125090994","-0.00357228714075786","-3.94444125013627e-05","0.0133047964349922","-3.94444125013627e-05","0.0133047964349922","400","0%"
"t = 1.26242048020082","-0.000520759430378688","-0.0225961976710131","0.000503433915276659","0.0126812639942926","0.000503433915276659","0.0126812639942926","-0.00322621224158666","-0.0838358239808204","-0.00347446617156047","-0.0309513330400842","-0.00347446617156047","-0.0309513330400842","0.000722010380257786","-0.00279927812545312","4.14163144870858e-05","0.0140512429339017","4.14163144870858e-05","0.0140512429339017","400","0%"
"t = 1.2856021949248","-0.000486991606133086","-0.0194181698735511","0.000209247323964453","0.0119908174491112","0.000209247323964453","0.0119908174491112","-0.0034268845069755","-0.0783102514478871","-0.00418269147913062","-0.030821606733507","-0.00418269147913062","-0.030821606733507","0.00097431249547092","-0.00183256034819161","0.000306007560873399","0.0149730787160482","0.000306007560873399","0.0149730787160482","400","0%"
"t = 1.30878390964877","-0.000454646459137867","-0.0162677312743353","-2.46974779899747e-05","0.0111445725912572","-2.46974779899747e-05","0.0111445725912572","-0.00362096923488579","-0.0723417981286585","-0.00482914790368538","-0.0306372552840747","-0.00482914790368538","-0.0306372552840747","0.00125218099246456","-0.000869124819863762","0.0006315345216341","0.0159517221477906","0.0006315345216341","0.0159517221477906","400","0%"
"t = 1.33196562437274","-0.000226138041872587","-0.0131068479144111","-0.000189992589335334","0.0103259192693201","-0.000189992589335334","0.0103259192693201","-0.00341537333097741","-0.06586301988499","-0.00526299075532393","-0.0301523951492543","-0.00526299075532393","-0.0301523951492543","0.000987963546222549","-0.000509096266255191","0.000287161893051536","0.0162317711129912","0.000287161893051536","0.0162317711129912","400","0%"
"t = 1.35514733909672","-0.000110127508521514","-0.0100348569839783","-0.000252755636354009","0.00941002914884658","-0.000252755636354009","0.00941002914884658","-0.00343300954450987","-0.0591097293458061","-0.00566118973336335","-0.0295320676939656","-0.00566118973336335","-0.0295320676939656","0.00100208926110195","0.000113172606451857","0.000314060793639975","0.0168964697355147","0.000314060793639975","0.0168964697355147","400","0%"
"t = 1.37832905382069","-6.68356311439237e-05","-0.00699734932491228","-0.000357153704767997","0.00848076595649685","-0.000357153704767997","0.00848076595649685","-0.00365969705776249","-0.0520235045402024","-0.00624267217003212","-0.0286434699115569","-0.00624267217003212","-0.0286434699115569","0.00136404564491504","0.00106630637338841","0.000743119558538423","0.0179630775169379","0.000743119558538423","0.0179630775169379","400","0%"
"t = 1.40151076854466","0.00013642723241255","-0.00401624888768","0.000249453724102082","0.00808975867221343","0.000249453724102082","0.00808975867221343","-0.0034377801624911","-0.0445858562142248","-0.00546574791503841","-0.0264024539353951","-0.00546574791503841","-0.0264024539353951","0.00106849477322632","0.00127314533254444","0.00053021698247898","0.0182994821420477","0.00053021698247898","0.0182994821420477","400","0%"
"t = 1.42469248326864","0.000250147490800374","-0.00114515713425304","0.000183711948835849","0.00710532744147933","0.000183711948835849","0.00710532744147933","-0.00336173045382452","-0.0369834954885918","-0.00563322809960286","-0.0248113162002938","-0.00563322809960286","-0.0248113162002938","0.000911705373960983","0.00158067579065303","0.00035805828548383","0.018695561179933","0.00035805828548383","0.018695561179933","400","0%"
"t = 1.44787419799261","0.000369902679594039","0.0016912910064374","0.000178035816759352","0.00617491955505224","0.000178035816759352","0.00617491955505224","-0.00327199199837675","-0.0291302740724924","-0.00574960713301702","-0.0229716345387316","-0.00574960713301702","-0.0229716345387316","0.000781170277254128","0.00186635260394511","0.000191215930861576","0.0190751164638306","0.000191215930861576","0.0190751164638306","400","0%"
"t = 1.47105591271658","0.000467203550867726","0.00443776181749913","0.000159740003474197","0.0048841126508422","0.000159740003474197","0.0048841126508422","-0.00320670597681149","-0.0211476512015107","-0.00601364196690121","-0.0214321078012475","-0.00601364196690121","-0.0214321078012475","0.000613508177330598","0.00207052780564373","7.53458576559926e-05","0.0195221216536589","7.53458576559926e-05","0.0195221216536589","400","0%"
"t = 1.49423762744056","0.000506913806133217","0.00711895149369696","8.72490853119174e-05","0.00373515906663466","8.72490853119174e-05","0.00373515906663466","-0.003240737161997","-0.0130048813911424","-0.00626278137081176","-0.0192127271662737","-0.00626278137081176","-0.0192127271662737","0.000616887366635441","0.00239215421855051","5.56498960703613e-05","0.0200080755365881","5.56498960703613e-05","0.0200080755365881","400","0%"
"t = 1.51741934216453","0.000592326607191222","0.00975234338525435","0.000300050292700987","0.00268819703776759","0.000300050292700987","0.00268819703776759","-0.00318903761375468","-0.00472426703881594","-0.00617478999910479","-0.0166432843999303","-0.00617478999910479","-0.0166432843999303","0.000512073095644664","0.0025468483703875","3.05173329916558e-05","0.0204783457459567","3.05173329916558e-05","0.0204783457459567","400","0%"
"t = 1.54060105688851","0.000643796391871713","0.0122464129056809","0.000153857091213453","0.0013643836057881","0.000153857091213453","0.0013643836057881","-0.00307202393141549","0.00348752729117997","-0.00642102782454442","-0.0141424091859829","-0.00642102782454442","-0.0141424091859829","0.000148162012358371","0.00237846602767974","-0.000373348232118793","0.0205209864567967","-0.000373348232118793","0.0205209864567967","400","0%"
"t = 1.56378277161248","0.000671896119754568","0.0147884904202608","0.000109248782268869","5.97450972604325e-05","0.000109248782268869","5.97450972604325e-05","-0.00314685098627539","0.0119816233738116","-0.00663482779040798","-0.0111733983357721","-0.00663482779040798","-0.0111733983357721","0.000353748649024761","0.00273025598493393","-4.38973791119512e-05","0.0212766610366199","-4.38973791119512e-05","0.0212766610366199","400","0%"
"t = 1.58696448633645","0.000681808425339634","0.0171098571685986","0.000121657513371426","-0.00131297830063784","0.000121657513371426","-0.00131297830063784","-0.00303831895067717","0.0201972478068029","-0.0065055601064237","-0.00818483881201511","-0.0065055601064237","-0.00818483881201511","-6.31546088779246e-05","0.00239312664829814","-0.000489564171257905","0.0212219359919852","-0.000489564171257905","0.0212219359919852","400","0%"
"t = 1.61014620106043","0.00068446826775693","0.0194405155920049","0.000289115320888454","-0.00252452080418939","0.000289115320888454","-0.00252452080418939","-0.00302787495421224","0.0285247539322483","-0.00613707505372187","-0.00459870813025993","-0.00613707505372187","-0.00459870813025993","-0.000175787747739965","0.00230190680680903","-0.000533359290167279","0.0215235335471793","-0.000533359290167279","0.0215235335471793","400","0%"
"t = 1.6333279157844","0.000677727479878074","0.0217316441490034","4.80233228595427e-05","-0.00417764600605431","4.80233228595427e-05","-0.00417764600605431","-0.00299932939757047","0.0367770319232688","-0.00658699553290957","-0.00171706726288645","-0.00658699553290957","-0.00171706726288645","-0.000305770907435462","0.00214826934610961","-0.000653035032048767","0.0217609709319663","-0.000653035032048767","0.0217609709319663","400","0%"
"t = 1.65650963050837","0.000659209458715213","0.0239405741000675","0.000290839842524547","-0.0053865254980246","0.000290839842524547","-0.0053865254980246","-0.00299468736177847","0.0448719561240834","-0.00608746536096624","0.00222934515474967","-0.00608746536096624","0.00222934515474967","-0.0004672170518741","0.00190320457039711","-0.000766761005034481","0.0219240932283605","-0.000766761005034481","0.0219240932283605","400","0%"
"t = 1.67969134523235","0.000599368993856499","0.026076633374751","-0.00029674026791923","-0.00740365234468472","-0.00029674026791923","-0.00740365234468472","-0.00304759438037592","0.0528634665714004","-0.00698470490318252","0.00511087222437373","-0.00698470490318252","0.00511087222437373","-0.000548105871391768","0.00168476598706336","-0.000769113529053297","0.0222203760345161","-0.000769113529053297","0.0222203760345161","400","0%"
"t = 1.70287305995632","0.000611830375521425","0.0282516588330647","-0.00035028444780177","-0.0090259515318063","-0.00035028444780177","-0.0090259515318063","-0.00301638596219191","0.0608261057853175","-0.00700472674218617","0.00865306745932392","-0.00700472674218617","0.00865306745932392","-0.000538956539530817","0.00149265848607816","-0.000734664022801434","0.0224935619221834","-0.000734664022801434","0.0224935619221834","400","0%"
"t = 1.72605477468029","0.000590783558082771","0.0303506637729426","-0.000682662231283913","-0.0108149109319252","-0.000682662231283913","-0.0108149109319252","-0.00302583934207016","0.0685469882540515","-0.00745531279153038","0.0120661355615129","-0.00745531279153038","0.0120661355615129","-0.000568822431029591","0.00121540470399172","-0.000755911021843989","0.0226632232829483","-0.000755911021843989","0.0226632232829483","400","0%"
"t = 1.74923648940427","0.000484700965312031","0.0322827425699108","-0.000750617125726746","-0.0123649126582113","-0.000750617125726746","-0.0123649126582113","-0.00309948158959327","0.0758468371309946","-0.00762966452439503","0.01571024823475","-0.00762966452439503","0.01571024823475","-0.000767407228813909","0.000720975123047425","-0.000918555946736379","0.0226569474441648","-0.000918555946736379","0.0226569474441648","400","0%"
"t = 1.77241820412824","0.000410772357651184","0.0342171289508166","-0.000768047677896399","-0.013931119268826","-0.000768047677896399","-0.013931119268826","-0.00312614248220827","0.0830353383040619","-0.00749418575372485","0.0196709994791389","-0.00749418575372485","0.0196709994791389","-0.000893853610189717","0.000246783381760407","-0.000963011751442934","0.022734423177179","-0.000963011751442934","0.022734423177179","400","0%"
"t = 1.79559991885221","0.000300402474947623","0.0360808051524827","-0.000928485115378524","-0.0155365379034602","-0.000928485115378524","-0.0155365379034602","-0.00316839888444009","0.0899033023464414","-0.00775376121571269","0.0234339218707085","-0.00775376121571269","0.0234339218707085","-0.00105220926973408","-0.000306162390170971","-0.00112489524704724","0.0226427189678575","-0.00112489524704724","0.0226427189678575","400","0%"
"t = 1.81878163357619","0.00032769487800669","0.0381201387295234","-0.000632491323894604","-0.0168368182230757","-0.000632491323894604","-0.0168368182230757","-0.00309838509859712","0.0968675794764445","-0.00708244270385203","0.0279085719222845","-0.00708244270385203","0.0279085719222845","-0.000835215786027233","-0.000543890008175577","-0.000932641256883864","0.0228631092370891","-0.000932641256883864","0.0228631092370891","400","0%"
"t = 1.84196334830016","0.000467164606938477","0.0402589107093931","-0.000303663827383153","-0.0179573747202062","-0.000303663827383153","-0.0179573747202062","-0.00290163838419661","0.103790714667786","-0.00640584148418705","0.032785531497959","-0.00640584148418705","0.032785531497959","-0.000467550922644181","-0.000680392123005308","-0.000534755095228049","0.0232101838679946","-0.000534755095228049","0.0232101838679946","400","0%"
"t = 1.86514506302413","0.000515148422511018","0.0422300502632703","-0.000206776228764987","-0.0193818934976654","-0.000206776228764987","-0.0193818934976654","-0.0027471274775604","0.110152960104599","-0.00596540509689898","0.0370230932290088","-0.00596540509689898","0.0370230932290088","-0.000316292270061559","-0.00106566701927795","-0.000405087676392916","0.0232993887682562","-0.000405087676392916","0.0232993887682562","400","0%"
"t = 1.88832677774811","0.000549062026055408","0.0441453754769664","-0.000312349838077201","-0.0209043075177975","-0.000312349838077201","-0.0209043075177975","-0.00261265667646273","0.116184351913936","-0.00594125527135871","0.041235099452668","-0.00594125527135871","0.041235099452668","-0.000184233120883406","-0.00150522729574889","-0.000243181454714885","0.0233461182910789","-0.000243181454714885","0.0233461182910789","400","0%"
"t = 1.91150849247208","0.000615066662949099","0.0460817612413037","9.8929157482709e-05","-0.0220289158175354","9.8929157482709e-05","-0.0220289158175354","-0.00242587779867781","0.121967884433331","-0.00519505133321241","0.045882887792892","-0.00519505133321241","0.045882887792892","2.26453195001078e-05","-0.0019047612657791","3.97183869201033e-05","0.0234903568108792","3.97183869201033e-05","0.0234903568108792","400","0%"
"t = 1.93469020719605","0.000582950357363531","0.047851187078565","-0.000535384337244637","-0.0241455401057148","-0.000535384337244637","-0.0241455401057148","-0.00233295660224869","0.127145754079651","-0.00611360709677091","0.0490582496600733","-0.00611360709677091","0.0490582496600733","3.45635571284856e-05","-0.00251663967052814","0.000164427435782523","0.023498124735452","0.000164427435782523","0.023498124735452","400","0%"
"t = 1.95787192192003","0.000515900664540291","0.0495413220516546","-0.00102915929218314","-0.0261562577720157","-0.00102915929218314","-0.0261562577720157","-0.00229974259080127","0.131878151844284","-0.00692424021560317","0.0521956377241652","-0.00692424021560317","0.0521956377241652","-5.37360238785988e-06","-0.00319727902073851","0.000185948096894992","0.0233730200960292","0.000185948096894992","0.0233730200960292","400","0%"
"t = 1.981053636644","0.000423968655125981","0.0511719360236554","-0.00138490150664435","-0.027950018014376","-0.00138490150664435","-0.027950018014376","-0.00226962238845954","0.136241800770659","-0.00729579927730105","0.0556003933144609","-0.00729579927730105","0.0556003933144609","-6.16783860804607e-05","-0.00392091586670236","0.000186439129012747","0.0231596102487129","0.000186439129012747","0.0231596102487129","400","0%"
"t = 2.00423535136797","0.000487736233693001","0.0529755565983711","-0.000884293194297508","-0.0287939236110967","-0.000884293194297508","-0.0287939236110967","-0.00203693224274778","0.140532400401635","-0.00616157942873477","0.0602469314367115","-0.00616157942873477","0.0602469314367115","9.65050109183849e-05","-0.00446536269810976","0.000402424642855949","0.0230692010679522","0.000402424642855949","0.0230692010679522","400","0%"
"t = 2.02741706609195","0.000363935379671589","0.0545067723208122","-0.000921755804650333","-0.0301247416515272","-0.000921755804650333","-0.0301247416515272","-0.00207530977292928","0.144084135147823","-0.00591081835716361","0.0637478883593889","-0.00591081835716361","0.0637478883593889","-6.75678135081026e-06","-0.00526132596288557","0.000247875620811832","0.0226171910458255","0.000247875620811832","0.0226171910458255","400","0%"
"t = 2.05059878081592","0.000382565645773349","0.0561799008464259","-0.000556992426866731","-0.0312107535815767","-0.000556992426866731","-0.0312107535815767","-0.0019042331007623","0.147546929191347","-0.0051827408716008","0.067621556484739","-0.0051827408716008","0.067621556484739","6.88496247813889e-05","-0.00591119043246274","0.000377778266444774","0.0224208818213877","0.000377778266444774","0.0224208818213877","400","0%"
"t = 2.0737804955399","0.000357810392705209","0.0577524789599488","-0.000599356995427299","-0.0324562142797211","-0.000599356995427299","-0.0324562142797211","-0.00174899601218309","0.150536783850734","-0.00481966700596906","0.0710270386877826","-0.00481966700596906","0.0710270386877826","6.08588103129501e-05","-0.00664998439064002","0.000321860788396688","0.0220006296334994","0.000321860788396688","0.0220006296334994","400","0%"
"t = 2.09696221026387","0.000386619667218841","0.0593802139160147","-0.000411872168730633","-0.0334072087080212","-0.000411872168730633","-0.0334072087080212","-0.00151450559642368","0.153314058566998","-0.00418687562687235","0.0746436372140924","-0.00418687562687235","0.0746436372140924","0.000156426232683142","-0.00729836270743118","0.000461618100160076","0.0217184980348682","0.000461618100160076","0.0217184980348682","400","0%"
"t = 2.12014392498784","0.000469820541149021","0.0610401068840868","-0.000982172796291206","-0.0350721485823614","-0.000982172796291206","-0.0350721485823614","-0.00117428450111952","0.155815335143684","-0.00463073507348844","0.0777135808704881","-0.00463073507348844","0.0777135808704881","0.000312839741888791","-0.00789900370204148","0.000814194090502712","0.0216175705009488","0.000814194090502712","0.0216175705009488","400","0%"
"t = 2.14332563971182","0.000384829016760642","0.0624510703765004","-0.00146542308273699","-0.0365520595774707","-0.00146542308273699","-0.0365520595774707","-0.00109519669504873","0.157637174118629","-0.00493621026317417","0.0804571145820038","-0.00493621026317417","0.0804571145820038","0.000274792301352425","-0.00867966853340586","0.000879350559260374","0.0212032425838201","0.000879350559260374","0.0212032425838201","400","0%"
"t = 2.16650735443579","0.000228491791104161","0.0637453836087028","-0.00169120570578392","-0.0379154795737903","-0.00169120570578392","-0.0379154795737903","-0.00110680015429126","0.158977676672562","-0.00492331268745635","0.0829149868239642","-0.00492331268745635","0.0829149868239642","0.000140674660911892","-0.00954054704268534","0.000770483270275134","0.0206468690013118","0.000770483270275134","0.0206468690013118","400","0%"
"t = 2.18968906915976","0.000147344948455909","0.0651029544115164","-0.00214112808947336","-0.0393219729830329","-0.00214112808947336","-0.0393219729830329","-0.00105316362900269","0.160077788381216","-0.0052142248030768","0.085209560776137","-0.0052142248030768","0.085209560776137","0.000118748290321702","-0.0102917523241445","0.000919506731143298","0.0202808576274691","0.000919506731143298","0.0202808576274691","400","0%"
"t = 2.21287078388374","0.000104430823243503","0.0664582959791653","-0.00239529252598636","-0.0405692189091893","-0.00239529252598636","-0.0405692189091893","-0.000957742081711732","0.160868900248089","-0.00508638499676302","0.0873147448066502","-0.00508638499676302","0.0873147448066502","9.89530196214668e-05","-0.0110365746574823","0.000919412623020946","0.0197814409511176","0.000919412623020946","0.0197814409511176","400","0%"
"t = 2.23605249860771","-4.20884606192556e-05","0.0676812831508456","-0.0024061534483904","-0.0416434424973671","-0.0024061534483904","-0.0416434424973671","-0.000989360191398801","0.161230454918584","-0.00457735718431978","0.0894441612052379","-0.00457735718431978","0.0894441612052379","-6.36955875323076e-06","-0.011846164403954","0.000869606344430753","0.0192366704340922","0.000869606344430753","0.0192366704340922","400","0%"
"t = 2.25923421333168","-0.000258999320768866","0.0687877731169529","-0.00244642957734014","-0.0425431456114615","-0.00244642957734014","-0.0425431456114615","-0.00114523411076645","0.161176419922068","-0.00423199639492014","0.0912150626973521","-0.00423199639492014","0.0912150626973521","-0.000155161823350099","-0.0126831002403164","0.000690884775263956","0.0185483399537601","0.000690884775263956","0.0185483399537601","400","0%"
"t = 2.28241592805566","-0.000496624243479707","0.0698304698955382","-0.00310822514895804","-0.0440423450658798","-0.00310822514895804","-0.0440423450658798","-0.00134388484630103","0.160808019037856","-0.00481143855041403","0.0923762093780502","-0.00481143855041403","0.0923762093780502","-0.000296019654673257","-0.0135007073257532","0.000673903881887005","0.0179986352441912","0.000673903881887005","0.0179986352441912","400","0%"
"t = 2.30559764277963","-0.00054954286900616","0.0710603816045282","-0.00302992182149477","-0.0447892434125369","-0.00302992182149477","-0.0447892434125369","-0.0012289772319908","0.160410403018254","-0.00429688900237757","0.0938457127324786","-0.00429688900237757","0.0938457127324786","-0.000280245090214154","-0.014163635704065","0.000606017326123109","0.0173964191358909","0.000606017326123109","0.0173964191358909","400","0%"
"t = 2.3287793575036","-0.000648725442536087","0.0721933735017132","-0.00353244221808844","-0.0460631230033814","-0.00353244221808844","-0.0460631230033814","-0.00124251524286067","0.1596303152505","-0.00453429455086752","0.0949644837543762","-0.00453429455086752","0.0949644837543762","-0.000315399357829331","-0.0148504713514637","0.000711927689332909","0.0169294631240998","0.000711927689332909","0.0169294631240998","400","0%"
"t = 2.35196107222758","-0.00060538126142029","0.0734420192482342","-0.00370551280660876","-0.0466965622528299","-0.00370551280660876","-0.0466965622528299","-0.000937429755746292","0.158801866850168","-0.00413326786899595","0.0963885534893296","-0.00413326786899595","0.0963885534893296","-0.000252647293179829","-0.015446434056433","0.000831588961052868","0.0163972980229612","0.000831588961052868","0.0163972980229612","400","0%"
"t = 2.37514278695155","-0.000625159516641812","0.0745771752530498","-0.00389667455089321","-0.0473832711146788","-0.00389667455089321","-0.0473832711146788","-0.000772063600909548","0.157601755884612","-0.00379925030645171","0.0975721749676868","-0.00379925030645171","0.0975721749676868","-0.000244042773641411","-0.0160631546004263","0.0010041139639107","0.0159181112491442","0.0010041139639107","0.0159181112491442","400","0%"
"t = 2.39832450167552","-0.00072300788203015","0.075601550192777","-0.00446703717104349","-0.0485182825280877","-0.00446703717104349","-0.0485182825280877","-0.000767360576851596","0.156060489592593","-0.00390767602100209","0.0981172736480109","-0.00390767602100209","0.0981172736480109","-0.000289188076422411","-0.0167025249102585","0.00106112249384305","0.0153647921901642","0.00106112249384305","0.0153647921901642","400","0%"
"t = 2.4215062163995","-0.000590843337488509","0.0768267391708921","-0.00478577449786209","-0.0494411430420634","-0.00478577449786209","-0.0494411430420634","-0.000350358460391742","0.154576630894742","-0.00337015168187463","0.0990662133576236","-0.00337015168187463","0.0990662133576236","-0.000181955996643772","-0.0171877476118444","0.0013318115879249","0.0150067366183929","0.0013318115879249","0.0150067366183929","400","0%"
"t = 2.44468793112347","-0.000606258342337976","0.0778344221448514","-0.00501132958524846","-0.0502552284452098","-0.00501132958524846","-0.0502552284452098","-0.000213652922617432","0.152654793346173","-0.00291658653397046","0.0994903431150179","-0.00291658653397046","0.0994903431150179","-0.000171026016202656","-0.017735149411456","0.00137589182336805","0.014463639934194","0.00137589182336805","0.014463639934194","400","0%"
"t = 2.46786964584744","-0.000594249891287397","0.0788531062122505","-0.00546729962743233","-0.0510306258659915","-0.00546729962743233","-0.0510306258659915","-2.94948533737706e-05","0.150600697888298","-0.00271864926612614","0.0997203633901965","-0.00271864926612614","0.0997203633901965","-0.000136576424647197","-0.018231737030364","0.00156847318436218","0.0140188146008521","0.00156847318436218","0.0140188146008521","400","0%"
"t = 2.49105136057142","-0.000492308437699013","0.0799268995854002","-0.00546750179461527","-0.0512059016066055","-0.00546750179461527","-0.0512059016066055","0.000296907781218455","0.148493276868059","-0.00190269497209676","0.100165372230615","-0.00190269497209676","0.100165372230615","-2.36917620860075e-05","-0.018640019807773","0.00170255268976335","0.0134845739544713","0.00170255268976335","0.0134845739544713","400","0%"
"t = 2.51423307529539","-0.00034444886702556","0.0810141613922681","-0.00552806185543032","-0.0515157497934973","-0.00552806185543032","-0.0515157497934973","0.000682555420608324","0.146255090746277","-0.0011716495596466","0.10037312201288","-0.0011716495596466","0.10037312201288","0.00010603991435678","-0.0190007799604915","0.0019018938065391","0.0130485467469702","0.0019018938065391","0.0130485467469702","400","0%"
"t = 2.53741479001936","-0.000231062538448286","0.0819884775815612","-0.00563447063260275","-0.0520167286769634","-0.00563447063260275","-0.0520167286769634","0.00103891010751688","0.143739670818417","-0.000375005240633907","0.100336938496738","-0.000375005240633907","0.100336938496738","0.000164805291640153","-0.0193966976462238","0.00200405505109412","0.012566673929435","0.00200405505109412","0.012566673929435","400","0%"
"t = 2.56059650474334","-0.000147648534312335","0.0828802779277028","-0.00582393901225808","-0.0525528858025836","-0.00582393901225808","-0.0525528858025836","0.00131792922472625","0.141036621177201","0.000522903324435603","0.100173716075904","0.000522903324435603","0.100173716075904","0.000214104520094213","-0.0197754978493036","0.00210168223760466","0.0120904568013553","0.00210168223760466","0.0120904568013553","400","0%"
"t = 2.58377821946731","-0.000153377207525135","0.0836524441376468","-0.00607163930930846","-0.0529755399252362","-0.00607163930930846","-0.0529755399252362","0.00146674286278689","0.138121699692622","0.00127295346490674","0.0997217335966316","0.00127295346490674","0.0997217335966316","0.000211155139335222","-0.0201730888075214","0.00217821536295243","0.0115684964321529","0.00217821536295243","0.0115684964321529","400","0%"
"t = 2.60695993419129","-0.000301794492808979","0.0842277064509096","-0.00657956257195436","-0.0534283862925595","-0.00657956257195436","-0.0534283862925595","0.00137285815206854","0.134922032810033","0.00159661548004642","0.0988127636905613","0.00159661548004642","0.0988127636905613","0.000138791916809818","-0.0206050808495707","0.00213556528321986","0.0109163076121255","0.00213556528321986","0.0109163076121255","400","0%"
"t = 2.63014164891526","-0.000195516942082635","0.0850294578045523","-0.00611965299450457","-0.0530578006543016","-0.00611965299450457","-0.0530578006543016","0.00169829378407209","0.131898720436159","0.00268075001812563","0.0981175501237687","0.00268075001812563","0.0981175501237687","0.000192054788585325","-0.0208928975293618","0.00209927013613181","0.0103709616457344","0.00209927013613181","0.0103709616457344","400","0%"
"t = 2.65332336363923","-8.97640849814048e-05","0.0857823044833142","-0.00597337581754469","-0.052856290775116","-0.00597337581754469","-0.052856290775116","0.00198498519565917","0.128744863706676","0.0036656071187625","0.0973466758329908","0.0036656071187625","0.0973466758329908","0.000233542054430418","-0.0211569847831767","0.00213561782806722","0.00984789066072435","0.00213561782806722","0.00984789066072435","400","0%"
"t = 2.67650507836321","-0.000172475844409651","0.0862724813014949","-0.00619969773456923","-0.0531146383365934","-0.00619969773456923","-0.0531146383365934","0.00195034618256265","0.125274887946623","0.00403381008305338","0.0958892918750831","0.00403381008305338","0.0958892918750831","0.000162750309658484","-0.021488675897338","0.00199060274790461","0.00922112841413872","0.00199060274790461","0.00922112841413872","400","0%"
"t = 2.69968679308718","3.04951555304819e-05","0.0870517775054582","-0.0058825051464213","-0.0527260129981751","-0.0058825051464213","-0.0527260129981751","0.00240046105353003","0.122096388747092","0.00550525218441896","0.0951652830492155","0.00550525218441896","0.0951652830492155","0.000253323609287433","-0.0216467766414101","0.00209194816983415","0.00879711644899193","0.00209194816983415","0.00879711644899193","400","0%"
"t = 2.72286850781115","-6.45204997164794e-05","0.0874573791791899","-0.00559167869025245","-0.0520678226267894","-0.00559167869025245","-0.0520678226267894","0.00229123315293619","0.1185091744532","0.006291333328533","0.0936554166469172","0.006291333328533","0.0936554166469172","0.000199015904264795","-0.0219105438265117","0.0019169402953469","0.00813511118949066","0.0019169402953469","0.00813511118949066","400","0%"
"t = 2.74605022253513","-1.34753891050817e-05","0.0879745793193317","-0.00613180005404166","-0.0525188549269211","-0.00613180005404166","-0.0525188549269211","0.00243550258626542","0.11503236424209","0.00683972764007649","0.0923161482759051","0.00683972764007649","0.0923161482759051","0.000213239881534634","-0.0220831570583924","0.00203340167432832","0.00773472323558545","0.00203340167432832","0.00773472323558545","400","0%"
"t = 2.7692319372591","-0.000113001632115306","0.0882844660200731","-0.00706838620453816","-0.0530156537136338","-0.00706838620453816","-0.0530156537136338","0.00231026385192895","0.111345303347648","0.00705029439738275","0.0905660191229743","0.00705029439738275","0.0905660191229743","0.000150749916672302","-0.0223015579518632","0.00213799727529466","0.00727676065660422","0.00213799727529466","0.00727676065660422","400","0%"
"t = 2.79241365198307","-0.000246494092452086","0.0885277495742592","-0.00694234493879722","-0.0525743617755123","-0.00694234493879722","-0.0525743617755123","0.00215316261675094","0.107612223743351","0.00755494597620857","0.0889381946972847","0.00755494597620857","0.0889381946972847","8.45608338337145e-05","-0.022501258144501","0.00207069631363125","0.00676901713042518","0.00207069631363125","0.00676901713042518","400","0%"
