"","ame.cox","ame.po","ame.kmdr.clog","ame.kmdr.logit","ame.dr.ig.clog","ame.mdr.ig.logit","me.cox.x = 0.5","me.po.x = 0.5","me.kmdr.clog.x = 0.5","me.kmdr.logit.x = 0.5","me.dr.ig.clog.x = 0.5","me.dr.ig.logit.x = 0.5","cdf.cox.x = 0.5","cdf.po.x = 0.5","cdf.kmdr.clog.x = 0.5","cdf.kmdr.logit.x = 0.5","cdf.dr.ig.clog.x = 0.5","cdf.dr.ig.logit.x = 0.5","n","cens.level"
"t = 0.498107133663685","-0.0104214785987801","-0.0666377835724462","-0.0130919817664734","-0.00867269649692886","-0.0131575789237626","-0.00929738016420719","-0.00575168933875381","-0.0458950502770794","0.0122228731165619","0.0076007519720446","0.0110629906055318","0.00644927712788317","0.00187108526939267","-0.00513744347732028","-0.00296678852268129","-0.00246462275555908","-0.0036745169940235","-0.00318250451212148","100","30%"
"t = 0.521279345422736","-0.00850180155323635","-0.0676620147576828","-0.0125099005595869","-0.00764201970731621","-0.00825102310000926","-0.00413577808180161","-0.00384089726556575","-0.0481775370500633","0.0121699810226492","0.00683747591731943","0.00853614880664323","0.00339268777651022","0.000692289503073575","-0.00603536678956865","-0.00344941859890281","-0.00284133337994193","0.00485081623769162","0.00552006598862283","100","30%"
"t = 0.544451557181786","-0.00831972224386051","-0.0689547076988147","-0.0130338938807177","-0.0076038582824057","-0.00769568640064849","-0.0031250375351512","-0.00359215209781702","-0.0511206932913827","0.0113865393730015","0.00511582747677084","0.00551672105124594","-0.000560790644933902","0.000436228615463868","-0.00660856971226998","-0.00385211461620939","-0.00312229878962599","0.0128768479261355","0.0137344776506543","100","30%"
"t = 0.567623768940837","-0.00833599720503087","-0.0701543560484155","-0.0115265036634537","-0.00566933718662766","-0.00258148366621416","0.00229640741048362","-0.00362302178448099","-0.0543668547653437","0.0114063768809242","0.00427916065705683","0.00530809086544522","-0.00135980350828004","0.000474256204387311","-0.00692391337054055","-0.00360439314464876","-0.00272799412126294","0.0218095556930685","0.0228742324329577","100","30%"
"t = 0.590795980699887","-0.00836782076912232","-0.0709086505390426","-0.0132526156030252","-0.00678686282459949","-0.000808657518551836","0.00441625244082315","-0.00364262154366426","-0.0575428270654533","0.00931611309439034","0.00105342591749673","0.00379946772467844","-0.00367529595441636","0.000361970992144382","-0.00736740797697363","-0.00391555932764731","-0.00287265511094668","0.0293101229635845","0.0306089200137037","100","30%"
"t = 0.613968192458938","-0.00901007066611624","-0.0720360265508645","-0.0130690233396539","-0.00595073585350541","0.00328451470787883","0.00900370862746829","-0.004267408007542","-0.0614412680333063","0.00836169926651524","-0.000939093696375005","0.00423923140490531","-0.00378642354388129","0.000540011690714094","-0.00750477954323777","-0.00362269840390233","-0.00238858668563105","0.0377749228923756","0.0393306753766303","100","30%"
"t = 0.637140404217988","-0.00868467355839374","-0.072314936164458","-0.0107300616214041","-0.0030083128649868","0.00979643960165966","0.0156519529619215","-0.00398114274150662","-0.0647475198426483","0.00860660712722474","-0.001622918982016","0.00713286149275878","-0.00130060007845023","0.000211952452634266","-0.00779451247137472","-0.00338381356654933","-0.00193830021901095","0.0455968332160383","0.0473804177629842","100","30%"
"t = 0.660312615977038","-0.00880778464332077","-0.0722119683379538","-0.0112198204347155","-0.0027267609037347","0.0133986882716402","0.0196512736797378","-0.00416634299278683","-0.0678566010839807","0.00704271509926549","-0.00428621079600269","0.00771889142062838","-0.00100197143835245","0.000123643292724432","-0.00811680182471271","-0.00357287821347278","-0.0018840873335862","0.0534677875304356","0.0555217522051615","100","30%"
"t = 0.683484827736089","-0.00869864717478267","-0.0718673236219807","-0.0101790252212771","-0.00100476068093562","0.019544370957346","0.0261142495064513","-0.00414716142035071","-0.0710505135229782","0.00660262107263637","-0.00577896615114441","0.010939216027558","0.00206053424393598","4.46722193283129e-05","-0.00823052440631541","-0.00345813082727368","-0.00151329002542729","0.0611442029283124","0.0634669493030972","100","30%"
"t = 0.706657039495139","-0.00896783501973914","-0.0715289363778721","-0.00874268243292537","0.00103062425224989","0.0245995668319487","0.03143535342304","-0.00458412080018407","-0.0746459082800512","0.0068810829617731","-0.00667669819509918","0.0137018283672524","0.00452345684073191","0.000131196162061893","-0.00810249118287884","-0.00292697090811205","-0.00072404336011546","0.0686206232469072","0.0712350613050656","100","30%"
"t = 0.72982925125419","-0.00883904983658992","-0.0703647304847008","-0.00908598791860813","0.00132462951239186","0.0260778769806637","0.0334303069103003","-0.00462352730183276","-0.0774127248569539","0.00578991210362039","-0.00917951287788583","0.0137647962519044","0.00398831767716255","-3.04380107003362e-05","-0.00829730910114805","-0.00325914935634079","-0.000774310435919463","0.0744890728299036","0.0774222641227951","100","30%"
"t = 0.75300146301324","-0.00777781652418847","-0.0684365051944528","-0.00508444615809576","0.00586420998251193","0.0330819425215851","0.0408419721019135","-0.00365688027047919","-0.0792929319409376","0.00817445952403601","-0.00763375904517694","0.0190529136166926","0.00948704085264523","-0.000759271723874119","-0.00880098989982749","-0.00336282276960267","-0.00061271757235547","0.0809413198111954","0.0841563349592808","100","30%"
"t = 0.776173674772291","-0.00807550699277127","-0.0671701295223552","-0.00398435023260071","0.00783062977508171","0.0398657399045162","0.0478967904286767","-0.00426572691683426","-0.0824159179416885","0.00819166843514643","-0.00880181636117682","0.0242742532223678","0.0145994194554563","-0.000638588110295252","-0.00853623193905671","-0.00327022845182935","-0.000169963194982965","0.0874428330630849","0.0909743735817129","100","30%"
"t = 0.799345886531341","-0.00890281055363454","-0.0660706184038103","-0.00456192644676542","0.00805431556547036","0.0438743856564181","0.0523331388734253","-0.00554869729397788","-0.0861637544471707","0.00612295974233732","-0.0122458667728022","0.027112106811707","0.0173895817121934","1.09794452907882e-06","-0.00772434291558408","-0.00254408674267352","0.000954828749866008","0.0936233607099277","0.0975005279141233","100","30%"
"t = 0.822518098290392","-0.00852455236955641","-0.0640450552868477","-0.000667980311792369","0.0123842875207586","0.0506069593103213","0.0592166417779511","-0.00546137059703334","-0.0885658013628859","0.00834675704623393","-0.0112150935814981","0.0329754932173698","0.0231957896435896","-0.00030588029798697","-0.00751298992759727","-0.00208572468208704","0.0017573060436459","0.0992274369683112","0.103420778084354","100","30%"
"t = 0.845690310049442","-0.00788066532408954","-0.061393829988692","0.00120808055314384","0.0148482997095605","0.0566477629347385","0.0654340757086772","-0.00518502038766487","-0.0902286704809251","0.00899586040885474","-0.0118359895751466","0.0384179458672023","0.0285181948159744","-0.000634525064757909","-0.0074092353840649","-0.00220834196203685","0.00202606384033628","0.103926766324394","0.108462541101197","100","30%"
"t = 0.868862521808493","-0.00757732456566669","-0.0586674443686573","0.000695747998852228","0.0149128049473425","0.0625785355479837","0.0715830434164975","-0.00528794665241919","-0.091729732648455","0.00690185132600447","-0.0151900027810769","0.0438891584976811","0.0341317775089103","-0.000716557113125165","-0.00714804352007866","-0.00227776204941198","0.00239766724688469","0.109320891889356","0.114193423857018","100","30%"
"t = 0.892034733567543","-0.0078616986383748","-0.0564003099491836","0.00351355586227562","0.0179255674548579","0.0689421168585906","0.0778054434494114","-0.0061979848142252","-0.0939343101162315","0.00760995463576022","-0.0154599355829767","0.050148822718524","0.0405747460748325","-0.000351554614050643","-0.00617123639703225","-0.00121751146501464","0.0039066535710564","0.114869417302526","0.120088281518976","100","30%"
"t = 0.915206945326594","-0.00783516378188888","-0.0534917208197812","0.000117580774180591","0.0153908471387739","0.0704482113244855","0.0797010994562336","-0.00683891071232781","-0.0953470725992111","0.00341291822758135","-0.0214231013600872","0.0515235198756535","0.0419380223636875","-0.000251876387014087","-0.00560135666511174","-0.00154866830618869","0.00411542776836058","0.119184625739846","0.124872861519535","100","30%"
"t = 0.938379157085644","-0.00771583371963882","-0.0505168118474122","-8.89024476608559e-05","0.0158194041137948","0.0744434951682771","0.0838379716134692","-0.00731237498958141","-0.096264986898356","0.00210831394378416","-0.0237914976738657","0.055596020706357","0.0461950067305247","-2.65161180025692e-05","-0.00468797005454592","-0.00126390808406168","0.00491993281230284","0.123449198003195","0.129571405859444","100","30%"
"t = 0.961551368844695","-0.00705696940227661","-0.0471426654084781","0.00255885112143692","0.0187273100272526","0.0818192142238536","0.0911378392546237","-0.00718120310830097","-0.0963851227428525","0.00331611484696254","-0.0234931314899122","0.0637061959865726","0.0547349021448386","-0.000297428377985354","-0.00409823215655615","-0.000993690816528709","0.00569069084312179","0.127288154732351","0.133731504540804","100","30%"
"t = 0.984723580603745","-0.00697996733909299","-0.0439281367978933","0.00340696741219938","0.0199837248618624","0.0865559058848366","0.0960047815632392","-0.00785111889488058","-0.0966245041071693","0.00228034054770571","-0.0253118446472718","0.068814397811755","0.0603703986994274","-3.60269495688148e-05","-0.00310606641496511","-0.000214475330463929","0.00704565195071539","0.131809791111189","0.13868807966111","100","30%"
"t = 1.0078957923628","-0.00647160411510642","-0.0402659404430148","0.00597139932664742","0.0230080330009591","0.0931723934404841","0.102823836006152","-0.00792045931780969","-0.0958885284864887","0.00342418347201857","-0.0247820211378474","0.0763068604336396","0.0686773072773143","-0.000157952093091742","-0.00249329903703057","-0.000399103571437896","0.00738248348709417","0.135557042010431","0.142801873020149","100","30%"
"t = 1.03106800412185","-0.0062412488813382","-0.0367252924304311","0.0077353597687984","0.0248500662294979","0.0992483133146209","0.108822392917829","-0.00849941534361985","-0.0950711661575365","0.00313769074848126","-0.0260308745639315","0.0827557744009906","0.0757822636126528","8.22309247503192e-05","-0.00152217587801683","0.000116687836433149","0.00848181399155209","0.139210768418529","0.146872306387996","100","30%"
"t = 1.0542402158809","-0.00581559155468231","-0.0329683487836603","0.00861176949333318","0.0258826279691596","0.10451056807299","0.114021856152212","-0.00889138757064891","-0.0935401953225039","0.00264888401840335","-0.0271111479531492","0.0893055310199251","0.0830760677807671","0.000144167053741176","-0.000612003106265601","0.000324950002976944","0.00927224118433345","0.141925617042757","0.149951664604362","100","30%"
"t = 1.07741242763995","-0.00540272263003048","-0.0291674705481344","0.00730668261552914","0.0244744095859109","0.107871985605412","0.116799948146769","-0.0093359008061392","-0.0915162614023722","-0.000356684955046106","-0.0313984346015315","0.0938983881686406","0.087992515089078","0.000361022709080586","0.000391494218245955","0.000990129543731216","0.0106132933585089","0.145840295201707","0.154320173383752","100","30%"
"t = 1.100584639399","-0.00472755194475531","-0.0252593212677511","0.00892140247315223","0.0259644302960606","0.11319694315539","0.121896575763292","-0.00933957458926766","-0.0887500150327268","0.000125596843436848","-0.0308880870125088","0.101054074587499","0.0962811106456172","9.89254521760478e-05","0.00105055448045774","0.00098220608452994","0.0111728097703597","0.147882577831263","0.156700520210968","100","30%"
"t = 1.12375685115805","-0.00410761251975743","-0.0212856837582462","0.00861865432388974","0.0256056927951083","0.119435544890634","0.127798986440869","-0.00941443193229539","-0.0855375482266401","-0.00140922787372906","-0.0330158987449046","0.109360279749783","0.105765181156391","7.37826183196371e-05","0.0018495898563049","0.000735049944918215","0.011566025616684","0.150072862960692","0.159206797216257","100","30%"
"t = 1.1469290629171","-0.00353087864077495","-0.0172144785958253","0.00888966551532033","0.0258636327684451","0.123296955969136","0.131327561634828","-0.00949913943106048","-0.0817074847769146","-0.00233829387855682","-0.0344162700719636","0.114904185165821","0.11225862189357","6.27136901322329e-07","0.00243877760227269","0.000448110348630005","0.0119340948127664","0.151821990831856","0.161374324052867","100","30%"
"t = 1.17010127467615","-0.00302147588911591","-0.0133485325778962","0.00602233894081386","0.023112690852514","0.126580974197399","0.134467036630903","-0.00971408652180448","-0.0778541967542088","-0.007868149292108","-0.0403911087865574","0.119520853549239","0.11838241703546","-2.98371258239242e-05","0.00337504375066508","0.000755016567197597","0.0130475730376464","0.154081739978387","0.164069337421111","100","30%"
"t = 1.1932734864352","-0.00266367094427047","-0.00955902883367608","0.0063343304328104","0.0229678494135386","0.1313552726249","0.138658423286423","-0.0101995922320573","-0.073620120131693","-0.00932453202010449","-0.0417129483094219","0.126372348304616","0.126624611447718","1.19374528431795e-05","0.00419848920294442","0.000543835332115202","0.0135099173895745","0.155496716420256","0.165845152492594","100","30%"
"t = 1.21644569819425","-0.0021407813961713","-0.00574295831035336","0.0050245370315264","0.0214700827747843","0.134193674881925","0.141059181469705","-0.0103802364923901","-0.0687229585353208","-0.0130003102576586","-0.0450145337915375","0.131263452895753","0.133267774818696","0.000120488136987923","0.00517598132898764","0.000834530526756518","0.0146379015097749","0.156877400084083","0.167628672741376","100","30%"
"t = 1.2396179099533","-0.00152562181345244","-0.00192111960023576","0.00641105592295131","0.0223433910296268","0.140560069531039","0.146925430204072","-0.0103111048635779","-0.0632063957960826","-0.012720722263294","-0.0433916976869735","0.140584331160926","0.144456331711993","-0.000128571124204875","0.00574104300401239","0.000996706089943291","0.0153960209827939","0.157816917269489","0.168758051436417","100","30%"
"t = 1.26279012171235","-0.000695604622705487","0.0020187980985085","0.00719169133946064","0.0223489797249425","0.146620621989932","0.152153372378589","-0.009975698821013","-0.0571021898470925","-0.0128994745823783","-0.0431436175946437","0.149896322037668","0.154933865723544","-0.000631852224014837","0.00614584209840458","0.000475026225102767","0.0155216576252942","0.158462412693065","0.169635210204984","100","30%"
"t = 1.2859623334714","-0.000213799199242639","0.00574420984087126","0.00925033370313327","0.024031088925965","0.152977382002358","0.158238616434479","-0.0103017632443448","-0.0509382580635039","-0.0112476734379468","-0.03944349631362","0.159417160111068","0.166643047421596","-0.000615245631794627","0.00687771045703888","0.000870557476310315","0.0164608277890326","0.159080844555805","0.170422656388065","100","30%"
"t = 1.30913454523045","0.000216768679602577","0.00939387086037375","0.00925450888692756","0.0235427911933025","0.157439338412917","0.162219962966539","-0.0106966799967066","-0.0444468481276414","-0.0138669083156428","-0.0398566039984549","0.166294444349576","0.175866104367069","-0.000569101525625846","0.00760905524577239","0.00125061234958815","0.0175621741236277","0.159863874212043","0.171459673731357","100","30%"
"t = 1.3323067569895","0.000651818498817134","0.0130403175457455","0.00930683079253367","0.0230519802999076","0.161741002809524","0.166040072180955","-0.0110240486071214","-0.0375086120383638","-0.0160150010023516","-0.0398488561683742","0.173593523018357","0.185369076769146","-0.000388060304125965","0.00849459522875999","0.00176189386336778","0.0187279781449566","0.160536723190333","0.172331945469097","100","30%"
"t = 1.35547896874855","0.00114868834123119","0.0166401429103215","0.0107452354049642","0.0236497106778102","0.167334343981852","0.17093965015685","-0.0109671348758922","-0.0301739660000976","-0.0148404916760405","-0.036964234764233","0.182531947883294","0.196086324005932","-0.000637343253960385","0.00883687677296869","0.00127064303512384","0.0187702688317625","0.159935105527465","0.17187281009325","100","30%"
"t = 1.3786511805076","0.00164018387600594","0.0201729353762174","0.0123182331206473","0.024502185702845","0.171776946808787","0.174648840834428","-0.0111453200537099","-0.022576442682845","-0.013738102472337","-0.033040778531122","0.19041505649295","0.205676615885419","-0.00060539310133017","0.00921654854368886","0.00169500287768723","0.0197603227971322","0.159525599034931","0.171641180037905","100","30%"
"t = 1.40182339226665","0.00213803135398053","0.0235614956534086","0.0139856473017668","0.0252987633219245","0.176879044463011","0.179271814315865","-0.0111761223851283","-0.0146982826593767","-0.0132271883717809","-0.0298251752885408","0.199113431337749","0.216700223408298","-0.000843645814330144","0.00953844234229672","0.0017967202458663","0.0203283482966402","0.158913763313988","0.171067847254145","100","30%"
"t = 1.4249956040257","0.00259596335537167","0.0268200521137638","0.0141389440910742","0.024442724895559","0.180961709328878","0.18254497157462","-0.011170144386266","-0.00670486940548376","-0.0150142013354993","-0.028844179957599","0.206159739109169","0.225825891156574","-0.00118098822636488","0.00982031178534258","0.00162010089957345","0.0207045771053274","0.15802956956327","0.170323511748815","100","30%"
"t = 1.44816781578476","0.00297699460735736","0.0300650665182062","0.0129818953515523","0.0220595831084789","0.182688651171889","0.183240493594369","-0.0114426344929656","0.00160199600230942","-0.0185262723057177","-0.028885975849988","0.210212441561825","0.232499101931056","-0.000922532065361391","0.0105761819456401","0.00252210311447798","0.0222684116635756","0.157958547992067","0.170486262926913","100","30%"
"t = 1.47134002754381","0.00333932622573427","0.0332855043445683","0.0146710623435713","0.0228704998933647","0.18696383345174","0.186770351208257","-0.0116356086752096","0.0100804086503915","-0.0173529617659412","-0.0232476016431649","0.217780377996347","0.242563182187805","-0.000659106699836357","0.0109877424837021","0.00301727856932763","0.0231213035533923","0.157325490933628","0.169878648059244","100","30%"
"t = 1.49451223930286","0.0036509538953089","0.0364141505943988","0.0148969745422801","0.022281318462675","0.19005878896321","0.189181259332721","-0.0119153603459703","0.0186108553351633","-0.0179292465142932","-0.0199579178408211","0.223846484128624","0.250982612083636","-0.000220833186704561","0.0115964194852606","0.00325384555039548","0.0237987848220586","0.15639119400623","0.169010815399744","100","30%"
"t = 1.51768445106191","0.00394249967661654","0.0394371954144212","0.015924287809291","0.0224384535002185","0.194106965298295","0.192665620120852","-0.012076754805589","0.0273613440756406","-0.0172627642458244","-0.0151548449994072","0.231123216519115","0.260761223887168","7.74527487306543e-05","0.0121501676697572","0.00383942719097818","0.0247945751092016","0.155685156104165","0.16828396449693","100","30%"
"t = 1.54085666282096","0.00437352315234273","0.0424949171821051","0.0159347226276269","0.0211410300425278","0.196249312237855","0.193769485770232","-0.0120958819961347","0.036391420764634","-0.0185546226148168","-0.0111332407607743","0.236139704094176","0.268371878945518","0.000422454592398633","0.0126929631994825","0.00472314968990741","0.0260915150406657","0.15493112415127","0.167591390757127","100","30%"
"t = 1.56402887458001","0.00477781344918715","0.0454582648618914","0.0159011161357233","0.0197830118428565","0.198745239923227","0.195308512034067","-0.0121413054824205","0.0452568488331532","-0.0199401194329705","-0.00843604784644029","0.241643011091431","0.276165075235145","0.000754648947945515","0.012956890950646","0.00517242364352755","0.0269955594309487","0.153735323788283","0.166442547462577","100","30%"
"t = 1.58720108633906","0.00519700374109659","0.0483117242597925","0.0180534670997411","0.0205010837707308","0.203273615211208","0.198882054654061","-0.0121052093620085","0.0541600618503453","-0.0167641822282122","-0.00143342137413172","0.250180264829374","0.286165554771826","0.00100295355851279","0.0131250878615195","0.00558943517356981","0.0275998770409506","0.152306421671304","0.164902645857243","100","30%"
"t = 1.61037329809811","0.00548347427240709","0.0511328617716298","0.0180711336982091","0.0192346729312785","0.20456427244836","0.19926751263309","-0.0119147095935141","0.0630261430458053","-0.0176431195228549","0.00229760068586167","0.254151582879978","0.292756164510231","0.00116752776972496","0.0133965101170172","0.00605469016032669","0.0283809668368332","0.150875179389858","0.163453882084606","100","30%"
"t = 1.63354550985716","0.00569303287054237","0.0536916833251058","0.0187016998402243","0.0187212724848696","0.207241278061326","0.201113291966888","-0.0118011523654735","0.0714322503437527","-0.0188657728806371","0.00621435632820127","0.259576225105141","0.300288973548366","0.000960615970504366","0.0131906933686392","0.00635740944251082","0.0286865855619862","0.149263972242943","0.161680768433509","100","30%"
"t = 1.65671772161621","0.00591457311379947","0.0562385865781221","0.0182035535507331","0.0165272874894046","0.209330309337364","0.202026256832415","-0.0117762895883886","0.0799118868685516","-0.0195514975762133","0.010254156721047","0.264527791145949","0.306923575574183","0.00122099591657661","0.0131391458035121","0.00726877779122061","0.029741480266026","0.147684481180134","0.160053729217838","100","30%"
"t = 1.67988993337526","0.00625740592263865","0.0588305983781684","0.0187726270911652","0.0160438584019922","0.212168858620607","0.204266154637378","-0.0115288825753377","0.0885166471350734","-0.0191925406057408","0.0169259609564745","0.270897970426409","0.315119110642792","0.00137913926209184","0.0131129841531413","0.00755324497372448","0.0298708456795757","0.145721607864442","0.157787573107547","100","30%"
"t = 1.70306214513431","0.00663450031609185","0.0615844949911762","0.0172048638573363","0.0128679526873483","0.212541729793238","0.203628724161832","-0.0110677559015647","0.0973121955438501","-0.0232688347475772","0.0191721344083636","0.273452009241657","0.320216790898086","0.00164080414690102","0.0132332919249818","0.00832483559734085","0.0307487433890628","0.143977263784529","0.155924838947989","100","30%"
"t = 1.72623435689336","0.00676346973534646","0.0640430159583857","0.0175925780801026","0.0117018560739689","0.214979912007359","0.20516630106326","-0.0108027600105354","0.105363509616069","-0.0213801903080885","0.0263567738635617","0.27900317664635","0.327463593123296","0.00165537302389879","0.0130068023379168","0.00939111501723564","0.0315631836491007","0.142091586254987","0.153777649011848","100","30%"
"t = 1.74940656865241","0.00722060023168939","0.0667270203788079","0.0180777195605684","0.0113389847302807","0.217210230637811","0.206736838268667","-0.0100324035599636","0.113747079735367","-0.021352733245008","0.0333606350259267","0.284305054751779","0.334852128007195","0.00245148543337026","0.0132389690173481","0.0105005493254194","0.0325387529740593","0.140647543550114","0.152056440872056","100","30%"
"t = 1.77257878041146","0.00739058057986249","0.0690843899385194","0.0180852956135974","0.00990123762240153","0.218810109751373","0.207545545660884","-0.00953772614929804","0.121568861742846","-0.0207491815989739","0.0391902241780638","0.28837052146752","0.34082098040445","0.00264403824918345","0.0130446660066136","0.0113957545218944","0.0333306907036348","0.138945207009653","0.150088754149971","100","30%"
"t = 1.79575099217051","0.00770081286582187","0.0714825071600918","0.0182901266004386","0.0087930026818115","0.220138620844516","0.208286867105541","-0.00868215114960484","0.129107461094634","-0.0189861733928075","0.0461829114946798","0.292897948900769","0.346833024403602","0.00288020412935084","0.0127050275567381","0.0117488558642041","0.0333627278229755","0.136997827483491","0.147737543500409","100","30%"
"t = 1.81892320392956","0.00774786313700764","0.0736775846128248","0.0173091445578417","0.00649506327432449","0.220641552895771","0.208005659941079","-0.00802483450189878","0.136130775391728","-0.0166938089328098","0.0523838020169363","0.29646131553683","0.351520593476054","0.00270025129352963","0.0120747975717695","0.0120577223514334","0.0333364155863858","0.134708860577205","0.145145936698113","100","30%"
"t = 1.84209541568861","0.00810564950199722","0.0760401364700685","0.0181116377729411","0.00643297953006518","0.222835751822003","0.209603646589906","-0.0071531792174484","0.143252119421774","-0.0108514449620457","0.061108456038197","0.301921930984794","0.357650574826521","0.00317383934630914","0.01180540374549","0.0127636404297229","0.0334196409507816","0.132461827382917","0.142475394838352","100","30%"
"t = 1.86526762744766","0.00809765855296854","0.0780297804038319","0.0185772580020369","0.00599480414474172","0.224693527297741","0.211233015630136","-0.00673381607883622","0.149341050636909","-0.00761100840845047","0.0686343192157647","0.306224927638737","0.362430412135409","0.00296898951777906","0.011089388092496","0.0130390573138645","0.0332997704669898","0.129815239382686","0.139456361917455","100","30%"
"t = 1.88843983920671","0.00800353430462719","0.0797793552706297","0.0190791335510042","0.00541063464848492","0.225595638779707","0.211256475572702","-0.00644514400704868","0.15482020159377","-0.00682991750429335","0.0749517262734009","0.309003817886718","0.366339087496403","0.00262282400135542","0.0101431054340604","0.0134018217588697","0.033175296264915","0.127420020039873","0.136762403960472","100","30%"
"t = 1.91161205096576","0.00782886718317551","0.0815392797682636","0.017923496202446","0.00358465650116624","0.22521379787616","0.210569608907547","-0.00606121333906121","0.159939668433529","-0.00666833260425433","0.0797472747745122","0.310840665110432","0.368909858125181","0.0021185659811933","0.00910059741669802","0.0132310168614631","0.032333237377315","0.124502145777288","0.13345325875584","100","30%"
"t = 1.93478426272482","0.00786793658211109","0.08329522140939","0.0173971976548439","0.00215740425948236","0.226611233094587","0.211407942423336","-0.00536697631662515","0.164914457732643","-0.00254216127766839","0.0866407365696366","0.315064363875206","0.372746054454297","0.00206931987437972","0.00823280630259931","0.0131586403224259","0.0317281617511359","0.121836923968033","0.130434002411316","100","30%"
"t = 1.95795647448387","0.00801408869178596","0.0853056549205438","0.0165596956074541","0.0004259106086581","0.226306729731209","0.210532963795714","-0.00432140684908347","0.170124537155491","0.00286458521428128","0.0943316114479534","0.317769266052926","0.37585098757167","0.00232247065844869","0.00768877768439321","0.0142164450221997","0.0320327861588022","0.119704896790268","0.127854837946136","100","30%"
"t = 1.98112868624292","0.00784264105302162","0.0868926810118026","0.0154410492482519","-0.00155240742894718","0.225880503915807","0.209589668506017","-0.00372919648414473","0.174309295395187","0.00527239073382257","0.0994341150149501","0.319103419349705","0.377422729670578","0.00201331886131107","0.00670879772364776","0.0138712353601055","0.0310232154338689","0.116779689892202","0.124540808771117","100","30%"
"t = 2.00430089800197","0.00786724603335509","0.0886618851762582","0.0156370278186629","-0.00219550493863733","0.226628005604348","0.209901454394165","-0.00287241970828796","0.178220636058369","0.00967078171300505","0.105404851003408","0.320893882787146","0.379278703991943","0.00208657462065232","0.00594738922979232","0.0143278553936294","0.0309349288074926","0.114189527600318","0.121626337207584","100","30%"
"t = 2.02747310976102","0.00774800178831244","0.0903429730838923","0.0150444363011535","-0.00334479895372963","0.226460481876217","0.209664001703969","-0.0021436992380052","0.181709918034938","0.0141963695457697","0.111762601619193","0.323098326328415","0.380886389627055","0.00205277468871861","0.00521056149920622","0.0151740820842149","0.0308275557720534","0.11172009018166","0.118659133493631","100","30%"
"t = 2.05064532152007","0.00779657879556915","0.0920426059836896","0.013732691732941","-0.00540808504240241","0.226084868132444","0.208751641214236","-0.00134112952710412","0.184942938046372","0.0176586753861189","0.117559527083887","0.324712029840774","0.382049881185025","0.00227553789515126","0.0045221896871894","0.0157092493462056","0.0307119004641672","0.109285819458962","0.115855262302841","100","30%"
"t = 2.07381753327912","0.00799085569108177","0.0939462223614313","0.0131599098240673","-0.00631655410384059","0.225710787228018","0.208224423858681","-0.000192951991957137","0.188159870041188","0.0237054804011309","0.124217604510807","0.325936970084084","0.382830324936182","0.00257115539317829","0.0039882283977091","0.0170214516776755","0.0310810722439304","0.107173749207915","0.113296274799832","100","30%"
"t = 2.09698974503817","0.00779928078167761","0.095564980983698","0.0117502454657677","-0.00880510367787516","0.224400077333017","0.206491539617868","0.000327748101153997","0.190624192977089","0.0237950377531704","0.125974012038569","0.325173044556306","0.381697564577021","0.00234247910617946","0.00324338616482062","0.0164184208965971","0.0300319111808206","0.10445933450109","0.110278461175171","100","30%"
"t = 2.12016195679722","0.00787578998536704","0.0974707084437206","0.0112104006024915","-0.00917733942814292","0.224454399253506","0.206694582190165","0.00145718837063565","0.193257196718575","0.0294913050796796","0.132241805470303","0.32626402490604","0.381903131644949","0.00235482599662509","0.00266296834308484","0.0169410673389648","0.0297457796740897","0.101861069455408","0.107329015046474","100","30%"
"t = 2.14333416855627","0.00784067785621024","0.0990463394580745","0.00945054013392799","-0.0115654495599141","0.224129212390594","0.205906277434186","0.00236973705681285","0.195120906243011","0.0332562322295899","0.13592634748345","0.327441292685295","0.382098141898118","0.00242870291477094","0.00194496025671593","0.0175538340539919","0.0295348213852171","0.0997820346057227","0.104876495523766","100","30%"
"t = 2.16650638031532","0.00771909649390876","0.10045606353452","0.009472580049433","-0.0121068304956074","0.223648943392009","0.205265360367994","0.00338108525066247","0.196495776558639","0.036389944463722","0.139238731669306","0.327376411973459","0.380895810055812","0.0024076535712575","0.00111440111779043","0.0169509397715059","0.0283874856329099","0.0968413881080071","0.101577837058129","100","30%"
"t = 2.18967859207437","0.00754021945831281","0.101676145591345","0.00951939274386183","-0.0124211727943399","0.223376095386247","0.204833035403041","0.00410325937324611","0.197241785041376","0.0425915098898435","0.143404760637139","0.327542078842046","0.379441843851261","0.00229434320201672","0.000229339733617355","0.0167277541491391","0.0275232483159294","0.0941884046765671","0.0986433630512139","100","30%"
"t = 2.21285080383342","0.00761379513608628","0.103347261316412","0.00741723121779071","-0.0151618715858615","0.222160805493344","0.203468159007375","0.00512886925735447","0.198291710455246","0.0475453687010435","0.147453785132833","0.327562892931265","0.378200177065629","0.00236991851825555","-0.000365919329185672","0.017379670052387","0.0274828137408548","0.0919295013385922","0.0959736790343507","100","30%"
"t = 2.23602301559247","0.00759006904773375","0.104909504003962","0.00814595484423888","-0.0139784865659065","0.221045232018871","0.203025883946886","0.0060018797921032","0.198890171074593","0.054214528954888","0.151743504496222","0.326870329559528","0.375850695587094","0.00230413536288581","-0.00104109654680826","0.0167091725371866","0.0260387897869063","0.0890788465024437","0.0927579568476814","100","30%"
"t = 2.25919522735152","0.00739431910558164","0.106275509003201","0.0078901622272156","-0.0145364757069207","0.220489670923436","0.202583762401459","0.00668692225942133","0.19890904127505","0.0609006749232119","0.156640304220011","0.326526638856183","0.373919212176649","0.00217067190620069","-0.00181050011625285","0.0169467936211893","0.0253367798200319","0.0864387858874945","0.0897210888729728","100","30%"
"t = 2.28236743911057","0.00761389121520206","0.107931638543436","0.00868454868255062","-0.0144286130139058","0.220872193861388","0.202706298117522","0.00800168429763024","0.199161085340654","0.0683309403651703","0.161423546724887","0.326715845878162","0.372243754908793","0.00242461743637108","-0.00231797244346248","0.0176532827471453","0.0252659707100907","0.0842051232592079","0.0872004963458114","100","30%"
"t = 2.30553965086962","0.00775007537980309","0.109613079689922","0.00832696482703389","-0.0143588621855824","0.220104953497979","0.202417961966389","0.0090244693443573","0.19908139834133","0.0746347900780552","0.16517471087197","0.325303756866403","0.369455130840851","0.00256789208612669","-0.0028078009654636","0.0182640224275812","0.025005043339664","0.0819090993452947","0.0845259414412173","100","30%"
"t = 2.32871186262867","0.00764795411435838","0.111028545811957","0.00738604975638032","-0.0150954984799837","0.218599054287266","0.201321547522175","0.00973715840773102","0.198381926170337","0.0804576711691689","0.168105783417555","0.32405928155535","0.366191257357263","0.00233811857791213","-0.00352478628583083","0.0182977616008943","0.0241799534516452","0.0795603763450974","0.08178748201683","100","30%"
"t = 2.35188407438772","0.00752635180864497","0.1122260600764","0.00600343476215478","-0.0165678459552931","0.217220976628171","0.20005708284142","0.0100456986766777","0.19717325093338","0.0833563973182318","0.169212205778618","0.321644994984244","0.362166563906134","0.0021841438448382","-0.00419324076966441","0.0174172521011817","0.0229217715433366","0.0768197826189151","0.078848864805831","100","30%"
"t = 2.37505628614677","0.00720068812687489","0.113181286409537","0.00539676108151152","-0.0166124342922779","0.216291722526132","0.199230984692469","0.0101969084817985","0.195540296601294","0.0860298443002172","0.170869961132947","0.317953805420629","0.357435281283","0.00187273025828593","-0.00490331545782405","0.017459189612633","0.0224320413549404","0.0742177712970247","0.0760422296631248","100","30%"
"t = 2.39822849790583","0.00685805850226776","0.114127799160403","0.00445621576296644","-0.0177491329255369","0.214468836162629","0.197334237900561","0.0102781352526032","0.193687801905758","0.088700302439372","0.171037352615322","0.313774737227182","0.352184478639985","0.00158642455794008","-0.00556530408784181","0.0174493627365295","0.0218255316066578","0.07177049410546","0.0734223203896112","100","30%"
"t = 2.42140070966488","0.00695889925829494","0.115565197675108","0.00223710449520835","-0.0195823494180689","0.212816909267198","0.195877569853452","0.0110756457516094","0.192185201529217","0.0979756574348547","0.174675390195041","0.312413307981846","0.348545061711027","0.00157706687608996","-0.00595260913855647","0.0178991292187196","0.0214715343515317","0.0696102558305015","0.070964268202713","100","30%"
"t = 2.44457292142393","0.00691522293549595","0.116824587604075","-0.000449793979650777","-0.0217615965269807","0.209807859358274","0.193012998947091","0.0116130992136028","0.190330398945002","0.101119618412123","0.175860613152638","0.309623346302023","0.343713769196899","0.00146041994114831","-0.00638736220378714","0.0183568334695029","0.0212511896471513","0.0674589483003888","0.0685598234340092","100","30%"
"t = 2.46774513318298","0.00670666875605746","0.117911251569362","-0.000575900453186962","-0.0219029852298522","0.209073961393185","0.19218729570008","0.0118397167052561","0.188134766765218","0.103170130123095","0.175800792503318","0.30595750294292","0.338761116177516","0.00133887893806514","-0.00688860833735412","0.0180433862679663","0.020485601568275","0.0652359158498663","0.0661365219581264","100","30%"
"t = 2.49091734494203","0.00672793273029185","0.119122088686859","-0.00214542867182066","-0.0232074908974957","0.207415149769566","0.1906949759368","0.0124110403547649","0.185967029836337","0.107521409825298","0.176929427472987","0.30300686376275","0.334116540608942","0.00126979942829353","-0.00721568900367523","0.0182256670428671","0.0200188343900773","0.0631994651829149","0.0638579004404892","100","30%"
"t = 2.51408955670108","0.00656086251711466","0.120069247331306","-0.00103663642520582","-0.0215762790341774","0.206021067962602","0.189765037435523","0.0124864681644045","0.183284330705062","0.11039222275767","0.176675488507416","0.298980303827922","0.32846989764463","0.00107771934234945","-0.00764763532662227","0.0175362524188778","0.0188379196385489","0.0609208050503171","0.0613602120822111","100","30%"
"t = 2.53726176846013","0.00622413755261423","0.120795613580986","-0.00146669836122047","-0.0222327952437635","0.204055691355794","0.187820224637482","0.0122338432765614","0.180221965584064","0.114873345406295","0.177752510086062","0.295714878418144","0.323301350824831","0.000829409915309031","-0.00812635435792562","0.0178153844527374","0.0186364344779666","0.0589542532492654","0.0591992672920906","100","30%"
"t = 2.56043398021918","0.00570498605301372","0.121368381598966","-0.00284858741589757","-0.0231007841643692","0.201926427307031","0.186113851399895","0.0116199110768929","0.176868192798064","0.115705164303614","0.176521553520712","0.29178743394926","0.317981539056213","0.000351781295339033","-0.00863738599023651","0.0172509621148528","0.0177613592822892","0.0568276307205529","0.0569200121030181","100","30%"
"t = 2.58360619197823","0.00517232069520444","0.121589630151727","-0.00728404428287465","-0.027281080299552","0.198171756864598","0.18253572794228","0.01095847864797","0.173039034885227","0.114959470128592","0.173568009583239","0.286212344620795","0.311187443501476","-1.9888728985334e-05","-0.00920393552529271","0.0167135888909557","0.0169137493093867","0.0545884487069975","0.0545772926624873","100","30%"
"t = 2.60677840373728","0.00485370484317578","0.122054561233812","-0.0089824338762001","-0.0285023771476737","0.194711209047776","0.179621425977889","0.0105420240910133","0.169391207834371","0.116725320276045","0.172189308756888","0.280989391308568","0.304637080498926","-0.000391604564049887","-0.00962464056016654","0.0162304770776554","0.0160604253101928","0.052392015534332","0.0522718950170415","100","30%"
"t = 2.62995061549633","0.00478837609404874","0.122387527635235","-0.010141181538414","-0.029816130346067","0.192414661482774","0.177526279955502","0.0106173978049107","0.165637252077165","0.117422400521158","0.170307170760673","0.276242889742184","0.298503558752106","-0.00051135098795815","-0.0100362452749699","0.0158154387531374","0.0155455747660182","0.0504761547691286","0.0502644350023154","100","30%"
"t = 2.65312282725538","0.00469311436115753","0.123016802472192","-0.0113880955596368","-0.0307038723467448","0.190083672529474","0.17554020182531","0.0104276708506524","0.162143397531973","0.120490847992628","0.170499087937121","0.271728560704888","0.29274832143359","-0.00065356145659093","-0.0102817658021025","0.0160859056917563","0.0153988425348296","0.0486562950833698","0.048346758762838","100","30%"
"t = 2.67629503901443","0.00455833963622651","0.123595517241553","-0.0129471154607021","-0.037528245153592","0.185493559394378","0.170803569147979","0.0100267534578792","0.158554589705338","0.120243221848492","0.168193168495441","0.265796523585967","0.285914268624535","-0.000795810553779502","-0.0103930710980659","0.0157002824055646","0.01475559139609","0.0466707537519949","0.0462935531786492","100","30%"
"t = 2.69946725077348","0.00434500469696584","0.123803690491164","-0.017392166253409","-0.0418801074435032","0.181415619436106","0.166697688801679","0.00958379822043201","0.154621466895969","0.121897912738613","0.16674711063644","0.261193965328934","0.279962976401519","-0.00100088593070416","-0.0105972628039452","0.0152661954721272","0.0142747337593378","0.045046224628243","0.0446285348496736","100","30%"
"t = 2.72263946253253","0.00426810876412555","0.1240616949903","-0.0191839272387522","-0.0428191522875782","0.178498949224379","0.164131444483937","0.00913586663747333","0.150658328010594","0.122137810329635","0.164292145067515","0.255825181541601","0.273400361815409","-0.00119185650183129","-0.0107738640892838","0.015146603705453","0.013840019770463","0.0433494789306481","0.042785949409417","100","30%"
"t = 2.74581167429158","0.00487194534395271","0.124592323202974","-0.0212536241667094","-0.0445465744774385","0.175978628705507","0.162135340235957","0.00996178916722066","0.147055220977119","0.122407600399296","0.162414433676858","0.250995361517194","0.267269727969764","-0.00102148897026947","-0.0107285887811196","0.0150554525370712","0.0136534791835096","0.0418128682880367","0.0411785286549056","100","30%"
"t = 2.76898388605063","0.00497267854924403","0.124993858187537","-0.0238205859098412","-0.0460155663986289","0.171981764724157","0.158481994380235","0.00994646086982468","0.143316626058868","0.124839980396157","0.16136855401007","0.245849672139285","0.260767500646808","-0.00115894902108395","-0.0107320160290316","0.015273319526804","0.0134561011077417","0.0402243777566274","0.0394966160257246","100","30%"
"t = 2.79215609780968","0.00520885175605","0.125154147534589","-0.0222032249809183","-0.0442295937076149","0.169752014334758","0.156494991980556","0.0103492875925432","0.139397361203049","0.125570090890187","0.15908345677306","0.240959345686983","0.254687497929831","-0.00111837117116883","-0.0107151148285292","0.0149080007595173","0.0128963552772766","0.0386478846397882","0.0378676832748814","100","30%"
